svm_type c_svc
kernel_type rbf
gamma 0.5
nr_class 5
total_sv 6148
rho -2.1443489575125803 0.022827499628105357 -2.5482422698880636 -6.997589308731273 7.834840059784334 -2.832026029747752 -2.594288305465654 -2.7632571364406315 -11.74127487823382 2.776449652757166
label 3 1 2 4 5
probA -2.3587317163060177 -2.1609318067525263 -1.9046867082157455 -1.8453141345644297 -1.5010065577886205 -2.941983175914362 -2.5529394424205405 -2.1722560558028596 -1.528547886696227 -2.5325031183430013
probB -0.22855124900054755 -0.33024664867664005 0.014568004708039541 -0.1305605224841783 0.1862593122666534 0.8542845950129373 0.2085097657074226 0.16991610633282442 -0.09436110481592937 -0.1286888994991706
nr_sv 2122 340 1536 1032 1118
SV
0.0 1.02252706746132 0.0 0.0 1:0.1675640344619751 2:1.0 3:-0.4426092505455017 4:0.16883745789527893 5:0.12525831162929535 6:-0.420009583234787 7:0.3783421218395233 8:-0.3638354241847992 9:0.2484210580587387 10:-0.29716920852661133 11:0.3591625988483429 12:-0.30983537435531616 
0.0 100.0 0.0 0.0 1:8.467413902282715 2:1.0 3:-0.9703999757766724 4:0.0568000003695488 5:0.06549999862909317 6:-0.03550000116229057 7:0.011099999770522118 8:-0.05950000137090683 9:0.041099999099969864 10:-0.04149999842047691 11:0.035999998450279236 12:-0.053700000047683716 
0.0 100.0 0.0 100.0 1:8.281471252441406 2:1.0 3:-1.0932999849319458 4:0.1851000040769577 5:0.03060000017285347 6:-0.048700001090765 7:0.01810000091791153 8:-0.017899999395012856 9:0.027300000190734863 10:-0.007600000128149986 11:-0.026499999687075615 12:-0.031099999323487282 
0.0 100.0 0.0 100.0 1:8.37070083618164 2:1.0 3:-1.0125999450683594 4:0.11940000206232071 5:0.02889999933540821 6:-0.03229999914765358 7:-0.031599998474121094 8:0.009600000455975533 9:0.03819999843835831 10:-0.01730000041425228 11:-0.028999999165534973 12:-0.039799999445676804 
0.0 100.0 0.0 0.0 1:8.218669891357422 2:1.0 3:-1.1800999641418457 4:0.2459000051021576 5:0.06719999760389328 6:-0.02969999983906746 7:-0.011800000444054604 8:-0.08910000324249268 9:0.1111999973654747 10:-0.04399999976158142 11:-0.010400000028312206 12:0.010099999606609344 
0.0 100.0 0.0 100.0 1:7.9721503257751465 2:1.0 3:-1.2151000499725342 4:0.257999986410141 5:0.08100000023841858 6:-0.06849999725818634 7:0.029999999329447746 8:-0.1370999962091446 9:0.20160000026226044 10:-0.09600000083446503 11:0.0982000008225441 12:-0.0689999982714653 
0.0 100.0 0.0 100.0 1:8.017300605773926 2:1.0 3:-1.2410999536514282 4:0.3537999987602234 5:0.05429999902844429 6:-0.10649999976158142 7:0.02979999966919422 8:-0.049300000071525574 9:0.03460000082850456 10:-0.03840000182390213 11:0.02459999918937683 12:-0.025800000876188278 
0.0 100.0 0.0 100.0 1:8.069108963012695 2:1.0 3:-1.1685999631881714 4:0.28139999508857727 5:0.0625 6:-0.05040000006556511 7:-0.0617000013589859 8:-0.00559999980032444 9:0.05889999866485596 10:-0.006599999964237213 11:0.0017000000225380063 12:-0.043299999088048935 
0.0 100.0 0.0 100.0 1:8.101696968078613 2:1.0 3:-1.174399971961975 4:0.31360000371932983 5:0.08780000358819962 6:-0.16380000114440918 7:0.0551999993622303 8:-0.011099999770522118 9:0.041200000792741776 10:-0.1266999989748001 11:0.10419999808073044 12:-0.05999999865889549 
0.0 100.0 0.0 100.0 1:7.976622581481934 2:1.0 3:-1.2116999626159668 4:0.3418999910354614 5:0.0851999968290329 6:-0.1404999941587448 7:0.09969999641180038 8:-0.16920000314712524 9:0.15209999680519104 10:-0.06970000267028809 11:0.011800000444054604 12:-0.01759999990463257 
0.0 100.0 0.0 100.0 1:8.09365177154541 2:1.0 3:-1.1327999830245972 4:0.28929999470710754 5:0.09920000284910202 6:-0.09790000319480896 7:-0.030300000682473183 8:-0.09059999883174896 9:0.05469999834895134 10:-0.014499999582767487 11:0.07349999994039536 12:-0.11580000072717667 
0.0 100.0 0.0 100.0 1:8.258672714233398 2:1.0 3:-1.083400011062622 4:0.24709999561309814 5:0.04780000075697899 6:-0.06800000369548798 7:-0.05609999969601631 8:-0.014299999922513962 9:0.07590000331401825 10:-0.06809999793767929 11:0.03799999877810478 12:-0.06650000065565109 
0.0 100.0 0.0 0.0 1:8.487411499023438 2:1.0 3:-1.0027999877929688 4:0.041999999433755875 5:0.05380000174045563 6:0.09629999846220016 7:-0.04270000010728836 8:-0.10189999639987946 9:0.021199999377131462 10:0.011300000362098217 11:-0.004100000020116568 12:0.0012000000569969416 
0.0 100.0 0.0 0.0 1:8.705750465393066 2:1.0 3:-0.8939999938011169 4:0.012299999594688416 5:0.02370000071823597 6:-0.029899999499320984 7:0.017100000753998756 8:-0.061900001019239426 9:-0.09740000218153 10:0.13439999520778656 11:-0.01510000042617321 12:-0.039000000804662704 
0.0 100.0 0.0 0.0 1:8.582082748413086 2:1.0 3:-0.921500027179718 4:0.04259999841451645 5:0.032600000500679016 6:0.03700000047683716 7:0.011300000362098217 8:-0.14339999854564667 9:0.024000000208616257 10:-0.03869999945163727 11:0.05719999969005585 12:-0.027499999850988388 
0.0 0.0 100.0 0.0 1:5.975722312927246 2:1.0 3:-1.7934999465942383 4:0.8863999843597412 5:0.18889999389648438 6:-0.21299999952316284 7:0.05469999834895134 8:-0.1703999936580658 9:0.10909999907016754 10:-0.08810000121593475 11:0.21389999985694885 12:-0.13580000400543213 
0.0 100.0 0.0 100.0 1:7.821226119995117 2:1.0 3:-1.07260000705719 4:-0.02930000051856041 5:0.15950000286102295 6:0.0010000000474974513 7:0.060600001364946365 8:-0.029999999329447746 9:0.039000000804662704 10:-0.045099999755620956 11:-0.05209999904036522 12:0.041999999433755875 
0.0 100.0 0.0 0.0 1:8.194254875183105 2:1.0 3:-1.1283999681472778 4:0.11739999800920486 5:0.17440000176429749 6:-0.011699999682605267 7:0.01140000019222498 8:-0.14079999923706055 9:0.1526000052690506 10:-0.19499999284744263 11:0.09969999641180038 12:-0.023800000548362732 
0.0 100.0 0.0 100.0 1:8.47894287109375 2:1.0 3:-0.9097999930381775 4:-0.00930000003427267 5:0.0738999992609024 6:-0.06069999933242798 7:0.07919999957084656 8:-0.09109999984502792 9:0.10080000013113022 10:-0.10499999672174454 11:0.066600002348423 12:-0.09929999709129333 
100.0 100.0 0.0 100.0 1:8.426533699035645 2:1.0 3:-0.8727999925613403 4:-3.000000142492354E-4 5:0.1412999927997589 6:-0.043699998408555984 7:0.0066999997943639755 8:-0.04500000178813934 9:0.06509999930858612 10:-0.1298999935388565 11:-0.026399999856948853 12:-0.052299998700618744 
100.0 100.0 0.0 0.0 1:8.719388961791992 2:1.0 3:-0.8345000147819519 4:-0.11259999871253967 5:0.06469999998807907 6:-0.002199999988079071 7:0.05909999832510948 8:-0.08129999786615372 9:0.08720000088214874 10:-0.07909999787807465 11:0.061500001698732376 12:-0.0989999994635582 
0.0 100.0 0.0 100.0 1:8.347881317138672 2:1.0 3:-1.0454000234603882 4:0.08799999952316284 5:0.10570000112056732 6:-0.11900000274181366 7:0.15160000324249268 8:-0.16519999504089355 9:0.10899999737739563 10:-0.09130000323057175 11:0.066600002348423 12:-0.051500000059604645 
100.0 100.0 0.0 100.0 1:8.686553001403809 2:1.0 3:-0.8510000109672546 4:-0.06369999796152115 5:0.08479999750852585 6:-0.07940000295639038 7:0.11100000143051147 8:-0.14509999752044678 9:0.1404000073671341 10:-0.13650000095367432 11:0.06949999928474426 12:-0.07989999651908875 
0.0 100.0 0.0 100.0 1:8.454854965209961 2:1.0 3:-1.0003000497817993 4:0.029200000688433647 5:0.09269999712705612 6:-0.10580000281333923 7:0.1251000016927719 8:-0.13989999890327454 9:0.13199999928474426 10:-0.07440000027418137 11:0.08780000358819962 12:-0.10379999876022339 
0.0 100.0 0.0 0.0 1:8.260547637939453 2:1.0 3:-1.0563000440597534 4:0.06769999861717224 5:0.13930000364780426 6:-0.06729999929666519 7:0.11270000040531158 8:-0.17090000212192535 9:0.10000000149011612 10:-0.1378999948501587 11:0.1728000044822693 12:-0.10100000351667404 
0.0 100.0 0.0 0.0 1:8.155887603759766 2:1.0 3:-1.1823999881744385 4:0.15809999406337738 5:0.2117999941110611 6:-0.17100000381469727 7:0.09740000218153 8:-0.12430000305175781 9:0.10300000011920929 10:-0.11550000309944153 11:0.12800000607967377 12:-0.06210000067949295 
0.0 100.0 0.0 0.0 1:7.729295253753662 2:1.0 3:-1.2365000247955322 4:0.15039999783039093 5:0.3357999920845032 6:-0.08380000293254852 7:0.04190000146627426 8:-0.23759999871253967 9:0.0333000011742115 10:-0.007000000216066837 11:0.22439999878406525 12:-0.1216999962925911 
0.0 100.0 100.0 100.0 1:7.985838890075684 2:1.0 3:-1.0485999584197998 4:-0.11640000343322754 5:0.12210000306367874 6:0.03709999844431877 7:0.042899999767541885 8:0.05689999833703041 9:-0.034299999475479126 10:-0.02319999970495701 11:0.05460000038146973 12:-0.04729999974370003 
0.0 0.0 0.0 100.0 1:7.963043689727783 2:1.0 3:-1.1031999588012695 4:-0.1088000014424324 5:0.3237999975681305 6:-0.10750000178813934 7:0.1039000004529953 8:-0.056699998676776886 9:0.05739999935030937 10:-0.09459999948740005 11:0.09380000084638596 12:-0.04699999839067459 
0.0 100.0 0.0 0.0 1:7.5729265213012695 2:1.0 3:-1.3034000396728516 4:0.09139999747276306 5:0.451200008392334 6:-0.12060000002384186 7:0.03440000116825104 8:-0.10930000245571136 9:0.022600000724196434 10:-0.09309999644756317 11:0.12520000338554382 12:-0.016200000420212746 
0.0 100.0 0.0 0.0 1:7.18359375 2:1.0 3:-1.4946000576019287 4:0.31310001015663147 5:0.4366999864578247 6:-0.17100000381469727 7:0.06520000100135803 8:-0.1509999930858612 9:0.028300000354647636 10:-0.045099999755620956 11:0.07349999994039536 12:-0.011599999852478504 
0.0 0.0 64.19535757776055 0.0 1:6.62722635269165 2:1.0 3:-1.7569999694824219 4:0.7827000021934509 5:0.33009999990463257 6:-0.4271000027656555 7:0.251800000667572 8:-0.34450000524520874 9:0.29269999265670776 10:-0.2703000009059906 11:0.3675000071525574 12:-0.1850000023841858 
0.0 0.0 100.0 0.0 1:7.123440742492676 2:1.0 3:-1.4523999691009521 4:0.19050000607967377 5:0.5958999991416931 6:-0.3528999984264374 7:0.06939999759197235 8:-0.11630000174045563 9:0.12890000641345978 10:-0.14390000700950623 11:0.2833000123500824 12:-0.17350000143051147 
0.0 22.397290609695155 0.0 0.0 1:6.911970615386963 2:1.0 3:-1.6354999542236328 4:0.661899983882904 5:0.32190001010894775 6:-0.4595000147819519 7:0.3449000120162964 8:-0.3596999943256378 9:0.2678000032901764 10:-0.2937999963760376 11:0.3628000020980835 12:-0.15160000324249268 
0.0 0.0 100.0 0.0 1:6.613730430603027 2:1.0 3:-1.7094999551773071 4:0.7312999963760376 5:0.36559998989105225 6:-0.4968000054359436 7:0.28540000319480896 8:-0.3336000144481659 9:0.3467000126838684 10:-0.31709998846054077 11:0.3424000144004822 12:-0.1590999960899353 
0.0 0.0 100.0 0.0 1:6.656566619873047 2:1.0 3:-1.7143000364303589 4:0.7113999724388123 5:0.36570000648498535 6:-0.460099995136261 7:0.28999999165534973 8:-0.3693000078201294 9:0.3935000002384186 10:-0.3499999940395355 11:0.3059000074863434 12:-0.1264999955892563 
0.0 100.0 0.0 100.0 1:7.675710678100586 2:1.0 3:-0.9828000068664551 4:-0.13580000400543213 5:0.2240999937057495 6:0.06390000134706497 7:-0.024700000882148743 8:-0.16979999840259552 9:0.16979999840259552 10:-0.120899997651577 11:0.15330000221729279 12:-0.11760000139474869 
0.0 100.0 0.0 100.0 1:7.630422592163086 2:1.0 3:-1.298200011253357 4:0.23639999330043793 5:0.3456000089645386 6:-0.2939000129699707 7:0.1421000063419342 8:-0.20819999277591705 9:0.26750001311302185 10:-0.21649999916553497 11:0.23890000581741333 12:-0.15489999949932098 
0.0 0.0 0.0 100.0 1:7.752926826477051 2:1.0 3:-1.3558000326156616 4:0.2615000009536743 5:0.32190001010894775 6:-0.2782999873161316 7:0.20149999856948853 8:-0.24079999327659607 9:0.28859999775886536 10:-0.30239999294281006 11:0.26570001244544983 12:-0.12449999898672104 
0.0 0.0 0.0 100.0 1:7.688857078552246 2:1.0 3:-1.330399990081787 4:0.28450000286102295 5:0.3490000069141388 6:-0.3334999978542328 7:0.19269999861717224 8:-0.22550000250339508 9:0.23729999363422394 10:-0.1842000037431717 11:0.1598999947309494 12:-0.1062999963760376 
0.0 100.0 0.0 0.0 1:8.156678199768066 2:1.0 3:-0.890999972820282 4:-0.21690000593662262 5:0.211899995803833 6:0.10530000180006027 7:-0.00570000009611249 8:-0.16740000247955322 9:0.00139999995008111 10:0.012900000438094139 11:-0.010999999940395355 12:0.0015999999595806003 
0.0 0.0 61.30300202376628 0.0 1:6.921145439147949 2:1.0 3:-1.5382000207901 4:0.4413999915122986 5:0.47749999165534973 6:-0.46639999747276306 7:0.31859999895095825 8:-0.28029999136924744 9:0.09589999914169312 10:-0.15719999372959137 11:0.3000999987125397 12:-0.14229999482631683 
0.0 0.0 100.0 0.0 1:7.092081546783447 2:1.0 3:-1.5399999618530273 4:0.40049999952316284 5:0.49799999594688416 6:-0.44920000433921814 7:0.2865999937057495 8:-0.2249000072479248 9:0.062199998646974564 10:-0.15049999952316284 11:0.30079999566078186 12:-0.14000000059604645 
0.0 0.0 100.0 0.0 1:6.848968029022217 2:1.0 3:-1.5321999788284302 4:0.4268999993801117 5:0.4404999911785126 6:-0.4016000032424927 7:0.27559998631477356 8:-0.20919999480247498 9:0.01489999983459711 10:-0.11259999871253967 11:0.24449999630451202 12:-0.10350000113248825 
0.0 0.0 100.0 0.0 1:7.049977779388428 2:1.0 3:-1.5119999647140503 4:0.3411000072956085 5:0.5552999973297119 6:-0.4449000060558319 7:0.2298000007867813 8:-0.25189998745918274 9:0.19439999759197235 10:-0.2393999993801117 11:0.26010000705718994 12:-0.08910000324249268 
0.0 0.0 0.0 100.0 1:8.092216491699219 2:1.0 3:-1.1335999965667725 4:-0.10899999737739563 5:0.39590001106262207 6:-0.2069000005722046 7:0.2547999918460846 8:-0.2160000056028366 9:0.14560000598430634 10:-0.21310000121593475 11:0.16459999978542328 12:-0.05420000106096268 
0.0 100.0 0.0 0.0 1:7.789384841918945 2:1.0 3:-1.292199969291687 4:0.04969999939203262 5:0.47510001063346863 6:-0.15860000252723694 7:0.1315000057220459 8:-0.2345000058412552 9:0.09210000187158585 10:-0.14949999749660492 11:0.2531999945640564 12:-0.11110000312328339 
0.0 100.0 0.0 0.0 1:7.484483242034912 2:1.0 3:-1.3314000368118286 4:0.17190000414848328 5:0.5496000051498413 6:-0.3260999917984009 7:0.19110000133514404 8:-0.2685000002384186 9:0.05490000173449516 10:-0.16689999401569366 11:0.39800000190734863 12:-0.17900000512599945 
0.0 0.0 100.0 0.0 1:7.120210647583008 2:1.0 3:-1.5966999530792236 4:0.4237000048160553 5:0.4936000108718872 6:-0.3537999987602234 7:0.26260000467300415 8:-0.42329999804496765 9:0.31310001015663147 10:-0.3061999976634979 11:0.4133000075817108 12:-0.18629999458789825 
0.0 0.0 100.0 0.0 1:7.081092357635498 2:1.0 3:-1.611299991607666 4:0.5238000154495239 5:0.3926999866962433 6:-0.4596000015735626 7:0.34139999747276306 8:-0.2630999982357025 9:0.2492000013589859 10:-0.2976999878883362 11:0.22100000083446503 12:-0.06800000369548798 
7.012206093701937 0.0 0.0 0.0 1:8.052960395812988 2:1.0 3:-0.9305999875068665 4:-0.2741999924182892 5:0.3833000063896179 6:-0.06710000336170197 7:0.09200000017881393 8:-0.10189999639987946 9:0.0632999986410141 10:-0.3125 11:0.29100000858306885 12:-0.07739999890327454 
0.0 26.17362641264421 0.0 0.0 1:7.613152027130127 2:1.0 3:-1.464400053024292 4:0.2924000024795532 5:0.5612999796867371 6:-0.3571999967098236 7:0.23119999468326569 8:-0.41449999809265137 9:0.27489998936653137 10:-0.2558000087738037 11:0.38019999861717224 12:-0.20100000500679016 
0.0 0.0 100.0 0.0 1:7.160588264465332 2:1.0 3:-1.603700041770935 4:0.46239998936653137 5:0.5295000076293945 6:-0.45489999651908875 7:0.28619998693466187 8:-0.42250001430511475 9:0.37700000405311584 10:-0.36820000410079956 11:0.4041999876499176 12:-0.17219999432563782 
0.0 0.0 100.0 0.0 1:7.441506862640381 2:1.0 3:-1.4657000303268433 4:0.24789999425411224 5:0.5407999753952026 6:-0.3752000033855438 7:0.27889999747276306 8:-0.3853999972343445 9:0.3700999915599823 10:-0.4027000069618225 11:0.2556999921798706 12:-0.03739999979734421 
0.0 0.0 100.0 0.0 1:7.174675464630127 2:1.0 3:-1.4783999919891357 4:0.28380000591278076 5:0.5515999794006348 6:-0.4219000041484833 7:0.3190999925136566 8:-0.38769999146461487 9:0.24250000715255737 10:-0.2621000111103058 11:0.3544999957084656 12:-0.16459999978542328 
0.0 100.0 100.0 0.0 1:7.389988422393799 2:1.0 3:-1.5414999723434448 4:0.35269999504089355 5:0.5702999830245972 6:-0.4374000132083893 7:0.2831999957561493 8:-0.414000004529953 9:0.2985999882221222 10:-0.2727999985218048 11:0.33329999446868896 12:-0.1387999951839447 
0.0 0.0 100.0 0.0 1:7.210145950317383 2:1.0 3:-1.5604000091552734 4:0.41190001368522644 5:0.4722000062465668 6:-0.3723999857902527 7:0.3107999861240387 8:-0.4296000003814697 9:0.2935999929904938 10:-0.29750001430511475 11:0.35679998993873596 12:-0.14710000157356262 
0.0 0.0 100.0 0.0 1:6.822885513305664 2:1.0 3:-1.5599000453948975 4:0.4442000091075897 5:0.413100004196167 6:-0.36070001125335693 7:0.2842999994754791 8:-0.38589999079704285 9:0.3359000086784363 10:-0.3122999966144562 11:0.26420000195503235 12:-0.09570000320672989 
0.0 0.0 100.0 0.0 1:6.981606483459473 2:1.0 3:-1.611799955368042 4:0.4440999925136566 5:0.5584999918937683 6:-0.47859999537467957 7:0.30559998750686646 8:-0.4002000093460083 9:0.34130001068115234 10:-0.3628999888896942 11:0.4018999934196472 12:-0.17219999432563782 
0.0 0.0 100.0 0.0 1:7.1261091232299805 2:1.0 3:-1.544700026512146 4:0.36809998750686646 5:0.5006999969482422 6:-0.3847000002861023 7:0.3188999891281128 8:-0.4620000123977661 9:0.3944999873638153 10:-0.35740000009536743 11:0.325300008058548 12:-0.13279999792575836 
0.0 0.0 100.0 0.0 1:7.279763221740723 2:1.0 3:-1.5583000183105469 4:0.3682999908924103 5:0.5353999733924866 6:-0.4099000096321106 7:0.28929999470710754 8:-0.3991999924182892 9:0.3140000104904175 10:-0.33799999952316284 11:0.40130001306533813 12:-0.1800999939441681 
0.0 0.0 100.0 0.0 1:7.331037521362305 2:1.0 3:-1.544800043106079 4:0.3010999858379364 5:0.6629999876022339 6:-0.46000000834465027 7:0.23749999701976776 8:-0.3467000126838684 9:0.2736000120639801 10:-0.29840001463890076 11:0.3573000133037567 12:-0.15440000593662262 
0.0 0.0 100.0 0.0 1:7.273812770843506 2:1.0 3:-1.5011999607086182 4:0.29159998893737793 5:0.5432000160217285 6:-0.39489999413490295 7:0.3107999861240387 8:-0.38429999351501465 9:0.29429998993873596 10:-0.3109000027179718 11:0.3239000141620636 12:-0.13619999587535858 
0.0 0.0 54.50085424811699 0.0 1:7.891355514526367 2:1.0 3:-1.117400050163269 4:-0.2526000142097473 5:0.5170999765396118 6:-0.11659999936819077 7:0.21230000257492065 8:-0.2303999960422516 9:0.16429999470710754 10:-0.2867000102996826 11:0.16009999811649323 12:-0.00930000003427267 
0.0 100.0 100.0 0.0 1:7.451412200927734 2:1.0 3:-1.569100022315979 4:0.38269999623298645 5:0.597100019454956 6:-0.4681999981403351 7:0.29269999265670776 8:-0.41990000009536743 9:0.32679998874664307 10:-0.2976999878883362 11:0.34389999508857727 12:-0.149399995803833 
0.0 0.0 100.0 0.0 1:7.46533727645874 2:1.0 3:-1.498900055885315 4:0.2937000095844269 5:0.5561000108718872 6:-0.41269999742507935 7:0.2842000126838684 8:-0.3785000145435333 9:0.2702000141143799 10:-0.3000999987125397 11:0.3799000084400177 12:-0.16859999299049377 
0.0 0.0 100.0 0.0 1:7.665039539337158 2:1.0 3:-1.1240999698638916 4:-0.19140000641345978 5:0.4629000127315521 6:-0.0812000036239624 7:0.16979999840259552 8:-0.21080000698566437 9:0.16329999268054962 10:-0.35109999775886536 11:0.27570000290870667 12:-0.05339999869465828 
0.0 0.0 70.14845291197736 0.0 1:8.471772193908691 2:1.0 3:-0.826200008392334 4:-0.3237000107765198 5:0.2694000005722046 6:-0.0568000003695488 7:0.1623000055551529 8:-0.27880001068115234 9:0.1420000046491623 10:-0.08500000089406967 11:0.14569999277591705 12:-0.10239999741315842 
0.0 30.612703966322723 0.0 0.0 1:8.25428295135498 2:1.0 3:-0.9539999961853027 4:-0.16840000450611115 5:0.3319000005722046 6:-0.17739999294281006 7:0.22020000219345093 8:-0.2621000111103058 9:0.15690000355243683 10:-0.1979999989271164 11:0.18979999423027039 12:-0.09189999848604202 
0.0 100.0 0.0 100.0 1:6.999297618865967 2:1.0 3:-0.7670999765396118 4:-0.27410000562667847 5:0.18790000677108765 6:-0.10750000178813934 7:0.18359999358654022 8:-0.26080000400543213 9:0.21220000088214874 10:-0.1671999990940094 11:0.18289999663829803 12:-0.14399999380111694 
0.0 100.0 0.0 0.0 1:7.8375349044799805 2:1.0 3:-0.9879999756813049 4:-0.14470000565052032 5:0.3314000070095062 6:-0.22840000689029694 7:0.3050999939441681 8:-0.257999986410141 9:0.09690000116825104 10:-0.186599999666214 11:0.25609999895095825 12:-0.12020000070333481 
0.0 100.0 0.0 100.0 1:7.85666561126709 2:1.0 3:-0.8792999982833862 4:-0.18490000069141388 5:0.2669000029563904 6:-0.26429998874664307 7:0.28929999470710754 8:-0.2143000066280365 9:0.14470000565052032 10:-0.19349999725818634 11:0.17520000040531158 12:-0.07810000330209732 
0.0 100.0 0.0 63.07893821949713 1:8.180159568786621 2:1.0 3:-1.080399990081787 4:-0.036400001496076584 5:0.3531000018119812 6:-0.2662999927997589 7:0.2863999903202057 8:-0.30169999599456787 9:0.17800000309944153 10:-0.1972000002861023 11:0.23229999840259552 12:-0.12300000339746475 
0.0 100.0 0.0 100.0 1:8.537185668945312 2:1.0 3:-0.9337999820709229 4:-0.09809999912977219 5:0.19689999520778656 6:-0.20440000295639038 7:0.21649999916553497 8:-0.19419999420642853 9:0.21480000019073486 10:-0.20479999482631683 11:0.21889999508857727 12:-0.1574999988079071 
0.0 0.0 100.0 0.0 1:7.423364639282227 2:1.0 3:-1.166700005531311 4:-0.0746999979019165 5:0.4413999915122986 6:-0.2321999967098236 7:0.2484000027179718 8:-0.2897000014781952 9:0.20800000429153442 10:-0.2655999958515167 11:0.2822999954223633 12:-0.09200000017881393 
24.75659234051008 0.0 0.0 0.0 1:8.135132789611816 2:1.0 3:-0.6947000026702881 4:-0.41780000925064087 5:0.3312000036239624 6:-0.11379999667406082 7:0.04179999977350235 8:-0.08429999649524689 9:0.01600000075995922 10:-0.18160000443458557 11:0.28279998898506165 12:-0.10239999741315842 
10.301602385459157 100.0 0.0 100.0 1:6.880849361419678 2:1.0 3:-0.7523000240325928 4:-0.22859999537467957 5:0.1931000053882599 6:-0.19349999725818634 7:0.1843000054359436 8:-0.19040000438690186 9:0.22949999570846558 10:-0.1737000048160553 11:0.16140000522136688 12:-0.1679999977350235 
0.0 100.0 0.0 100.0 1:6.757275104522705 2:1.0 3:-0.9337999820709229 4:-0.13289999961853027 5:0.329800009727478 6:-0.2484000027179718 7:0.2379000037908554 8:-0.24879999458789825 9:0.16410000622272491 10:-0.2418999969959259 11:0.2117999941110611 12:-0.09600000083446503 
0.0 100.0 0.0 100.0 1:8.66137981414795 2:1.0 3:-0.8485999703407288 4:-0.11720000207424164 5:0.11490000039339066 6:-0.1128000020980835 7:0.11779999732971191 8:-0.15369999408721924 9:0.15719999372959137 10:-0.1281999945640564 11:0.14100000262260437 12:-0.11969999969005585 
0.0 0.0 100.0 0.0 1:6.800234794616699 2:1.0 3:-1.3717000484466553 4:0.12449999898672104 5:0.5503000020980835 6:-0.37450000643730164 7:0.23899999260902405 8:-0.3253999948501587 9:0.2522999942302704 10:-0.21960000693798065 11:0.33889999985694885 12:-0.17870000004768372 
0.0 100.0 0.0 88.45004487727083 1:6.129538059234619 2:1.0 3:-1.285099983215332 4:0.08389999717473984 5:0.5436000227928162 6:-0.5056999921798706 7:0.36739999055862427 8:-0.3163999915122986 9:0.3167000114917755 10:-0.14470000565052032 11:0.10130000114440918 12:-0.06289999932050705 
0.0 100.0 0.0 100.0 1:6.782388210296631 2:1.0 3:-1.069000005722046 4:-0.1096000000834465 5:0.4691999852657318 6:-0.36480000615119934 7:0.23229999840259552 8:-0.19089999794960022 9:0.20270000398159027 10:-0.1881999969482422 11:0.18870000541210175 12:-0.1111999973654747 
0.0 0.0 0.0 100.0 1:7.492822170257568 2:1.0 3:-1.2309000492095947 4:0.14830000698566437 5:0.42100000381469727 6:-0.375 7:0.2590000033378601 8:-0.2784000039100647 9:0.23980000615119934 10:-0.28279998898506165 11:0.32339999079704285 12:-0.1670999974012375 
0.0 100.0 0.0 0.0 1:6.509580612182617 2:1.0 3:-1.2589000463485718 4:0.18050000071525574 5:0.3921000063419342 6:-0.4381999969482422 7:0.34610000252723694 8:-0.3723999857902527 9:0.3463999927043915 10:-0.25099998712539673 11:0.18780000507831573 12:-0.0966000035405159 
0.0 97.92751112226449 0.0 100.0 1:6.099979400634766 2:1.0 3:-1.0442999601364136 4:-0.08150000125169754 5:0.45489999651908875 6:-0.3111000061035156 7:0.21449999511241913 8:-0.2736000120639801 9:0.18410000205039978 10:-0.16500000655651093 11:0.20399999618530273 12:-0.14010000228881836 
0.0 15.23912974090301 0.0 0.0 1:7.580605983734131 2:1.0 3:-1.323799967765808 4:0.16200000047683716 5:0.5827999711036682 6:-0.3686999976634979 7:0.20980000495910645 8:-0.3797000050544739 9:0.17180000245571136 10:-0.16940000653266907 11:0.3752000033855438 12:-0.1851000040769577 
0.0 0.0 16.990589212089493 0.0 1:5.383127212524414 2:1.0 3:-1.4253000020980835 4:0.14949999749660492 5:0.7145000100135803 6:-0.48240000009536743 7:0.29829999804496765 8:-0.40130001306533813 9:0.23569999635219574 10:-0.14020000398159027 11:0.19660000503063202 12:-0.10109999775886536 
0.0 0.0 100.0 0.0 1:6.805471897125244 2:1.0 3:-1.3789000511169434 4:0.00989999994635582 5:0.695900022983551 6:-0.3799000084400177 7:0.2574999928474426 8:-0.3476000130176544 9:0.2619999945163727 10:-0.19930000603199005 11:0.16609999537467957 12:-0.05920000001788139 
0.0 0.0 100.0 0.0 1:7.213441371917725 2:1.0 3:-1.5592999458312988 4:0.320499986410141 5:0.6017000079154968 6:-0.34470000863075256 7:0.17810000479221344 8:-0.4088999927043915 9:0.3693000078201294 10:-0.33869999647140503 11:0.4036000072956085 12:-0.19349999725818634 
0.0 0.0 100.0 0.0 1:7.192694664001465 2:1.0 3:-1.4323999881744385 4:0.12319999933242798 5:0.6205999851226807 6:-0.3450999855995178 7:0.22830000519752502 8:-0.3513999879360199 9:0.29789999127388 10:-0.2531999945640564 11:0.2782000005245209 12:-0.13809999823570251 
0.0 0.0 100.0 0.0 1:5.393616199493408 2:1.0 3:-1.4134999513626099 4:0.06379999965429306 5:0.6966999769210815 6:-0.3815999925136566 7:0.23680000007152557 8:-0.38119998574256897 9:0.23469999432563782 10:-0.18080000579357147 11:0.2535000145435333 12:-0.1062999963760376 
0.0 0.0 100.0 0.0 1:7.160528659820557 2:1.0 3:-1.353700041770935 4:0.015399999916553497 5:0.6653000116348267 6:-0.3379000127315521 7:0.225600004196167 8:-0.319599986076355 9:0.23479999601840973 10:-0.24009999632835388 11:0.2345999926328659 12:-0.08209999650716782 
0.0 0.0 100.0 0.0 1:6.908273696899414 2:1.0 3:-1.4538999795913696 4:0.08190000057220459 5:0.7631000280380249 6:-0.38190001249313354 7:0.19840000569820404 8:-0.3587000072002411 9:0.19629999995231628 10:-0.1477999985218048 11:0.30809998512268066 12:-0.17100000381469727 
0.0 0.0 100.0 0.0 1:5.715397834777832 2:1.0 3:-1.2835999727249146 4:-0.09009999781847 5:0.6891999840736389 6:-0.37880000472068787 7:0.31040000915527344 8:-0.30079999566078186 9:0.17110000550746918 10:-0.2062000036239624 11:0.13030000030994415 12:0.0013000000035390258 
0.0 0.0 100.0 0.0 1:5.916446208953857 2:1.0 3:-1.3710999488830566 4:0.09650000184774399 5:0.5928999781608582 6:-0.3774000108242035 7:0.23800000548362732 8:-0.3684999942779541 9:0.2736999988555908 10:-0.19910000264644623 11:0.28189998865127563 12:-0.13109999895095825 
0.0 0.0 33.87203882784418 0.0 1:6.469335556030273 2:1.0 3:-1.194100022315979 4:-0.12460000067949295 5:0.6047000288963318 6:-0.36719998717308044 7:0.2687999904155731 8:-0.28119999170303345 9:0.25859999656677246 10:-0.20579999685287476 11:0.08049999922513962 12:0.006599999964237213 
0.0 100.0 0.0 61.90720472244139 1:6.87114143371582 2:1.0 3:-0.6969000101089478 4:-0.32519999146461487 5:0.24320000410079956 6:-0.0828000009059906 7:0.0723000019788742 8:-0.24719999730587006 9:0.23759999871253967 10:-0.20800000429153442 11:0.17440000176429749 12:-0.0843999981880188 
0.0 88.7436902320788 0.0 100.0 1:5.8569207191467285 2:1.0 3:-1.0541000366210938 4:-0.14820000529289246 5:0.5153999924659729 6:-0.334199994802475 7:0.18170000612735748 8:-0.1712999939918518 9:0.11500000208616257 10:-0.19099999964237213 11:0.2615000009536743 12:-0.12970000505447388 
0.0 3.031679927000744 0.0 0.0 1:5.272373199462891 2:1.0 3:-1.1792999505996704 4:-0.0828000009059906 5:0.6420999765396118 6:-0.3490000069141388 7:0.20499999821186066 8:-0.27399998903274536 9:0.10180000215768814 10:-0.1534000039100647 11:0.2590999901294708 12:-0.10740000009536743 
0.0 0.0 100.0 0.0 1:6.557088851928711 2:1.0 3:-1.4608999490737915 4:0.2214999943971634 5:0.6237999796867371 6:-0.44940000772476196 7:0.29760000109672546 8:-0.3765999972820282 9:0.25600001215934753 10:-0.24899999797344208 11:0.2969000041484833 12:-0.1256999969482422 
0.0 8.453784019429381 15.02362168644087 11.70571669460095 1:5.107257843017578 2:1.0 3:-1.190600037574768 4:-0.12189999967813492 5:0.6800000071525574 6:-0.3077999949455261 7:0.20630000531673431 8:-0.32429999113082886 9:0.059700001031160355 10:-0.06120000034570694 11:0.2818000018596649 12:-0.1437000036239624 
0.0 0.217670736876436 0.0 0.0 1:5.141577243804932 2:1.0 3:-1.351199984550476 4:-0.010499999858438969 5:0.8328999876976013 6:-0.5406000018119812 7:0.3188999891281128 8:-0.32409998774528503 9:0.030400000512599945 10:0.0210999995470047 11:0.1964000016450882 12:-0.11389999836683273 
0.0 0.0 100.0 0.0 1:6.571076393127441 2:1.0 3:-1.2963999509811401 4:-0.06400000303983688 5:0.6432999968528748 6:-0.3149000108242035 7:0.24490000307559967 8:-0.2547000050544739 9:0.2483000010251999 10:-0.33180001378059387 11:0.17790000140666962 12:-0.0066999997943639755 
0.0 0.0 100.0 0.0 1:6.690517425537109 2:1.0 3:-1.4611999988555908 4:0.07720000296831131 5:0.8551999926567078 6:-0.5019000172615051 7:0.24130000174045563 8:-0.32589998841285706 9:0.16110000014305115 10:-0.1080000028014183 11:0.21140000224113464 12:-0.1193000003695488 
0.0 0.0 100.0 0.0 1:5.30079984664917 2:1.0 3:-1.4127000570297241 4:0.05400000140070915 5:0.8489000201225281 6:-0.5522000193595886 7:0.1687999963760376 8:-0.28839999437332153 9:0.2728999853134155 10:-0.1234000027179718 11:0.13410000503063202 12:-0.0731000006198883 
0.0 100.0 0.0 100.0 1:6.367670059204102 2:1.0 3:-0.9110000133514404 4:-0.26109999418258667 5:0.4514999985694885 6:-0.25209999084472656 7:0.13830000162124634 8:-0.19259999692440033 9:0.2467000037431717 10:-0.18690000474452972 11:0.1014999970793724 12:-0.07249999791383743 
0.0 0.0 0.0 100.0 1:5.972553253173828 2:1.0 3:-1.0168999433517456 4:-0.2240000069141388 5:0.5514000058174133 6:-0.36399999260902405 7:0.2071000039577484 8:-0.20350000262260437 9:0.16189999878406525 10:-0.12880000472068787 11:0.1242000013589859 12:-0.04639999940991402 
0.0 17.180015565758275 0.0 100.0 1:5.709716320037842 2:1.0 3:-1.1347999572753906 4:-0.013199999928474426 5:0.5044999718666077 6:-0.3953000009059906 7:0.24650000035762787 8:-0.26820001006126404 9:0.23690000176429749 10:-0.20970000326633453 11:0.17149999737739563 12:-0.08529999852180481 
0.0 100.0 0.0 100.0 1:7.594503879547119 2:1.0 3:-1.2545000314712524 4:0.26759999990463257 5:0.14309999346733093 6:-0.07800000160932541 7:-0.0010999999940395355 8:-0.07259999960660934 9:0.09350000321865082 10:-0.09149999916553497 11:0.06859999895095825 12:-0.03739999979734421 
0.0 0.0 100.0 0.0 1:6.931797504425049 2:1.0 3:-1.3753000497817993 4:0.20800000429153442 5:0.18080000579357147 6:0.13099999725818634 7:-0.07460000365972519 8:-0.030700000002980232 9:-0.021900000050663948 10:-0.00139999995008111 11:0.014800000004470348 12:0.00800000037997961 
0.0 0.0 100.0 0.0 1:7.510108947753906 2:1.0 3:-1.0542000532150269 4:-0.20170000195503235 5:0.266400009393692 6:-0.011900000274181366 7:0.09860000014305115 8:-0.12470000237226486 9:0.05660000070929527 10:-0.05950000137090683 11:0.05620000138878822 12:3.9999998989515007E-4 
0.0 0.0 100.0 0.0 1:7.651314735412598 2:1.0 3:-1.0217000246047974 4:-0.17159999907016754 5:0.23070000112056732 6:0.0272000003606081 7:0.0860000029206276 8:-0.1152999997138977 9:-0.01850000023841858 10:-0.017999999225139618 11:0.052000001072883606 12:-0.005100000184029341 
0.0 0.0 100.0 100.0 1:7.692795753479004 2:1.0 3:-1.1202000379562378 4:-0.051600001752376556 5:0.16670000553131104 6:0.036400001496076584 7:0.12290000170469284 8:-0.1678999960422516 9:0.07450000196695328 10:-0.09480000287294388 11:0.0925000011920929 12:-0.017500000074505806 
0.0 0.0 100.0 0.0 1:7.642819404602051 2:1.0 3:-1.1126999855041504 4:-0.10429999977350235 5:0.19850000739097595 6:0.11429999768733978 7:0.07079999893903732 8:-0.1851000040769577 9:0.03460000082850456 10:-0.04439999908208847 11:0.07000000029802322 12:-0.006399999838322401 
0.0 0.0 100.0 0.0 1:7.518644332885742 2:1.0 3:-1.182800054550171 4:-0.12200000137090683 5:0.4194999933242798 6:-0.08380000293254852 7:0.0828000009059906 8:-0.18129999935626984 9:0.13289999961853027 10:-0.11829999834299088 11:0.13420000672340393 12:-0.0478999987244606 
0.0 100.0 0.0 100.0 1:7.977605819702148 2:1.0 3:-1.0820000171661377 4:-0.10010000318288803 5:0.28630000352859497 6:-0.13359999656677246 7:0.1728000044822693 8:-0.20630000531673431 9:0.1817999929189682 10:-0.17710000276565552 11:0.18700000643730164 12:-0.09260000288486481 
0.0 100.0 0.0 100.0 1:8.072845458984375 2:1.0 3:-1.1145999431610107 4:-0.06909999996423721 5:0.3571999967098236 6:-0.1738000065088272 7:0.15569999814033508 8:-0.1972000002861023 9:0.2029000073671341 10:-0.19859999418258667 11:0.22110000252723694 12:-0.1307000070810318 
0.0 100.0 0.0 100.0 1:8.15407657623291 2:1.0 3:-1.0544999837875366 4:-0.11020000278949738 5:0.29499998688697815 6:-0.09390000253915787 7:0.121799997985363 8:-0.2168000042438507 9:0.2199999988079071 10:-0.17350000143051147 11:0.15549999475479126 12:-0.08990000188350677 
0.0 0.0 0.0 100.0 1:7.9444899559021 2:1.0 3:-1.1619000434875488 4:-0.03909999877214432 5:0.37940001487731934 6:-0.2159000039100647 7:0.23350000381469727 8:-0.25920000672340393 9:0.18310000002384186 10:-0.1599999964237213 11:0.18400000035762787 12:-0.10459999740123749 
0.0 100.0 0.0 0.0 1:7.525346279144287 2:1.0 3:-1.3055000305175781 4:0.050700001418590546 5:0.4846000075340271 6:-0.21119999885559082 7:0.24089999496936798 8:-0.3172000050544739 9:0.21940000355243683 10:-0.24490000307559967 11:0.2881999909877777 12:-0.16509999334812164 
0.0 0.0 0.0 92.55631673600493 1:7.692018508911133 2:1.0 3:-1.3380999565124512 4:0.14910000562667847 5:0.44929999113082886 6:-0.2913999855518341 7:0.2549000084400177 8:-0.3287999927997589 9:0.29809999465942383 10:-0.26649999618530273 11:0.2775000035762787 12:-0.16359999775886536 
0.0 0.0 100.0 0.0 1:7.273684024810791 2:1.0 3:-1.4778000116348267 4:0.1890999972820282 5:0.5695000290870667 6:-0.3109000027179718 7:0.22840000689029694 8:-0.328000009059906 9:0.26420000195503235 10:-0.2741999924182892 11:0.35690000653266907 12:-0.18809999525547028 
8.089059834806962 0.0 8.60538335234072 0.0 1:8.591404914855957 2:1.0 3:-0.7520999908447266 4:-0.33070001006126404 5:0.1867000013589859 6:0.018699999898672104 7:0.1573999971151352 8:-0.22089999914169312 9:0.0812000036239624 10:-0.14020000398159027 11:0.1923999935388565 12:-0.0731000006198883 
0.0 100.0 0.0 100.0 1:7.554450035095215 2:1.0 3:-1.294600009918213 4:0.2775000035762787 5:0.2621000111103058 6:-0.2563999891281128 7:0.10329999774694443 8:-0.10289999842643738 9:0.13809999823570251 10:-0.11389999836683273 11:0.18050000071525574 12:-0.10490000247955322 
0.0 100.0 0.0 100.0 1:8.129159927368164 2:1.0 3:-1.0742000341415405 4:0.01489999983459711 5:0.3483999967575073 6:-0.32440000772476196 7:0.13490000367164612 8:-0.12280000001192093 9:0.26829999685287476 10:-0.2167000025510788 11:0.17479999363422394 12:-0.14640000462532043 
0.0 0.0 0.0 7.425084791536649 1:7.692409038543701 2:1.0 3:-1.4845999479293823 4:0.5049999952316284 5:0.27720001339912415 6:-0.4763999879360199 7:0.4657999873161316 8:-0.4422000050544739 9:0.41110000014305115 10:-0.39559999108314514 11:0.30320000648498535 12:-0.13099999725818634 
0.0 8.295435970944302 0.0 0.0 1:7.095092296600342 2:1.0 3:-1.6396000385284424 4:0.5741000175476074 5:0.35839998722076416 6:-0.435699999332428 7:0.3824999928474426 8:-0.41690000891685486 9:0.3555000126361847 10:-0.29280000925064087 11:0.27149999141693115 12:-0.13189999759197235 
0.0 36.476591243531814 100.0 0.0 1:7.381381034851074 2:1.0 3:-1.5888999700546265 4:0.4377000033855438 5:0.5296000242233276 6:-0.4805999994277954 7:0.325300008058548 8:-0.3666999936103821 9:0.3176000118255615 10:-0.35179999470710754 11:0.3813999891281128 12:-0.15809999406337738 
0.0 0.0 0.0 100.0 1:7.757267951965332 2:1.0 3:-1.2973999977111816 4:0.14980000257492065 5:0.43959999084472656 6:-0.31459999084472656 7:0.23469999432563782 8:-0.2784999907016754 9:0.296099990606308 10:-0.3425999879837036 11:0.2924000024795532 12:-0.12549999356269836 
0.0 100.0 0.0 100.0 1:7.709433555603027 2:1.0 3:-1.3388999700546265 4:0.22939999401569366 5:0.3668999969959259 6:-0.3231000006198883 7:0.3140999972820282 8:-0.32989999651908875 9:0.305400013923645 10:-0.335099995136261 11:0.3296999931335449 12:-0.17759999632835388 
0.0 0.0 100.0 0.0 1:7.010968208312988 2:1.0 3:-1.378000020980835 4:0.11860000342130661 5:0.4936000108718872 6:-0.31119999289512634 7:0.28859999775886536 8:-0.30809998512268066 9:0.266400009393692 10:-0.31470000743865967 11:0.2897999882698059 12:-0.12849999964237213 
0.0 0.0 100.0 0.0 1:7.153424263000488 2:1.0 3:-1.5132999420166016 4:0.30630001425743103 5:0.5012999773025513 6:-0.3828999996185303 7:0.3086000084877014 8:-0.35260000824928284 9:0.34040001034736633 10:-0.38420000672340393 11:0.34310001134872437 12:-0.14830000698566437 
0.0 0.0 100.0 0.0 1:7.104328632354736 2:1.0 3:-1.613800048828125 4:0.4449999928474426 5:0.44859999418258667 6:-0.3935000002384186 7:0.33820000290870667 8:-0.40230000019073486 9:0.43479999899864197 10:-0.4668000042438507 11:0.32249999046325684 12:-0.09629999846220016 
0.0 0.0 100.0 0.0 1:6.924199104309082 2:1.0 3:-1.2835999727249146 4:0.03519999980926514 5:0.3847000002861023 6:-0.11270000040531158 7:0.1517000049352646 8:-0.2312999963760376 9:0.19110000133514404 10:-0.14800000190734863 11:0.0925000011920929 12:-0.048900000751018524 
0.0 0.0 100.0 0.0 1:7.364431381225586 2:1.0 3:-1.4810999631881714 4:0.23729999363422394 5:0.5590000152587891 6:-0.3864000141620636 7:0.2867000102996826 8:-0.33889999985694885 9:0.23960000276565552 10:-0.2718999981880188 11:0.36039999127388 12:-0.18569999933242798 
0.0 0.0 100.0 0.0 1:7.346951007843018 2:1.0 3:-1.4742000102996826 4:0.25690001249313354 5:0.47440001368522644 6:-0.3443000018596649 7:0.33219999074935913 8:-0.39800000190734863 9:0.28529998660087585 10:-0.29420000314712524 11:0.3352999985218048 12:-0.15610000491142273 
0.0 100.0 0.0 100.0 1:8.199745178222656 2:1.0 3:-1.0979000329971313 4:-0.02019999921321869 5:0.3441999852657318 6:-0.29319998621940613 7:0.19689999520778656 8:-0.2379000037908554 9:0.2842000126838684 10:-0.21719999611377716 11:0.22050000727176666 12:-0.13750000298023224 
0.0 100.0 0.0 0.0 1:8.531560897827148 2:1.0 3:-0.7846999764442444 4:-0.295199990272522 5:0.28850001096725464 6:-0.07509999722242355 7:0.033399999141693115 8:-0.16680000722408295 9:0.1289999932050705 10:-0.09640000015497208 11:0.06700000166893005 12:-0.07649999856948853 
0.0 100.0 0.0 0.0 1:8.315632820129395 2:1.0 3:-1.0182000398635864 4:-0.030300000682473183 5:0.2791000008583069 6:-0.17599999904632568 7:0.14159999787807465 8:-0.2207999974489212 9:0.17749999463558197 10:-0.19050000607967377 11:0.21639999747276306 12:-0.1331000030040741 
0.0 0.0 0.0 100.0 1:7.962110996246338 2:1.0 3:-1.1241999864578247 4:-0.0272000003606081 5:0.3896999955177307 6:-0.22750000655651093 7:0.1696999967098236 8:-0.27469998598098755 9:0.2930999994277954 10:-0.27709999680519104 11:0.21089999377727509 12:-0.10320000350475311 
0.0 0.0 100.0 0.0 1:8.191937446594238 2:1.0 3:-0.8870999813079834 4:-0.33649998903274536 5:0.2854999899864197 6:-0.02500000037252903 7:0.12729999423027039 8:-0.2184000015258789 9:0.11379999667406082 10:-0.16599999368190765 11:0.25040000677108765 12:-0.1023000031709671 
0.0 100.0 0.0 100.0 1:8.50378131866455 2:1.0 3:-0.7867000102996826 4:-0.23669999837875366 5:0.16189999878406525 6:-0.07729999721050262 7:0.08399999886751175 8:-0.11100000143051147 9:0.09350000321865082 10:-0.13199999928474426 11:0.09099999815225601 12:-0.03200000151991844 
0.0 100.0 0.0 100.0 1:7.937602519989014 2:1.0 3:-1.1390000581741333 4:-0.013700000010430813 5:0.3765999972820282 6:-0.23510000109672546 7:0.2207999974489212 8:-0.27869999408721924 9:0.2766000032424927 10:-0.2515999972820282 11:0.21080000698566437 12:-0.11969999969005585 
0.0 100.0 0.0 0.0 1:8.467813491821289 2:1.0 3:-0.7932999730110168 4:-0.22990000247955322 5:0.16210000216960907 6:-0.04039999842643738 7:0.1776999980211258 8:-0.20360000431537628 9:0.07429999858140945 10:-0.10289999842643738 11:0.10700000077486038 12:-0.01850000023841858 
0.0 0.0 0.0 100.0 1:7.9648847579956055 2:1.0 3:-1.1483999490737915 4:-0.010200000368058681 5:0.40389999747276306 6:-0.29170000553131104 7:0.23579999804496765 8:-0.2639000117778778 9:0.24279999732971191 10:-0.25459998846054077 11:0.22390000522136688 12:-0.09019999951124191 
0.0 100.0 0.0 76.23204592521448 1:8.565159797668457 2:1.0 3:-0.8881000280380249 4:-0.20080000162124634 5:0.16200000047683716 6:-0.09489999711513519 7:0.19550000131130219 8:-0.20900000631809235 9:0.13050000369548798 10:-0.17440000176429749 11:0.14249999821186066 12:-0.023099999874830246 
0.0 100.0 0.0 100.0 1:7.909993648529053 2:1.0 3:-1.1474000215530396 4:-0.010099999606609344 5:0.37779998779296875 6:-0.20759999752044678 7:0.14579999446868896 8:-0.14640000462532043 9:0.10119999945163727 10:-0.1720999926328659 11:0.21209999918937683 12:-0.1145000010728836 
0.0 8.663737694164451 0.0 0.0 1:7.143871784210205 2:1.0 3:-1.4147000312805176 4:0.2709999978542328 5:0.44130000472068787 6:-0.4196999967098236 7:0.3720000088214874 8:-0.3625999987125397 9:0.3231000006198883 10:-0.31459999084472656 11:0.2644999921321869 12:-0.13259999454021454 
0.0 0.0 0.0 100.0 1:7.550663471221924 2:1.0 3:-1.3853000402450562 4:0.2410999983549118 5:0.42739999294281006 6:-0.38839998841285706 7:0.32670000195503235 8:-0.27079999446868896 9:0.2370000034570694 10:-0.28540000319480896 11:0.28619998693466187 12:-0.15770000219345093 
0.0 0.0 100.0 0.0 1:7.3245463371276855 2:1.0 3:-1.4865000247955322 4:0.28630000352859497 5:0.4715000092983246 6:-0.35899999737739563 7:0.35179999470710754 8:-0.37459999322891235 9:0.24009999632835388 10:-0.3154999911785126 11:0.4066999852657318 12:-0.19179999828338623 
0.0 0.0 100.0 0.0 1:7.42349910736084 2:1.0 3:-1.4984999895095825 4:0.2842999994754791 5:0.5462999939918518 6:-0.41190001368522644 7:0.3197999894618988 8:-0.365200012922287 9:0.26010000705718994 10:-0.2994000017642975 11:0.3483999967575073 12:-0.15919999778270721 
0.0 0.0 100.0 0.0 1:7.362908363342285 2:1.0 3:-1.3910000324249268 4:0.15119999647140503 5:0.4530999958515167 6:-0.29249998927116394 7:0.3075999915599823 8:-0.37290000915527344 9:0.2766000032424927 10:-0.29269999265670776 11:0.32659998536109924 12:-0.14059999585151672 
0.0 0.0 100.0 0.0 1:7.357663631439209 2:1.0 3:-1.1650999784469604 4:-0.1793999969959259 5:0.44920000433921814 6:-0.08160000294446945 7:0.15440000593662262 8:-0.18080000579357147 9:0.0632999986410141 10:-0.2824000120162964 11:0.4453999996185303 12:-0.19930000603199005 
0.0 0.0 100.0 0.0 1:7.23513650894165 2:1.0 3:-1.5273000001907349 4:0.3050000071525574 5:0.5569999814033508 6:-0.40950000286102295 7:0.311599999666214 8:-0.34779998660087585 9:0.27720001339912415 10:-0.33899998664855957 11:0.37470000982284546 12:-0.16689999401569366 
0.0 46.89386258288521 100.0 0.0 1:7.173806190490723 2:1.0 3:-1.2167999744415283 4:-0.09239999949932098 5:0.5526999831199646 6:-0.33320000767707825 7:0.3862000107765198 8:-0.3328999876976013 9:0.0778999999165535 10:-0.07829999923706055 11:0.17520000040531158 12:-0.10440000146627426 
0.0 0.0 100.0 0.0 1:7.3023176193237305 2:1.0 3:-1.4902000427246094 4:0.2460000067949295 5:0.5156000256538391 6:-0.3544999957084656 7:0.30480000376701355 8:-0.351500004529953 9:0.2897000014781952 10:-0.3093000054359436 11:0.31779998540878296 12:-0.1492999941110611 
0.0 0.0 100.0 0.0 1:7.162509918212891 2:1.0 3:-1.4941999912261963 4:0.19300000369548798 5:0.5722000002861023 6:-0.3212999999523163 7:0.28690001368522644 8:-0.3919000029563904 9:0.27000001072883606 10:-0.2851000130176544 11:0.337799996137619 12:-0.14229999482631683 
0.0 0.0 100.0 0.0 1:6.800235271453857 2:1.0 3:-1.517199993133545 4:0.24740000069141388 5:0.5662000179290771 6:-0.40540000796318054 7:0.30570000410079956 8:-0.3434999883174896 9:0.2703000009059906 10:-0.3197999894618988 11:0.365200012922287 12:-0.14710000157356262 
0.0 0.0 100.0 0.0 1:6.728694438934326 2:1.0 3:-1.426800012588501 4:0.1670999974012375 5:0.4699999988079071 6:-0.30880001187324524 7:0.3481000065803528 8:-0.4074000120162964 9:0.290800005197525 10:-0.29019999504089355 11:0.305400013923645 12:-0.13179999589920044 
0.0 0.0 100.0 0.0 1:7.324049472808838 2:1.0 3:-1.503600001335144 4:0.2712000012397766 5:0.48579999804496765 6:-0.35670000314712524 7:0.34790000319480896 8:-0.42080000042915344 9:0.30140000581741333 10:-0.2784999907016754 11:0.3296999931335449 12:-0.15860000252723694 
0.0 0.0 100.0 0.0 1:7.227529525756836 2:1.0 3:-1.4555000066757202 4:0.20110000669956207 5:0.5012000203132629 6:-0.3237999975681305 7:0.29190000891685486 8:-0.35499998927116394 9:0.2815000116825104 10:-0.33809998631477356 11:0.3698999881744385 12:-0.14720000326633453 
0.0 0.0 100.0 0.0 1:7.2037529945373535 2:1.0 3:-1.5147000551223755 4:0.2761000096797943 5:0.5350000262260437 6:-0.41670000553131104 7:0.34769999980926514 8:-0.37119999527931213 9:0.251800000667572 10:-0.28850001096725464 11:0.3601999878883362 12:-0.1647000014781952 
0.0 0.0 0.0 100.0 1:7.997983455657959 2:1.0 3:-1.1682000160217285 4:-0.008799999952316284 5:0.4198000133037567 6:-0.2912999987602234 7:0.17430000007152557 8:-0.22990000247955322 9:0.2667999863624573 10:-0.2526000142097473 11:0.26510000228881836 12:-0.13619999587535858 
0.0 0.0 0.0 100.0 1:7.864358901977539 2:1.0 3:-1.2359000444412231 4:0.14100000262260437 5:0.3864000141620636 6:-0.3257000148296356 7:0.21080000698566437 8:-0.2996000051498413 9:0.35179999470710754 10:-0.2996000051498413 11:0.2379000037908554 12:-0.12729999423027039 
0.0 0.0 100.0 0.0 1:7.567453861236572 2:1.0 3:-1.2812000513076782 4:-0.017500000074505806 5:0.541700005531311 6:-0.27379998564720154 7:0.1657000035047531 8:-0.2526000142097473 9:0.23309999704360962 10:-0.2395000010728836 11:0.31769999861717224 12:-0.16699999570846558 
0.0 0.0 100.0 0.0 1:7.680978775024414 2:1.0 3:-1.1755000352859497 4:-0.03150000050663948 5:0.36579999327659607 6:-0.24140000343322754 7:0.28369998931884766 8:-0.34619998931884766 9:0.2687000036239624 10:-0.20909999310970306 11:0.20440000295639038 12:-0.094200000166893 
0.0 0.0 100.0 0.0 1:7.429000377655029 2:1.0 3:-1.3625999689102173 4:0.15279999375343323 5:0.4731000065803528 6:-0.3898000121116638 7:0.32330000400543213 8:-0.3140000104904175 9:0.24629999697208405 10:-0.2802000045776367 11:0.29989999532699585 12:-0.12030000239610672 
0.0 100.0 0.0 100.0 1:8.29766845703125 2:1.0 3:-1.2446000576019287 4:0.33070001006126404 5:0.296099990606308 6:-0.5221999883651733 7:0.3098999857902527 8:-0.2222999930381775 9:0.3707999885082245 10:-0.3792000114917755 11:0.22380000352859497 12:-0.09369999915361404 
0.0 69.67332151258366 0.0 0.0 1:8.194300651550293 2:1.0 3:-1.0985000133514404 4:0.09849999845027924 5:0.3788999915122986 6:-0.3564000129699707 7:0.1729000061750412 8:-0.2720000147819519 9:0.3091999888420105 10:-0.23600000143051147 11:0.19419999420642853 12:-0.11379999667406082 
0.0 100.0 0.0 100.0 1:8.308842658996582 2:1.0 3:-1.1467000246047974 4:0.12399999797344208 5:0.3237000107765198 6:-0.4153999984264374 7:0.24390000104904175 8:-0.21209999918937683 9:0.28380000591278076 10:-0.2621999979019165 11:0.193900004029274 12:-0.08829999715089798 
0.0 100.0 0.0 100.0 1:7.161809921264648 2:1.0 3:-1.1676000356674194 4:0.11919999867677689 5:0.349700003862381 6:-0.40389999747276306 7:0.2671000063419342 8:-0.29829999804496765 9:0.3456999957561493 10:-0.27480000257492065 11:0.19990000128746033 12:-0.10019999742507935 
0.0 100.0 0.0 100.0 1:8.161664962768555 2:1.0 3:-1.0361000299453735 4:-0.0012000000569969416 5:0.38499999046325684 6:-0.3273000121116638 7:0.16339999437332153 8:-0.20509999990463257 9:0.26080000400543213 10:-0.2296999990940094 11:0.21549999713897705 12:-0.12839999794960022 
0.0 100.0 0.0 100.0 1:8.308511734008789 2:1.0 3:-0.8755000233650208 4:-0.16329999268054962 5:0.21770000457763672 6:-0.14630000293254852 7:0.09860000014305115 8:-0.1444000005722046 9:0.21080000698566437 10:-0.20360000431537628 11:0.23270000517368317 12:-0.1606999933719635 
0.0 100.0 0.0 100.0 1:7.984666347503662 2:1.0 3:-1.1402000188827515 4:0.1446000039577484 5:0.2071000039577484 6:-0.14190000295639038 7:0.045099999755620956 8:-0.11969999969005585 9:0.15970000624656677 10:-0.11069999635219574 11:0.08030000329017639 12:-0.06629999727010727 
100.0 100.0 0.0 100.0 1:8.39891242980957 2:1.0 3:-0.7712000012397766 4:-0.13259999454021454 5:0.2045000046491623 6:-0.1956000030040741 7:0.16130000352859497 8:-0.16750000417232513 9:0.08370000123977661 10:-0.052799999713897705 11:0.07509999722242355 12:-0.1459999978542328 
0.0 100.0 0.0 36.44941916993672 1:7.924887657165527 2:1.0 3:-0.7398999929428101 4:-0.23199999332427979 5:0.33649998903274536 6:-0.25369998812675476 7:0.08209999650716782 8:-0.16130000352859497 9:0.13109999895095825 10:-0.13230000436306 11:0.12280000001192093 12:-0.09380000084638596 
0.0 0.0 0.0 100.0 1:7.955753326416016 2:1.0 3:-1.3359999656677246 4:0.31150001287460327 5:0.35040000081062317 6:-0.48989999294281006 7:0.3497999906539917 8:-0.322299987077713 9:0.32899999618530273 10:-0.3296999931335449 11:0.27390000224113464 12:-0.11159999668598175 
0.0 0.0 0.0 100.0 1:7.628453731536865 2:1.0 3:-1.1850999593734741 4:0.08640000224113464 5:0.4226999878883362 6:-0.35569998621940613 7:0.1712999939918518 8:-0.22840000689029694 9:0.2709999978542328 10:-0.2964000105857849 11:0.29010000824928284 12:-0.1324000060558319 
0.0 100.0 0.0 100.0 1:6.695267677307129 2:1.0 3:-1.082800030708313 4:-0.08150000125169754 5:0.3887999951839447 6:-0.27059999108314514 7:0.29109999537467957 8:-0.2784000039100647 9:0.20280000567436218 10:-0.21070000529289246 11:0.22660000622272491 12:-0.09640000015497208 
0.0 46.62018275025505 0.0 0.0 1:8.494489669799805 2:1.0 3:-0.7095999717712402 4:-0.32519999146461487 5:0.15919999778270721 6:-0.02630000002682209 7:0.020899999886751175 8:-0.14749999344348907 9:0.04769999906420708 10:-0.1023000031709671 11:0.16269999742507935 12:-0.03790000081062317 
0.0 0.0 0.0 100.0 1:7.19666051864624 2:1.0 3:-1.091599941253662 4:-0.04259999841451645 5:0.36649999022483826 6:-0.26440000534057617 7:0.15919999778270721 8:-0.20309999585151672 9:0.3021000027656555 10:-0.3174999952316284 11:0.263700008392334 12:-0.11999999731779099 
0.0 100.0 0.0 100.0 1:8.307207107543945 2:1.0 3:-1.0781999826431274 4:0.1290999948978424 5:0.2531000077724457 6:-0.30379998683929443 7:0.17489999532699585 8:-0.2612000107765198 9:0.3109000027179718 10:-0.24040000140666962 11:0.16609999537467957 12:-0.10689999908208847 
0.0 100.0 0.0 100.0 1:8.055745124816895 2:1.0 3:-1.0161000490188599 4:0.0035000001080334187 5:0.3668999969959259 6:-0.36059999465942383 7:0.131400004029274 8:-0.13940000534057617 9:0.23430000245571136 10:-0.28060001134872437 11:0.22300000488758087 12:-0.12049999833106995 
0.0 0.0 0.0 100.0 1:7.734513759613037 2:1.0 3:-1.3756999969482422 4:0.30070000886917114 5:0.3840000033378601 6:-0.438400000333786 7:0.335099995136261 8:-0.32690000534057617 9:0.3368000090122223 10:-0.32919999957084656 11:0.2985999882221222 12:-0.12449999898672104 
0.0 0.0 72.02884543596943 0.0 1:7.1125593185424805 2:1.0 3:-1.261299967765808 4:0.026399999856948853 5:0.4595000147819519 6:-0.2842999994754791 7:0.2667999863624573 8:-0.33820000290870667 9:0.23739999532699585 10:-0.2134000062942505 11:0.29109999537467957 12:-0.14499999582767487 
0.0 100.0 0.0 100.0 1:8.0131254196167 2:1.0 3:-1.1237000226974487 4:0.003100000089034438 5:0.4009000062942505 6:-0.2639999985694885 7:0.2240999937057495 8:-0.27399998903274536 9:0.23280000686645508 10:-0.2312999963760376 11:0.24140000343322754 12:-0.13670000433921814 
0.0 0.0 0.0 100.0 1:7.981744766235352 2:1.0 3:-1.169600009918213 4:0.06480000168085098 5:0.39250001311302185 6:-0.31369999051094055 7:0.17669999599456787 8:-0.2606000006198883 9:0.2703999876976013 10:-0.23010000586509705 11:0.2799000144004822 12:-0.1678999960422516 
0.0 0.0 29.03512356122482 0.0 1:7.764146327972412 2:1.0 3:-0.9797000288963318 4:-0.16140000522136688 5:0.33070001006126404 6:-0.22059999406337738 7:0.16519999504089355 8:-0.19689999520778656 9:0.19939999282360077 10:-0.3133000135421753 11:0.2387000024318695 12:-0.026499999687075615 
0.0 100.0 0.0 100.0 1:7.945681095123291 2:1.0 3:-0.9818999767303467 4:-0.13089999556541443 5:0.39750000834465027 6:-0.27630001306533813 7:0.14350000023841858 8:-0.163100004196167 9:0.16769999265670776 10:-0.17270000278949738 11:0.2045000046491623 12:-0.13590000569820404 
0.0 89.3655235930473 0.0 0.0 1:6.863378524780273 2:1.0 3:-1.2247999906539917 4:-0.07410000264644623 5:0.4715000092983246 6:-0.21439999341964722 7:0.2401999980211258 8:-0.30079999566078186 9:0.24089999496936798 10:-0.20960000157356262 11:0.2694000005722046 12:-0.1615000069141388 
0.0 100.0 0.0 100.0 1:6.769237041473389 2:1.0 3:-1.1686999797821045 4:0.03700000047683716 5:0.4316999912261963 6:-0.3783999979496002 7:0.31119999289512634 8:-0.272599995136261 9:0.30730000138282776 10:-0.25360000133514404 11:0.15620000660419464 12:-0.05959999933838844 
0.0 100.0 0.0 0.0 1:7.665739059448242 2:1.0 3:-1.3710999488830566 4:0.2689000070095062 5:0.44040000438690186 6:-0.4713999927043915 7:0.3978999853134155 8:-0.35089999437332153 9:0.328000009059906 10:-0.2849000096321106 11:0.2305999994277954 12:-0.09139999747276306 
0.0 100.0 0.0 100.0 1:7.345172882080078 2:1.0 3:-1.3174999952316284 4:0.23250000178813934 5:0.3849000036716461 6:-0.41940000653266907 7:0.3075000047683716 8:-0.27059999108314514 9:0.35199999809265137 10:-0.3702000081539154 11:0.289900004863739 12:-0.12530000507831573 
0.0 31.11526234500632 0.0 0.0 1:6.616855144500732 2:1.0 3:-1.2843999862670898 4:0.22789999842643738 5:0.3619000017642975 6:-0.34549999237060547 7:0.2980000078678131 8:-0.34040001034736633 9:0.31049999594688416 10:-0.3458000123500824 11:0.33469998836517334 12:-0.155799999833107 
0.0 0.0 5.142159635087768 0.0 1:7.699437618255615 2:1.0 3:-1.0500999689102173 4:-0.2680000066757202 5:0.5187000036239624 6:-0.17309999465942383 7:0.1542000025510788 8:-0.20890000462532043 9:0.052299998700618744 10:-0.1460999995470047 11:0.27549999952316284 12:-0.12439999729394913 
0.0 0.0 100.0 0.0 1:7.708411693572998 2:1.0 3:-1.1452000141143799 4:-0.11460000276565552 5:0.420199990272522 6:-0.10869999974966049 7:0.1527000069618225 8:-0.32339999079704285 9:0.30329999327659607 10:-0.31869998574256897 11:0.26249998807907104 12:-0.0754999965429306 
0.0 0.0 100.0 0.0 1:7.989410877227783 2:1.0 3:-1.0475000143051147 4:-0.2345999926328659 5:0.4032999873161316 6:-0.11129999905824661 7:0.20360000431537628 8:-0.2506999969482422 9:0.1354999989271164 10:-0.210099995136261 11:0.22630000114440918 12:-0.07530000060796738 
0.0 0.0 100.0 0.0 1:7.7159247398376465 2:1.0 3:-1.1507999897003174 4:-0.1582999974489212 5:0.4171999990940094 6:-0.0869000032544136 7:0.17579999566078186 8:-0.36230000853538513 9:0.303600013256073 10:-0.23499999940395355 11:0.21950000524520874 12:-0.09960000216960907 
0.0 44.14367879956697 100.0 100.0 1:7.414286136627197 2:1.0 3:-0.9855999946594238 4:-0.26969999074935913 5:0.30230000615119934 6:-0.07959999889135361 7:0.22509999573230743 8:-0.2125999927520752 9:0.1703999936580658 10:-0.2628999948501587 11:0.25609999895095825 12:-0.11100000143051147 
0.0 0.0 100.0 0.0 1:7.226113796234131 2:1.0 3:-1.4020999670028687 4:0.16539999842643738 5:0.5396999716758728 6:-0.3598000109195709 7:0.26980000734329224 8:-0.359499990940094 9:0.2612000107765198 10:-0.28119999170303345 11:0.3165999948978424 12:-0.12460000067949295 
0.0 0.0 100.0 0.0 1:6.946468353271484 2:1.0 3:-1.3438999652862549 4:0.0982000008225441 5:0.47780001163482666 6:-0.28610000014305115 7:0.3003000020980835 8:-0.4027000069618225 9:0.26969999074935913 10:-0.23890000581741333 11:0.2818000018596649 12:-0.13740000128746033 
0.0 0.0 100.0 0.0 1:6.853928565979004 2:1.0 3:-1.337499976158142 4:0.01360000018030405 5:0.5174999833106995 6:-0.2581999897956848 7:0.3158000111579895 8:-0.4138000011444092 9:0.27320000529289246 10:-0.22750000655651093 11:0.21690000593662262 12:-0.07880000025033951 
0.0 0.0 100.0 0.0 1:6.738011837005615 2:1.0 3:-1.4469000101089478 4:0.19020000100135803 5:0.54339998960495 6:-0.3425000011920929 7:0.2768000066280365 8:-0.37860000133514404 9:0.2621999979019165 10:-0.28619998693466187 11:0.3571000099182129 12:-0.156700000166893 
0.0 0.0 100.0 0.0 1:6.606575012207031 2:1.0 3:-1.430799961090088 4:0.18440000712871552 5:0.48240000009536743 6:-0.36160001158714294 7:0.34769999980926514 8:-0.361299991607666 9:0.27570000290870667 10:-0.30979999899864197 11:0.3167000114917755 12:-0.12880000472068787 
0.0 0.0 100.0 0.0 1:6.811398506164551 2:1.0 3:-1.2364000082015991 4:-0.03959999978542328 5:0.39329999685287476 6:-0.09520000219345093 7:0.2150000035762787 8:-0.3531999886035919 9:0.22660000622272491 10:-0.2906999886035919 11:0.3921000063419342 12:-0.1851000040769577 
0.0 0.0 100.0 0.0 1:6.485360145568848 2:1.0 3:-1.4431999921798706 4:0.22660000622272491 5:0.49900001287460327 6:-0.3698999881744385 7:0.31279999017715454 8:-0.32739999890327454 9:0.20180000364780426 10:-0.3075000047683716 11:0.4318000078201294 12:-0.19589999318122864 
0.0 0.0 100.0 0.0 1:6.722378730773926 2:1.0 3:-1.4098000526428223 4:0.14669999480247498 5:0.5648999810218811 6:-0.3529999852180481 7:0.22450000047683716 8:-0.3260999917984009 9:0.2624000012874603 10:-0.2782000005245209 11:0.35359999537467957 12:-0.16339999437332153 
0.0 0.0 100.0 0.0 1:7.289363384246826 2:1.0 3:-1.3982000350952148 4:0.17790000140666962 5:0.43160000443458557 6:-0.2606000006198883 7:0.2628999948501587 8:-0.352400004863739 9:0.22599999606609344 10:-0.18700000643730164 11:0.23360000550746918 12:-0.11680000275373459 
0.0 0.0 100.0 0.0 1:7.515199661254883 2:1.0 3:-1.3265000581741333 4:0.027000000700354576 5:0.5712000131607056 6:-0.33959999680519104 7:0.2556999921798706 8:-0.29600000381469727 9:0.19339999556541443 10:-0.19169999659061432 11:0.22669999301433563 12:-0.0892999991774559 
0.0 0.0 100.0 0.0 1:7.20194673538208 2:1.0 3:-1.4560999870300293 4:0.17419999837875366 5:0.5188000202178955 6:-0.30880001187324524 7:0.24979999661445618 8:-0.29440000653266907 9:0.20329999923706055 10:-0.226500004529953 11:0.296999990940094 12:-0.13989999890327454 
0.0 0.0 100.0 0.0 1:7.357224941253662 2:1.0 3:-1.4615999460220337 4:0.24729999899864197 5:0.4912000000476837 6:-0.37290000915527344 7:0.3158000111579895 8:-0.4020000100135803 9:0.30640000104904175 10:-0.2955999970436096 11:0.3345000147819519 12:-0.14090000092983246 
0.0 0.0 100.0 0.0 1:7.211936950683594 2:1.0 3:-1.3488999605178833 4:0.09300000220537186 5:0.5076000094413757 6:-0.3149999976158142 7:0.2614000141620636 8:-0.3336000144481659 9:0.2287999987602234 10:-0.2644999921321869 11:0.33719998598098755 12:-0.1428000032901764 
0.0 0.0 100.0 0.0 1:7.5328369140625 2:1.0 3:-1.1805000305175781 4:-0.13009999692440033 5:0.41760000586509705 6:-0.12839999794960022 7:0.24310000240802765 8:-0.3488999903202057 9:0.26010000705718994 10:-0.24570000171661377 11:0.22429999709129333 12:-0.08399999886751175 
47.907597164464434 0.0 100.0 0.0 1:7.843808650970459 2:1.0 3:-0.8866999745368958 4:-0.3240000009536743 5:0.3073999881744385 6:-0.08299999684095383 7:0.17520000040531158 8:-0.2190999984741211 9:0.1688999980688095 10:-0.2329999953508377 11:0.05609999969601631 12:0.07349999994039536 
0.0 0.0 100.0 0.0 1:6.748568058013916 2:1.0 3:-1.4160000085830688 4:0.23399999737739563 5:0.4771000146865845 6:-0.36340001225471497 7:0.2969000041484833 8:-0.40209999680519104 9:0.31540000438690186 10:-0.3368000090122223 11:0.32440000772476196 12:-0.10459999740123749 
0.0 100.0 0.0 0.0 1:7.808410167694092 2:1.0 3:-1.1045000553131104 4:-0.045499999076128006 5:0.3684000074863434 6:-0.2087000012397766 7:0.25459998846054077 8:-0.2969000041484833 9:0.1973000019788742 10:-0.24799999594688416 11:0.2879999876022339 12:-0.1306000053882599 
0.0 100.0 0.0 100.0 1:7.853416442871094 2:1.0 3:-1.0794999599456787 4:0.013299999758601189 5:0.4083000123500824 6:-0.32910001277923584 7:0.1777999997138977 8:-0.2563000023365021 9:0.28619998693466187 10:-0.22120000422000885 11:0.19740000367164612 12:-0.13349999487400055 
0.0 0.0 100.0 0.0 1:6.712973594665527 2:1.0 3:-1.5266000032424927 4:0.3294000029563904 5:0.5217000246047974 6:-0.4650000035762787 7:0.3513999879360199 8:-0.3458000123500824 9:0.2484000027179718 10:-0.29809999465942383 11:0.4072999954223633 12:-0.19140000641345978 
0.0 0.0 100.0 0.0 1:7.34870719909668 2:1.0 3:-1.606600046157837 4:0.5077999830245972 5:0.4481000006198883 6:-0.508400022983551 7:0.36059999465942383 8:-0.4171000123023987 9:0.4187999963760376 10:-0.4047999978065491 11:0.37209999561309814 12:-0.1444000005722046 
0.0 100.0 0.0 0.0 1:8.509881019592285 2:1.0 3:-0.8490999937057495 4:-0.0333000011742115 5:0.18440000712871552 6:-0.2054000049829483 7:0.13910000026226044 8:-0.3273000121116638 9:0.3052999973297119 10:-0.15360000729560852 11:0.11500000208616257 12:-0.10480000078678131 
0.0 100.0 0.0 100.0 1:8.33053970336914 2:1.0 3:-1.0742000341415405 4:-0.009200000204145908 5:0.3278000056743622 6:-0.31790000200271606 7:0.1784999966621399 8:-0.20880000293254852 9:0.25209999084472656 10:-0.22130000591278076 11:0.22059999406337738 12:-0.12309999763965607 
0.0 100.0 0.0 100.0 1:7.084392070770264 2:1.0 3:-1.0484000444412231 4:-1.9999999494757503E-4 5:0.3903999924659729 6:-0.3723999857902527 7:0.19140000641345978 8:-0.23319999873638153 9:0.2443999946117401 10:-0.2054000049829483 11:0.21719999611377716 12:-0.1436000019311905 
0.0 100.0 0.0 100.0 1:7.761935234069824 2:1.0 3:-1.1878999471664429 4:0.09669999778270721 5:0.3662000000476837 6:-0.43540000915527344 7:0.29190000891685486 8:-0.22390000522136688 9:0.27070000767707825 10:-0.26080000400543213 11:0.24500000476837158 12:-0.13120000064373016 
0.0 100.0 0.0 100.0 1:7.263667106628418 2:1.0 3:-1.2130000591278076 4:0.16429999470710754 5:0.3467000126838684 6:-0.3874000012874603 7:0.30570000410079956 8:-0.3327000141143799 9:0.3294999897480011 10:-0.28780001401901245 11:0.24160000681877136 12:-0.10970000177621841 
0.0 0.0 0.0 100.0 1:7.0524420738220215 2:1.0 3:-1.2353999614715576 4:0.14569999277591705 5:0.30469998717308044 6:-0.3434999883174896 7:0.23309999704360962 8:-0.321399986743927 9:0.4715999960899353 10:-0.32580000162124634 11:0.22339999675750732 12:-0.11640000343322754 
0.0 100.0 0.0 99.10356548573141 1:7.536497592926025 2:1.0 3:-0.6531999707221985 4:-0.3292999863624573 5:0.27149999141693115 6:-0.16940000653266907 7:0.0034000000450760126 8:-0.0997999981045723 9:0.14669999480247498 10:-0.2013999968767166 11:0.19589999318122864 12:-0.11919999867677689 
0.0 100.0 0.0 100.0 1:7.062434196472168 2:1.0 3:-0.7475000023841858 4:-0.12729999423027039 5:0.2651999890804291 6:-0.32030001282691956 7:0.1306000053882599 8:-0.1606999933719635 9:0.1859000027179718 10:-0.1421000063419342 11:0.1623000055551529 12:-0.19009999930858612 
0.0 100.0 0.0 79.11544750737079 1:8.549773216247559 2:1.0 3:-0.8385999798774719 4:-0.14300000667572021 5:0.1664000004529953 6:-0.10819999873638153 7:0.06120000034570694 8:-0.11349999904632568 9:0.13979999721050262 10:-0.16200000047683716 11:0.20980000495910645 12:-0.15929999947547913 
0.0 0.0 0.0 100.0 1:7.2089409828186035 2:1.0 3:-1.0829999446868896 4:0.009800000116229057 5:0.39750000834465027 6:-0.3840999901294708 7:0.20190000534057617 8:-0.265500009059906 9:0.30230000615119934 10:-0.2581000030040741 11:0.1737000048160553 12:-0.06459999829530716 
0.0 0.0 0.0 47.49810347903944 1:7.536461353302002 2:1.0 3:-1.2587000131607056 4:0.2076999992132187 5:0.3529999852180481 6:-0.42160001397132874 7:0.304500013589859 8:-0.30489999055862427 9:0.29739999771118164 10:-0.3547999858856201 11:0.3003000020980835 12:-0.09780000150203705 
0.0 72.20150937747682 0.0 0.0 1:8.188730239868164 2:1.0 3:-0.8859000205993652 4:-0.21359999477863312 5:0.2289000004529953 6:-0.11129999905824661 7:0.1145000010728836 8:-0.18240000307559967 9:0.2655999958515167 10:-0.28519999980926514 11:0.24690000712871552 12:-0.07289999723434448 
0.0 100.0 0.0 100.0 1:7.562191009521484 2:1.0 3:-1.1619000434875488 4:0.10580000281333923 5:0.33480000495910645 6:-0.34060001373291016 7:0.2624000012874603 8:-0.3043999969959259 9:0.295199990272522 10:-0.2646999955177307 11:0.27000001072883606 12:-0.1518000066280365 
0.0 100.0 0.0 0.0 1:7.207228183746338 2:1.0 3:-1.0894999504089355 4:-0.02500000037252903 5:0.3416999876499176 6:-0.2443999946117401 7:0.29409998655319214 8:-0.32089999318122864 9:0.1973000019788742 10:-0.2282000035047531 11:0.27489998936653137 12:-0.13279999792575836 
0.0 0.0 100.0 0.0 1:7.481446266174316 2:1.0 3:-1.2441999912261963 4:0.017500000074505806 5:0.43689998984336853 6:-0.22509999573230743 7:0.23849999904632568 8:-0.38690000772476196 9:0.3255000114440918 10:-0.30550000071525574 11:0.2393999993801117 12:-0.06679999828338623 
0.0 100.0 0.0 100.0 1:7.447914123535156 2:1.0 3:-1.0273000001907349 4:-0.07599999755620956 5:0.27549999952316284 6:-0.17599999904632568 7:0.2847000062465668 8:-0.34439998865127563 9:0.25060001015663147 10:-0.2476000040769577 11:0.2321999967098236 12:-0.10849999636411667 
0.0 100.0 9.986567303919001 100.0 1:8.400341033935547 2:1.0 3:-0.9199000000953674 4:-0.14730000495910645 5:0.10830000042915344 6:0.002300000051036477 7:0.05119999870657921 8:-0.015599999576807022 9:-0.00570000009611249 10:0.002199999988079071 11:0.04349999874830246 12:-0.06759999692440033 
0.0 100.0 0.0 100.0 1:8.312314987182617 2:1.0 3:-1.1397000551223755 4:0.1867000013589859 5:0.09560000151395798 6:-0.13910000026226044 7:0.09690000116825104 8:-0.08550000190734863 9:0.1370999962091446 10:-0.13420000672340393 11:0.1264999955892563 12:-0.09790000319480896 
0.0 0.0 100.0 0.0 1:7.135950088500977 2:1.0 3:-1.4221999645233154 4:0.21379999816417694 5:0.4228000044822693 6:-0.21570000052452087 7:0.1331000030040741 8:-0.25760000944137573 9:0.2648000121116638 10:-0.24199999868869781 11:0.20409999787807465 12:-0.07500000298023224 
0.0 0.0 100.0 0.0 1:6.796909332275391 2:1.0 3:-1.4458999633789062 4:0.23090000450611115 5:0.40070000290870667 6:-0.16850000619888306 7:0.12680000066757202 8:-0.28130000829696655 9:0.2295999974012375 10:-0.17659999430179596 11:0.24079999327659607 12:-0.1316000074148178 
0.0 0.0 100.0 0.0 1:6.867686748504639 2:1.0 3:-1.432800054550171 4:0.22360000014305115 5:0.43549999594688416 6:-0.22789999842643738 7:0.15389999747276306 8:-0.27059999108314514 9:0.1882999986410141 10:-0.1362999975681305 11:0.18019999563694 12:-0.08550000190734863 
0.0 0.0 100.0 0.0 1:6.725510597229004 2:1.0 3:-1.482300043106079 4:0.3174999952316284 5:0.3646000027656555 6:-0.18709999322891235 7:0.13050000369548798 8:-0.2522999942302704 9:0.21490000188350677 10:-0.2696000039577484 11:0.3517000079154968 12:-0.15549999475479126 
0.0 100.0 0.0 100.0 1:7.383571624755859 2:1.0 3:-1.2414000034332275 4:0.02459999918937683 5:0.32019999623298645 6:-0.14149999618530273 7:0.17149999737739563 8:-0.07450000196695328 9:0.04100000113248825 10:-0.018200000748038292 11:-0.0019000000320374966 12:-0.05079999938607216 
0.0 0.0 100.0 0.0 1:7.427219390869141 2:1.0 3:-1.0741000175476074 4:-0.07980000227689743 5:0.1915999948978424 6:0.05869999900460243 7:0.04089999943971634 8:-0.10840000212192535 9:-0.0012000000569969416 10:-0.031199999153614044 11:0.028699999675154686 12:0.007300000172108412 
0.0 100.0 0.0 100.0 1:7.979737281799316 2:1.0 3:-1.1783000230789185 4:0.13359999656677246 5:0.18330000340938568 6:-0.13279999792575836 7:0.05380000174045563 8:-3.000000142492354E-4 9:0.045099999755620956 10:-0.15240000188350677 11:0.13439999520778656 12:-0.06390000134706497 
0.0 100.0 0.0 0.0 1:7.880484580993652 2:1.0 3:-1.2511999607086182 4:0.10209999978542328 5:0.3244999945163727 6:-0.17579999566078186 7:0.18440000712871552 8:-0.23160000145435333 9:0.14180000126361847 10:-0.18119999766349792 11:0.2379000037908554 12:-0.12280000001192093 
0.0 0.0 0.0 7.716545849335031 1:7.495750427246094 2:1.0 3:-1.1504000425338745 4:-0.05389999970793724 5:0.29159998893737793 6:0.03400000184774399 7:0.026900000870227814 8:-0.10849999636411667 9:0.09220000356435776 10:-0.15209999680519104 11:0.12150000035762787 12:-0.03830000013113022 
0.0 0.0 100.0 0.0 1:6.899652481079102 2:1.0 3:-1.4550000429153442 4:0.3228999972343445 5:0.2506999969482422 6:-0.13040000200271606 7:0.19609999656677246 8:-0.21320000290870667 9:0.07639999687671661 10:-0.08070000261068344 11:0.14429999887943268 12:-0.08429999649524689 
0.0 0.0 100.0 0.0 1:7.134270191192627 2:1.0 3:-1.257200002670288 4:0.06970000267028809 5:0.2976999878883362 6:0.09950000047683716 7:-0.11879999935626984 8:-0.17910000681877136 9:0.15530000627040863 10:-0.08789999783039093 11:0.10220000147819519 12:-0.043299999088048935 
0.0 0.0 100.0 0.0 1:6.698279857635498 2:1.0 3:-1.5362999439239502 4:0.3068000078201294 5:0.47589999437332153 6:-0.23250000178813934 7:0.1550000011920929 8:-0.2955000102519989 9:0.2061000019311905 10:-0.188400000333786 11:0.23399999737739563 12:-0.11029999703168869 
0.0 0.0 100.0 0.0 1:6.8245768547058105 2:1.0 3:-1.4878000020980835 4:0.303600013256073 5:0.36489999294281006 6:-0.12540000677108765 7:0.08370000123977661 8:-0.2603999972343445 9:0.18610000610351562 10:-0.16050000488758087 11:0.19979999959468842 12:-0.09510000050067902 
0.0 0.0 100.0 0.0 1:6.674406051635742 2:1.0 3:-1.4357000589370728 4:0.2524999976158142 5:0.29649999737739563 6:-0.1168999969959259 7:0.11879999935626984 8:-0.12890000641345978 9:0.14650000631809235 10:-0.18719999492168427 11:0.121799997985363 12:-0.053599998354911804 
0.0 0.0 100.0 0.0 1:6.643819808959961 2:1.0 3:-1.5587999820709229 4:0.42419999837875366 5:0.31040000915527344 6:-0.0658000037074089 7:-0.04479999840259552 8:-0.17990000545978546 9:0.13289999961853027 10:-0.11060000211000443 11:0.26829999685287476 12:-0.16369999945163727 
0.0 0.0 100.0 0.0 1:6.797897815704346 2:1.0 3:-1.5161999464035034 4:0.3249000012874603 5:0.41589999198913574 6:-0.18700000643730164 7:0.05990000069141388 8:-0.23109999299049377 9:0.2168000042438507 10:-0.16940000653266907 11:0.1941000074148178 12:-0.10189999639987946 
0.0 0.0 100.0 0.0 1:6.559280872344971 2:1.0 3:-1.5148999691009521 4:0.2777000069618225 5:0.40540000796318054 6:-0.07519999891519547 7:0.09489999711513519 8:-0.335999995470047 9:0.2232999950647354 10:-0.15279999375343323 11:0.25369998812675476 12:-0.15569999814033508 
0.0 0.0 100.0 0.0 1:7.123959541320801 2:1.0 3:-1.3310999870300293 4:0.054999999701976776 5:0.3614000082015991 6:-0.07699999958276749 7:0.0868000015616417 8:-0.1826999932527542 9:0.1850000023841858 10:-0.11089999973773956 11:0.11060000211000443 12:-0.08380000293254852 
0.0 0.0 100.0 0.0 1:7.000560283660889 2:1.0 3:-1.3871999979019165 4:0.12600000202655792 5:0.46779999136924744 6:-0.13459999859333038 7:0.054999999701976776 8:-0.18119999766349792 9:0.03310000151395798 10:-0.09019999951124191 11:0.29600000381469727 12:-0.17080000042915344 
0.0 0.0 100.0 0.0 1:6.603957653045654 2:1.0 3:-1.4788999557495117 4:0.24570000171661377 5:0.3889999985694885 6:-0.08389999717473984 7:0.04129999876022339 8:-0.15279999375343323 9:0.07680000364780426 10:-0.121799997985363 11:0.1923999935388565 12:-0.08649999648332596 
0.0 0.0 100.0 0.0 1:6.83789587020874 2:1.0 3:-1.4524999856948853 4:0.2531999945640564 5:0.3725000023841858 6:-0.17100000381469727 7:0.1817999929189682 8:-0.3050999939441681 9:0.1687999963760376 10:-0.15029999613761902 11:0.289900004863739 12:-0.16259999573230743 
0.0 0.0 100.0 0.0 1:7.047205448150635 2:1.0 3:-1.457200050354004 4:0.2547000050544739 5:0.39160001277923584 6:-0.18850000202655792 7:0.11659999936819077 8:-0.21870000660419464 9:0.18649999797344208 10:-0.17020000517368317 11:0.2603999972343445 12:-0.15870000422000885 
0.0 100.0 0.0 100.0 1:8.019306182861328 2:1.0 3:-1.2308000326156616 4:0.26179999113082886 5:0.10660000145435333 6:-0.20229999721050262 7:0.23770000040531158 8:-0.2800000011920929 9:0.25859999656677246 10:-0.2304999977350235 11:0.1696999967098236 12:-0.05559999868273735 
0.0 100.0 0.0 0.0 1:8.001023292541504 2:1.0 3:-1.3007999658584595 4:0.2888999879360199 5:0.16210000216960907 6:-0.1915999948978424 7:0.2151000052690506 8:-0.26030001044273376 9:0.21570000052452087 10:-0.15320000052452087 11:0.17569999396800995 12:-0.11550000309944153 
0.0 100.0 0.0 100.0 1:7.906073093414307 2:1.0 3:-1.2627999782562256 4:0.2623000144958496 5:0.15309999883174896 6:-0.17110000550746918 7:0.1632000058889389 8:-0.20440000295639038 9:0.22689999639987946 10:-0.2533999979496002 11:0.19020000100135803 12:-0.06620000302791595 
0.0 0.0 100.0 0.0 1:7.080904960632324 2:1.0 3:-1.4074000120162964 4:0.2517000138759613 5:0.3357999920845032 6:-0.15129999816417694 7:0.11640000343322754 8:-0.259799987077713 9:0.1145000010728836 10:-0.09049999713897705 11:0.22499999403953552 12:-0.12380000203847885 
0.0 100.0 0.0 100.0 1:7.942533493041992 2:1.0 3:-1.2943999767303467 4:0.14390000700950623 5:0.29100000858306885 6:-0.10109999775886536 7:0.06040000170469284 8:-0.10559999942779541 9:0.09920000284910202 10:-0.09149999916553497 11:0.15209999680519104 12:-0.1354999989271164 
0.0 0.0 100.0 0.0 1:6.251561164855957 2:1.0 3:-1.7091000080108643 4:0.6215000152587891 5:0.34470000863075256 6:-0.27709999680519104 7:0.08829999715089798 8:-0.13490000367164612 9:0.15289999544620514 10:-0.13729999959468842 11:0.1808999925851822 12:-0.1088000014424324 
0.0 0.0 0.0 100.0 1:7.598691463470459 2:1.0 3:-1.3157999515533447 4:0.24240000545978546 5:0.2531000077724457 6:-0.16519999504089355 7:0.06729999929666519 8:-0.07980000227689743 9:0.11969999969005585 10:-0.14980000257492065 11:0.13670000433921814 12:-0.08609999716281891 
0.0 0.0 100.0 0.0 1:6.861654281616211 2:1.0 3:-1.511199951171875 4:0.3919999897480011 5:0.24650000035762787 6:-0.14169999957084656 7:0.14749999344348907 8:-0.21610000729560852 9:0.15639999508857727 10:-0.10830000042915344 11:0.10360000282526016 12:-0.052299998700618744 
0.0 0.0 100.0 0.0 1:6.663150310516357 2:1.0 3:-1.5913000106811523 4:0.5130000114440918 5:0.25699999928474426 6:-0.1216999962925911 7:0.06629999727010727 8:-0.24230000376701355 9:0.17550000548362732 10:-0.13950000703334808 11:0.23180000483989716 12:-0.12540000677108765 
0.0 0.0 100.0 0.0 1:6.6215739250183105 2:1.0 3:-1.5961999893188477 4:0.5099999904632568 5:0.2842999994754791 6:-0.17270000278949738 7:0.09790000319480896 8:-0.20600000023841858 9:0.1907999962568283 10:-0.2087000012397766 11:0.24619999527931213 12:-0.1265999972820282 
0.0 0.0 100.0 0.0 1:6.835022926330566 2:1.0 3:-1.253999948501587 4:-0.061900001019239426 5:0.536899983882904 6:-0.20059999823570251 7:0.06629999727010727 8:-0.07280000299215317 9:-0.03020000085234642 10:0.07999999821186066 11:-0.027499999850988388 12:-0.006399999838322401 
0.0 0.0 100.0 0.0 1:6.5889410972595215 2:1.0 3:-1.57669997215271 4:0.46129998564720154 5:0.3474999964237213 6:-0.164000004529953 7:-0.017100000753998756 8:-0.10660000145435333 9:0.11060000211000443 10:-0.15109999477863312 11:0.27300000190734863 12:-0.1574999988079071 
0.0 0.0 100.0 0.0 1:6.555250644683838 2:1.0 3:-1.5706000328063965 4:0.45249998569488525 5:0.3441999852657318 6:-0.21379999816417694 7:0.08399999886751175 8:-0.22020000219345093 9:0.16179999709129333 10:-0.08799999952316284 11:0.14560000598430634 12:-0.07599999755620956 
0.0 0.0 100.0 0.0 1:6.855795383453369 2:1.0 3:-1.5228999853134155 4:0.3682999908924103 5:0.4223000109195709 6:-0.31709998846054077 7:0.13819999992847443 8:-0.1868000030517578 9:0.14749999344348907 10:-0.12950000166893005 11:0.2231999933719635 12:-0.12269999831914902 
0.0 0.0 100.0 0.0 1:6.550082683563232 2:1.0 3:-1.5520999431610107 4:0.4551999866962433 5:0.2639999985694885 6:-0.17170000076293945 7:0.11240000277757645 8:-0.18310000002384186 9:0.08569999784231186 10:-0.05249999836087227 11:0.15870000422000885 12:-0.10040000081062317 
0.0 0.0 100.0 0.0 1:6.775224208831787 2:1.0 3:-1.4775999784469604 4:0.3224000036716461 5:0.3122999966144562 6:-0.14869999885559082 7:0.04910000041127205 8:-0.12520000338554382 9:0.0625 10:-0.10159999877214432 11:0.26190000772476196 12:-0.13770000636577606 
0.0 61.23190647874842 0.0 100.0 1:6.96855354309082 2:1.0 3:-1.4988000392913818 4:0.510699987411499 5:0.10589999705553055 6:-0.07460000365972519 7:0.003100000089034438 8:0.032600000500679016 9:0.07750000059604645 10:-0.1454000025987625 11:0.09099999815225601 12:-0.07699999958276749 
0.0 92.12333837758722 0.0 0.0 1:6.878577709197998 2:1.0 3:-1.441100001335144 4:0.3409999907016754 5:0.19370000064373016 6:-0.0835999995470047 7:0.10639999806880951 8:-0.11959999799728394 9:0.11020000278949738 10:-0.06769999861717224 11:0.009200000204145908 12:-0.025200000032782555 
0.0 0.0 0.0 100.0 1:7.442813873291016 2:1.0 3:-1.320199966430664 4:0.29899999499320984 5:0.06960000097751617 6:0.10499999672174454 7:-0.05169999971985817 8:-0.04089999943971634 9:-0.06080000102519989 10:0.0957999974489212 11:-0.03020000085234642 12:-0.039500001817941666 
0.0 0.0 0.0 100.0 1:7.196819305419922 2:1.0 3:-1.4392000436782837 4:0.39070001244544983 5:0.2669000029563904 6:-0.17640000581741333 7:0.02979999966919422 8:-0.12110000103712082 9:0.1370999962091446 10:-0.10189999639987946 11:0.1777999997138977 12:-0.13680000603199005 
0.0 100.0 0.0 100.0 1:7.5699028968811035 2:1.0 3:-1.3432999849319458 4:0.31060001254081726 5:0.17630000412464142 6:-0.09700000286102295 7:0.03269999846816063 8:-0.008500000461935997 9:0.05739999935030937 10:-0.0737999975681305 11:0.06109999865293503 12:-0.08169999718666077 
0.0 0.0 0.0 100.0 1:7.250574588775635 2:1.0 3:-1.2761000394821167 4:0.2045000046491623 5:0.2231999933719635 6:-0.08839999884366989 7:-0.009700000286102295 8:-0.02590000070631504 9:-0.00139999995008111 10:-0.02449999935925007 11:0.14990000426769257 12:-0.1324000060558319 
0.0 100.0 0.0 100.0 1:8.044811248779297 2:1.0 3:-1.2145999670028687 4:0.4140999913215637 5:-0.0406000018119812 6:-0.09380000084638596 7:0.041099999099969864 8:-0.04360000044107437 9:0.07689999788999557 10:-0.08669999986886978 11:-0.05510000139474869 12:0.052299998700618744 
0.0 100.0 0.0 100.0 1:7.943171977996826 2:1.0 3:-1.246500015258789 4:0.3635999858379364 5:0.06109999865293503 6:-0.18889999389648438 7:0.13950000703334808 8:-0.10980000346899033 9:0.12200000137090683 10:-0.1339000016450882 11:0.1088000014424324 12:-0.08579999953508377 
0.0 0.0 100.0 0.0 1:7.710142612457275 2:1.0 3:-1.0233999490737915 4:-0.05420000106096268 5:0.21619999408721924 6:-0.029200000688433647 7:-0.035100001841783524 8:-0.11479999870061874 9:0.03460000082850456 10:-0.09070000052452087 11:0.08349999785423279 12:0.02199999988079071 
0.0 100.0 0.0 0.0 1:7.872748374938965 2:1.0 3:-1.3414000272750854 4:0.3294000029563904 5:0.11680000275373459 6:-0.11060000211000443 7:0.155799999833107 8:-0.22040000557899475 9:0.18400000035762787 10:-0.12970000505447388 11:0.15279999375343323 12:-0.09640000015497208 
0.0 0.0 0.0 60.097672808578416 1:7.368128776550293 2:1.0 3:-1.2863999605178833 4:0.16130000352859497 5:0.23759999871253967 6:-0.11680000275373459 7:0.14569999277591705 8:-0.15649999678134918 9:0.08879999816417694 10:-0.11320000141859055 11:0.1347000002861023 12:-0.07530000060796738 
0.0 0.0 100.0 0.0 1:6.656123161315918 2:1.0 3:-1.6045000553131104 4:0.5029000043869019 5:0.31209999322891235 6:-0.1703999936580658 7:0.054499998688697815 8:-0.21119999885559082 9:0.14300000667572021 10:-0.11590000241994858 11:0.24950000643730164 12:-0.14749999344348907 
0.0 0.0 100.0 0.0 1:7.005597114562988 2:1.0 3:-1.555999994277954 4:0.460999995470047 5:0.34470000863075256 6:-0.28380000591278076 7:0.15039999783039093 8:-0.24639999866485596 9:0.17630000412464142 10:-0.23690000176429749 11:0.3910999894142151 12:-0.18469999730587006 
0.0 100.0 0.0 100.0 1:7.939973831176758 2:1.0 3:-1.212399959564209 4:0.23499999940395355 5:0.13439999520778656 6:-0.10970000177621841 7:0.032099999487400055 8:-0.0478999987244606 9:0.05700000002980232 10:-0.03680000081658363 11:-0.015599999576807022 12:-0.017999999225139618 
0.0 0.0 100.0 0.0 1:6.968230724334717 2:1.0 3:-1.4634000062942505 4:0.41609999537467957 5:0.15809999406337738 6:-0.04749999940395355 7:0.035599999129772186 8:-0.15039999783039093 9:0.03180000185966492 10:-0.029100000858306885 11:0.14079999923706055 12:-0.07599999755620956 
0.0 0.0 100.0 0.0 1:6.6218438148498535 2:1.0 3:-1.3966000080108643 4:0.16509999334812164 5:0.37119999527931213 6:-0.011500000022351742 7:-0.10329999774694443 8:-0.05389999970793724 9:-0.02590000070631504 10:0.049400001764297485 11:0.1370999962091446 12:-0.11010000109672546 
0.0 0.0 8.645208987391355 0.0 1:6.781309604644775 2:1.0 3:-1.5992000102996826 4:0.588100016117096 5:0.1932000070810318 6:-0.1136000007390976 7:-0.03660000115633011 8:-0.08910000324249268 9:-0.05139999836683273 10:0.09690000116825104 11:0.11949999630451202 12:-0.09200000017881393 
0.0 0.0 0.0 100.0 1:7.215665340423584 2:1.0 3:-1.4610999822616577 4:0.5594000220298767 5:-0.04010000079870224 6:-0.04879999905824661 7:0.0340999998152256 8:0.021800000220537186 9:-0.028699999675154686 10:-0.009999999776482582 11:0.014499999582767487 12:-0.02410000003874302 
0.0 100.0 0.0 100.0 1:8.040016174316406 2:1.0 3:-1.2583999633789062 4:0.3619999885559082 5:-0.011099999770522118 6:-0.12530000507831573 7:0.08190000057220459 8:-0.039400000125169754 9:0.08240000158548355 10:-0.10440000146627426 11:0.13940000534057617 12:-0.1006999984383583 
0.0 100.0 0.0 100.0 1:8.043989181518555 2:1.0 3:-1.2318999767303467 4:0.1770000010728836 5:0.11559999734163284 6:-0.10429999977350235 7:0.13169999420642853 8:-0.14229999482631683 9:0.12399999797344208 10:-0.0966000035405159 11:0.12680000066757202 12:-0.07850000262260437 
0.0 100.0 0.0 100.0 1:7.57271146774292 2:1.0 3:-1.2479000091552734 4:0.13750000298023224 5:0.18960000574588776 6:-0.08510000258684158 7:0.10869999974966049 8:-0.18960000574588776 9:0.11900000274181366 10:-0.0502999983727932 11:0.15629999339580536 12:-0.12280000001192093 
0.0 100.0 0.0 100.0 1:8.21289348602295 2:1.0 3:-1.1649999618530273 4:0.2451999932527542 5:0.11379999667406082 6:-0.22709999978542328 7:0.11079999804496765 8:-0.06620000302791595 9:0.11249999701976776 10:-0.10639999806880951 11:0.05139999836683273 12:-0.04569999873638153 
0.0 21.12328444267538 0.0 0.0 1:7.923763275146484 2:1.0 3:-1.0398000478744507 4:-0.0803999975323677 5:0.24449999630451202 6:-0.043699998408555984 7:0.03970000147819519 8:-0.017000000923871994 9:-0.09960000216960907 10:0.06350000202655792 11:0.03400000184774399 12:-0.03590000048279762 
0.0 100.0 0.0 100.0 1:7.628570079803467 2:1.0 3:-0.9940000176429749 4:-0.1875 5:0.23420000076293945 6:0.04809999838471413 7:0.08250000327825546 8:-0.14030000567436218 9:0.001500000013038516 10:0.022299999371170998 11:-0.03200000151991844 12:-0.010300000198185444 
0.0 0.0 100.0 0.0 1:6.860698223114014 2:1.0 3:-1.5140000581741333 4:0.33869999647140503 5:0.3813000023365021 6:-0.20550000667572021 7:0.1468999981880188 8:-0.3763999938964844 9:0.32440000772476196 10:-0.1941000074148178 11:0.2651999890804291 12:-0.15209999680519104 
0.0 0.0 100.0 0.0 1:6.973724842071533 2:1.0 3:-1.4709999561309814 4:0.27810001373291016 5:0.4309000074863434 6:-0.24940000474452972 7:0.20990000665187836 8:-0.38679999113082886 9:0.23919999599456787 10:-0.1915999948978424 11:0.3716999888420105 12:-0.20970000326633453 
0.0 0.0 100.0 0.0 1:7.154451370239258 2:1.0 3:-1.440600037574768 4:0.2117999941110611 5:0.5205000042915344 6:-0.31439998745918274 7:0.14880000054836273 8:-0.2337999939918518 9:0.16019999980926514 10:-0.21799999475479126 11:0.3630000054836273 12:-0.17900000512599945 
0.0 0.0 100.0 0.0 1:7.197338104248047 2:1.0 3:-1.4248000383377075 4:0.14710000157356262 5:0.4959999918937683 6:-0.22470000386238098 7:0.1306000053882599 8:-0.30630001425743103 9:0.20389999449253082 10:-0.14180000126361847 11:0.3043999969959259 12:-0.1729000061750412 
0.0 0.0 100.0 0.0 1:7.09326171875 2:1.0 3:-1.4019999504089355 4:0.20569999516010284 5:0.3537999987602234 6:-0.19030000269412994 7:0.18700000643730164 8:-0.30790001153945923 9:0.27639999985694885 10:-0.28600001335144043 11:0.3000999987125397 12:-0.11909999698400497 
0.0 0.0 100.0 0.0 1:7.0738959312438965 2:1.0 3:-1.4277000427246094 4:0.18060000240802765 5:0.4763999879360199 6:-0.2513999938964844 7:0.18440000712871552 8:-0.3330000042915344 9:0.2087000012397766 10:-0.1597999930381775 11:0.33390000462532043 12:-0.19539999961853027 
0.0 0.0 100.0 0.0 1:7.251216888427734 2:1.0 3:-1.4732999801635742 4:0.30640000104904175 5:0.37540000677108765 6:-0.24500000476837158 7:0.23319999873638153 8:-0.41909998655319214 9:0.3711000084877014 10:-0.3278999924659729 11:0.36890000104904175 12:-0.17030000686645508 
0.0 0.0 100.0 0.0 1:7.157269477844238 2:1.0 3:-1.3796000480651855 4:0.15970000624656677 5:0.39660000801086426 6:-0.20669999718666077 7:0.17440000176429749 8:-0.2827000021934509 9:0.2313999980688095 10:-0.20069999992847443 11:0.24040000140666962 12:-0.11249999701976776 
0.0 0.0 100.0 0.0 1:6.936527252197266 2:1.0 3:-1.5247000455856323 4:0.35370001196861267 5:0.41370001435279846 6:-0.3043999969959259 7:0.21709999442100525 8:-0.35989999771118164 9:0.2867000102996826 10:-0.26660001277923584 11:0.4081999957561493 12:-0.2078000009059906 
0.0 0.0 100.0 0.0 1:7.291008472442627 2:1.0 3:-1.416200041770935 4:0.17180000245571136 5:0.4796000123023987 6:-0.31189998984336853 7:0.2563999891281128 8:-0.34610000252723694 9:0.2897000014781952 10:-0.2671999931335449 11:0.2583000063896179 12:-0.09510000050067902 
0.0 0.0 100.0 0.0 1:7.061774253845215 2:1.0 3:-1.4119999408721924 4:0.1647000014781952 5:0.41819998621940613 6:-0.22750000655651093 7:0.19040000438690186 8:-0.29269999265670776 9:0.2793999910354614 10:-0.2282000035047531 11:0.2549999952316284 12:-0.13210000097751617 
0.0 0.0 100.0 0.0 1:6.939855575561523 2:1.0 3:-1.371999979019165 4:0.2013999968767166 5:0.32850000262260437 6:-0.16279999911785126 7:0.12720000743865967 8:-0.26649999618530273 9:0.21660000085830688 10:-0.21060000360012054 11:0.30059999227523804 12:-0.14059999585151672 
0.0 0.0 100.0 0.0 1:7.131746768951416 2:1.0 3:-1.4493000507354736 4:0.19760000705718994 5:0.49880000948905945 6:-0.27489998936653137 7:0.16110000014305115 8:-0.34380000829696655 9:0.2921000123023987 10:-0.2084999978542328 11:0.32190001010894775 12:-0.1777999997138977 
0.0 0.0 100.0 0.0 1:7.065265655517578 2:1.0 3:-1.4200999736785889 4:0.13950000703334808 5:0.4629000127315521 6:-0.2371000051498413 7:0.21310000121593475 8:-0.3434000015258789 9:0.28029999136924744 10:-0.2303999960422516 11:0.2842999994754791 12:-0.13670000433921814 
0.0 0.0 100.0 0.0 1:7.268405914306641 2:1.0 3:-1.3948999643325806 4:0.09640000015497208 5:0.5471000075340271 6:-0.2964000105857849 7:0.20900000631809235 8:-0.3255000114440918 9:0.20900000631809235 10:-0.15000000596046448 11:0.3095000088214874 12:-0.1850000023841858 
0.0 0.0 100.0 0.0 1:7.112064838409424 2:1.0 3:-1.4642000198364258 4:0.21809999644756317 5:0.5080000162124634 6:-0.28859999775886536 7:0.18330000340938568 8:-0.3222000002861023 9:0.20579999685287476 10:-0.20810000598430634 11:0.39890000224113464 12:-0.21379999816417694 
0.0 0.0 100.0 0.0 1:7.197555065155029 2:1.0 3:-1.4400999546051025 4:0.18400000035762787 5:0.51910001039505 6:-0.30959999561309814 7:0.23100000619888306 8:-0.3635999858379364 9:0.2222999930381775 10:-0.1665000021457672 11:0.33219999074935913 12:-0.18690000474452972 
0.0 0.0 100.0 0.0 1:7.096340179443359 2:1.0 3:-1.3950999975204468 4:0.12999999523162842 5:0.4122999906539917 6:-0.15309999883174896 7:0.18970000743865967 8:-0.39910000562667847 9:0.2515000104904175 10:-0.14869999885559082 11:0.2581000030040741 12:-0.12559999525547028 
0.0 0.0 100.0 0.0 1:6.705286026000977 2:1.0 3:-1.4352999925613403 4:0.14139999449253082 5:0.46639999747276306 6:-0.17990000545978546 7:0.14350000023841858 8:-0.30070000886917114 9:0.26669999957084656 10:-0.20509999990463257 11:0.2076999992132187 12:-0.09290000051259995 
0.0 0.0 100.0 0.0 1:6.960485458374023 2:1.0 3:-1.4083000421524048 4:0.11729999631643295 5:0.45649999380111694 6:-0.22210000455379486 7:0.19539999961853027 8:-0.28380000591278076 9:0.22030000388622284 10:-0.21660000085830688 11:0.311599999666214 12:-0.1550000011920929 
0.0 0.0 100.0 0.0 1:6.883150577545166 2:1.0 3:-1.4850000143051147 4:0.3075000047683716 5:0.3587000072002411 6:-0.19370000064373016 7:0.10930000245571136 8:-0.1534000039100647 9:0.15469999611377716 10:-0.1647000014781952 11:0.19210000336170197 12:-0.10350000113248825 
0.0 0.0 0.0 100.0 1:7.573073863983154 2:1.0 3:-1.2619999647140503 4:0.0015999999595806003 5:0.4799000024795532 6:-0.24629999697208405 7:0.13619999587535858 8:-0.09880000352859497 9:0.16060000658035278 10:-0.21789999306201935 11:0.1648000031709671 12:-0.0917000025510788 
0.0 100.0 0.0 100.0 1:8.278006553649902 2:1.0 3:-1.1425000429153442 4:0.13179999589920044 5:0.26669999957084656 6:-0.31150001287460327 7:0.29420000314712524 8:-0.2915000021457672 9:0.2298000007867813 10:-0.2551000118255615 11:0.1931000053882599 12:-0.10639999806880951 
0.0 100.0 0.0 100.0 1:8.185115814208984 2:1.0 3:-1.1430000066757202 4:0.10199999809265137 5:0.18709999322891235 6:-0.19900000095367432 7:0.26930001378059387 8:-0.31119999289512634 9:0.21379999816417694 10:-0.19329999387264252 11:0.1931000053882599 12:-0.10620000213384628 
0.0 100.0 0.0 0.0 1:7.880039691925049 2:1.0 3:-1.2793999910354614 4:0.3165000081062317 5:0.066600002348423 6:-0.052400000393390656 7:0.05700000002980232 8:-0.1298000067472458 9:0.033799998462200165 10:0.002300000051036477 11:0.09860000014305115 12:-0.10100000351667404 
0.0 100.0 0.0 100.0 1:8.37780475616455 2:1.0 3:-1.1109999418258667 4:0.07779999822378159 5:0.22169999778270721 6:-0.2410999983549118 7:0.2816999852657318 8:-0.28610000014305115 9:0.2678000032901764 10:-0.29679998755455017 11:0.23240000009536743 12:-0.11559999734163284 
0.0 100.0 0.0 100.0 1:7.919772148132324 2:1.0 3:-1.2447999715805054 4:0.29820001125335693 5:-0.006300000008195639 6:-0.0024999999441206455 7:0.0052999998442828655 8:-0.028699999675154686 9:0.007600000128149986 10:-0.004100000020116568 11:0.05869999900460243 12:-0.036400001496076584 
0.0 0.0 0.0 100.0 1:7.838864803314209 2:1.0 3:-1.2997000217437744 4:0.28299999237060547 5:0.06270000338554382 6:0.0340999998152256 7:-0.051899999380111694 8:-0.06159999966621399 9:0.07660000026226044 10:0.014999999664723873 11:0.07750000059604645 12:-0.09989999979734421 
0.0 100.0 0.0 57.28750315140484 1:8.323140144348145 2:1.0 3:-1.2409000396728516 4:0.18459999561309814 5:0.2662000060081482 6:-0.2874000072479248 7:0.3037000000476837 8:-0.3125 9:0.2644999921321869 10:-0.25380000472068787 11:0.2709999978542328 12:-0.16500000655651093 
0.0 100.0 0.0 100.0 1:8.186044692993164 2:1.0 3:-1.1181000471115112 4:0.005400000140070915 5:0.32670000195503235 6:-0.272599995136261 7:0.25189998745918274 8:-0.2777000069618225 9:0.23649999499320984 10:-0.2451000064611435 11:0.24819999933242798 12:-0.13179999589920044 
0.0 100.0 0.0 100.0 1:8.384145736694336 2:1.0 3:-0.9672999978065491 4:-0.06809999793767929 5:0.265500009059906 6:-0.24289999902248383 7:0.18690000474452972 8:-0.22390000522136688 9:0.24140000343322754 10:-0.25279998779296875 11:0.21729999780654907 12:-0.1062999963760376 
0.0 100.0 0.0 100.0 1:8.138694763183594 2:1.0 3:-1.2000000476837158 4:0.08990000188350677 5:0.2906999886035919 6:-0.26840001344680786 7:0.26669999957084656 8:-0.3140999972820282 9:0.27970001101493835 10:-0.25589999556541443 11:0.29980000853538513 12:-0.16290000081062317 
0.0 100.0 0.0 100.0 1:8.251995086669922 2:1.0 3:-1.2128000259399414 4:0.09989999979734421 5:0.31630000472068787 6:-0.31380000710487366 7:0.2669999897480011 8:-0.27630001306533813 9:0.29319998621940613 10:-0.28450000286102295 11:0.26260000467300415 12:-0.13339999318122864 
0.0 100.0 0.0 100.0 1:8.204895973205566 2:1.0 3:-1.148800015449524 4:0.04740000143647194 5:0.35370001196861267 6:-0.31310001015663147 7:0.2551000118255615 8:-0.2578999996185303 9:0.24289999902248383 10:-0.2793000042438507 11:0.22550000250339508 12:-0.08839999884366989 
0.0 100.0 0.0 100.0 1:8.111138343811035 2:1.0 3:-1.2488000392913818 4:0.10520000010728836 5:0.37720000743865967 6:-0.3386000096797943 7:0.288100004196167 8:-0.24449999630451202 9:0.27889999747276306 10:-0.29660001397132874 11:0.22869999706745148 12:-0.11959999799728394 
0.0 100.0 0.0 100.0 1:8.358907699584961 2:1.0 3:-1.1203999519348145 4:0.054499998688697815 5:0.3061999976634979 6:-0.29019999504089355 7:0.2506999969482422 8:-0.2540999948978424 9:0.26510000228881836 10:-0.28999999165534973 11:0.17900000512599945 12:-0.08860000222921371 
0.0 0.0 0.0 100.0 1:8.08858871459961 2:1.0 3:-1.139299988746643 4:-0.026000000536441803 5:0.335999995470047 6:-0.24150000512599945 7:0.28209999203681946 8:-0.3280999958515167 9:0.23649999499320984 10:-0.22310000658035278 11:0.22120000422000885 12:-0.10660000145435333 
0.0 0.0 0.0 100.0 1:7.89786958694458 2:1.0 3:-1.3336000442504883 4:0.2565999925136566 5:0.34769999980926514 6:-0.34599998593330383 7:0.27160000801086426 8:-0.319599986076355 9:0.33410000801086426 10:-0.3659000098705292 11:0.2897000014781952 12:-0.12489999830722809 
0.0 100.0 0.0 0.0 1:7.937835216522217 2:1.0 3:-1.222499966621399 4:0.1225999966263771 5:0.3767000138759613 6:-0.2678999900817871 7:0.22010000050067902 8:-0.321399986743927 9:0.19140000641345978 10:-0.24709999561309814 11:0.3889999985694885 12:-0.22130000591278076 
0.0 0.0 0.0 100.0 1:7.881983280181885 2:1.0 3:-1.3092000484466553 4:0.14069999754428864 5:0.4122999906539917 6:-0.3156000077724457 7:0.20170000195503235 8:-0.2054000049829483 9:0.29829999804496765 10:-0.3741999864578247 11:0.31940001249313354 12:-0.14180000126361847 
0.0 100.0 0.0 100.0 1:7.879958152770996 2:1.0 3:-1.2303999662399292 4:0.1039000004529953 5:0.3246999979019165 6:-0.33239999413490295 7:0.32440000772476196 8:-0.24809999763965607 9:0.250900000333786 10:-0.24660000205039978 11:0.15839999914169312 12:-0.05920000001788139 
100.0 100.0 0.0 100.0 1:8.73093318939209 2:1.0 3:-0.7957000136375427 4:-0.1639000028371811 5:0.028999999165534973 6:-0.08900000154972076 7:0.1054999977350235 8:-0.042399998754262924 9:0.057999998331069946 10:-0.0284000001847744 11:0.05590000003576279 12:-0.03480000048875809 
0.0 100.0 0.0 0.0 1:8.701457977294922 2:1.0 3:-0.8338000178337097 4:-0.21240000426769257 5:0.14820000529289246 6:-0.08640000224113464 7:0.14339999854564667 8:-0.16089999675750732 9:0.0957999974489212 10:-0.10920000076293945 11:0.19370000064373016 12:-0.09570000320672989 
0.0 100.0 0.0 100.0 1:8.362123489379883 2:1.0 3:-0.941100001335144 4:-0.23080000281333923 5:0.2711000144481659 6:-0.08190000057220459 7:0.13130000233650208 8:-0.14470000565052032 9:0.1151999980211258 10:-0.09889999777078629 11:0.19110000133514404 12:-0.13339999318122864 
0.0 100.0 0.0 100.0 1:8.565178871154785 2:1.0 3:-0.8636000156402588 4:-0.24050000309944153 5:0.18240000307559967 6:-0.09510000050067902 7:0.13729999959468842 8:-0.12309999763965607 9:0.12120000272989273 10:-0.10679999738931656 11:0.1728000044822693 12:-0.09610000252723694 
0.0 0.0 0.0 100.0 1:7.852930545806885 2:1.0 3:-1.2965999841690063 4:0.13359999656677246 5:0.42100000381469727 6:-0.335999995470047 7:0.23489999771118164 8:-0.22439999878406525 9:0.21789999306201935 10:-0.24629999697208405 11:0.2732999920845032 12:-0.1347000002861023 
0.0 100.0 0.0 100.0 1:8.180205345153809 2:1.0 3:-1.044800043106079 4:-0.055399999022483826 5:0.2833999991416931 6:-0.20000000298023224 7:0.17509999871253967 8:-0.20389999449253082 9:0.21240000426769257 10:-0.2231999933719635 11:0.23409999907016754 12:-0.10899999737739563 
100.0 100.0 0.0 0.0 1:9.169089317321777 2:1.0 3:-0.521399974822998 4:-0.30000001192092896 5:-0.06909999996423721 6:-0.04170000180602074 7:-0.04410000145435333 8:-0.03460000082850456 9:0.05959999933838844 10:-0.0333000011742115 11:0.025499999523162842 12:0.008700000122189522 
100.0 100.0 0.0 0.0 1:9.059632301330566 2:1.0 3:-0.6128000020980835 4:-0.3131999969482422 5:0.004000000189989805 6:-0.05400000140070915 7:0.065700002014637 8:-0.07500000298023224 9:0.05400000140070915 10:-0.07750000059604645 11:0.09780000150203705 12:-0.032499998807907104 
100.0 100.0 100.0 100.0 1:8.463035583496094 2:1.0 3:-0.7371000051498413 4:-0.33379998803138733 5:-0.012400000356137753 6:0.027799999341368675 7:0.11219999939203262 8:-0.0357000008225441 9:-0.029400000348687172 10:-0.06930000334978104 11:0.04729999974370003 12:0.03200000151991844 
100.0 100.0 0.0 100.0 1:8.74853515625 2:1.0 3:-0.7026000022888184 4:-0.29919999837875366 5:0.010300000198185444 6:-0.06539999693632126 7:0.06620000302791595 8:-0.05510000139474869 9:0.09269999712705612 10:-0.06719999760389328 11:0.04520000144839287 12:-0.007400000002235174 
0.0 0.0 60.142779353522556 100.0 1:8.0726957321167 2:1.0 3:-1.0413000583648682 4:-0.186599999666214 5:0.3700999915599823 6:-0.23119999468326569 7:0.15569999814033508 8:-0.13459999859333038 9:0.14650000631809235 10:-0.1671999990940094 11:0.2556999921798706 12:-0.14010000228881836 
0.0 0.0 0.0 100.0 1:7.8142523765563965 2:1.0 3:-1.1900999546051025 4:0.005400000140070915 5:0.3361000120639801 6:-0.18379999697208405 7:0.1704999953508377 8:-0.23569999635219574 9:0.23010000586509705 10:-0.21220000088214874 11:0.2003999948501587 12:-0.08370000123977661 
0.0 0.0 100.0 0.0 1:7.764729976654053 2:1.0 3:-1.1664999723434448 4:-0.09950000047683716 5:0.40689998865127563 6:-0.16660000383853912 7:0.2071000039577484 8:-0.2630999982357025 9:0.20170000195503235 10:-0.22619999945163727 11:0.2418999969959259 12:-0.1046999990940094 
0.0 0.0 100.0 0.0 1:7.783667087554932 2:1.0 3:-1.1937999725341797 4:-0.07720000296831131 5:0.4440000057220459 6:-0.2493000030517578 7:0.21960000693798065 8:-0.21860000491142273 9:0.17229999601840973 10:-0.22840000689029694 11:0.2628999948501587 12:-0.1054999977350235 
0.0 0.0 100.0 0.0 1:7.68507719039917 2:1.0 3:-1.2908999919891357 4:0.03869999945163727 5:0.4489000141620636 6:-0.24899999797344208 7:0.1995999962091446 8:-0.26339998841285706 9:0.15129999816417694 10:-0.210099995136261 11:0.37380000948905945 12:-0.17339999973773956 
0.0 0.0 100.0 0.0 1:7.447474002838135 2:1.0 3:-1.4465999603271484 4:0.21400000154972076 5:0.4214000105857849 6:-0.2547000050544739 7:0.25940001010894775 8:-0.3955000042915344 9:0.3089999854564667 10:-0.3158999979496002 11:0.38580000400543213 12:-0.1632000058889389 
0.0 0.0 100.0 0.0 1:7.614355087280273 2:1.0 3:-1.2369999885559082 4:-0.03689999878406525 5:0.44839999079704285 6:-0.3037000000476837 7:0.28040000796318054 8:-0.24819999933242798 9:0.18860000371932983 10:-0.20110000669956207 11:0.2498999983072281 12:-0.1168999969959259 
0.0 0.0 0.0 100.0 1:7.796473026275635 2:1.0 3:-1.333400011062622 4:0.19210000336170197 5:0.38909998536109924 6:-0.3684000074863434 7:0.2939000129699707 8:-0.25699999928474426 9:0.3188999891281128 10:-0.37119999527931213 11:0.24889999628067017 12:-0.08100000023841858 
0.0 100.0 0.0 100.0 1:7.871613025665283 2:1.0 3:-1.2222000360488892 4:0.07639999687671661 5:0.3652999997138977 6:-0.2533000111579895 7:0.24799999594688416 8:-0.28529998660087585 9:0.25870001316070557 10:-0.26600000262260437 11:0.2791999876499176 12:-0.14810000360012054 
0.0 100.0 0.0 100.0 1:7.712217330932617 2:1.0 3:-1.2785999774932861 4:0.11010000109672546 5:0.42170000076293945 6:-0.2858000099658966 7:0.2791999876499176 8:-0.30239999294281006 9:0.22310000658035278 10:-0.24449999630451202 11:0.27410000562667847 12:-0.14640000462532043 
0.0 100.0 0.0 100.0 1:8.018006324768066 2:1.0 3:-1.1726000308990479 4:-0.004399999976158142 5:0.3578000068664551 6:-0.23839999735355377 7:0.23980000615119934 8:-0.2354000061750412 9:0.243599995970726 10:-0.22939999401569366 11:0.20329999923706055 12:-0.1265999972820282 
0.0 100.0 0.0 100.0 1:8.044379234313965 2:1.0 3:-1.1069999933242798 4:-0.04270000010728836 5:0.35010001063346863 6:-0.25270000100135803 7:0.21729999780654907 8:-0.19580000638961792 9:0.1956000030040741 10:-0.20759999752044678 11:0.18719999492168427 12:-0.1160999983549118 
0.0 0.0 0.0 100.0 1:7.909543991088867 2:1.0 3:-1.378600001335144 4:0.319599986076355 5:0.27869999408721924 6:-0.38989999890327454 7:0.3596999943256378 8:-0.34360000491142273 9:0.38589999079704285 10:-0.40119999647140503 11:0.2906999886035919 12:-0.09359999746084213 
0.0 0.0 0.0 19.080815866570877 1:7.503059387207031 2:1.0 3:-1.4249999523162842 4:0.36329999566078186 5:0.28220000863075256 6:-0.2985000014305115 7:0.2223999947309494 8:-0.23029999434947968 9:0.2648000121116638 10:-0.241799995303154 11:0.1972000002861023 12:-0.10279999673366547 
0.0 100.0 0.0 100.0 1:7.550368309020996 2:1.0 3:-1.3640999794006348 4:0.26969999074935913 5:0.3684999942779541 6:-0.3675999939441681 7:0.3163999915122986 8:-0.28290000557899475 9:0.25679999589920044 10:-0.257099986076355 11:0.23989999294281006 12:-0.14319999516010284 
