svm_type c_svc
kernel_type rbf
gamma 0.5
nr_class 5
total_sv 11211
rho -13.531481617024777 -7.74250498418892 10.80005016534963 -18.24842958332029 6.793336941245545 5.334412667717047 -1.1103901076125726 6.41439660428421 -2.8944169660117813 -6.984229212954091
label 3 1 2 4 5
probA -2.249004537406048 -2.5053737527407063 -1.7464095145418337 -1.8320021005268035 -1.6428114604421409 -3.9500468699516254 -2.6061267822394374 -3.467159425897664 -2.0945122154648796 -3.336094778409979
probB -0.04227515180754404 -0.2697089332465192 0.06117864585207278 -0.22790044228283224 0.07038880743638921 -0.013367125374120178 -0.27919782976323504 -0.3148230355683393 -0.3894352078789604 0.0703156369865767
nr_sv 4461 792 1409 2790 1759
SV
0.0 0.0 11.799536410859362 0.0 1:-0.10647673904895782 2:0.8227847814559937 3:0.49667271971702576 4:0.10877782106399536 5:0.6235860586166382 6:0.38285714387893677 7:0.29745763540267944 8:0.25670498609542847 9:0.08418741077184677 10:0.25294119119644165 11:-0.2246376872062683 
0.0 100.0 0.0 100.0 1:7.405110836029053 2:0.9876000285148621 3:0.9420999884605408 4:0.8144999742507935 5:0.6051999926567078 6:0.4178999960422516 7:0.13940000534057617 8:-0.18520000576972961 9:-0.49540001153945923 10:-0.7472000122070312 11:-0.9405999779701233 
0.0 100.0 0.0 100.0 1:7.637336730957031 2:0.9983999729156494 3:0.9343000054359436 4:0.7982000112533569 5:0.5914999842643738 6:0.38510000705718994 7:0.1137000024318695 8:-0.16249999403953552 9:-0.5022000074386597 10:-0.739300012588501 11:-0.9330000281333923 
0.0 100.0 0.0 100.0 1:7.477999210357666 2:0.9916999936103821 3:0.942799985408783 4:0.8104000091552734 5:0.5928999781608582 6:0.42969998717308044 7:0.1177000030875206 8:-0.19259999692440033 9:-0.4966000020503998 10:-0.745199978351593 11:-0.9422000050544739 
0.0 100.0 0.0 0.0 1:7.571511268615723 2:0.992900013923645 3:0.9429000020027161 4:0.8055999875068665 5:0.6273999810218811 6:0.3772999942302704 7:0.06689999997615814 8:-0.25380000472068787 9:-0.5612000226974487 10:-0.7918999791145325 11:-0.9549000263214111 
0.0 0.0 100.0 0.0 1:6.430810928344727 2:0.9936000108718872 3:0.9620000123977661 4:0.8468999862670898 5:0.6353999972343445 6:0.551800012588501 7:0.22220000624656677 8:-0.09960000216960907 9:-0.44929999113082886 10:-0.7305999994277954 11:-0.932200014591217 
0.0 0.0 0.0 100.0 1:6.976190567016602 2:0.9923999905586243 3:0.9366000294685364 4:0.8418999910354614 5:0.6132000088691711 6:0.43880000710487366 7:0.20630000531673431 8:-0.11129999905824661 9:-0.44940000772476196 10:-0.7146999835968018 11:-0.9315999746322632 
0.0 0.0 0.0 100.0 1:7.216152667999268 2:0.9876000285148621 3:0.927299976348877 4:0.7893999814987183 5:0.6049000024795532 6:0.4320000112056732 7:0.1412999927997589 8:-0.13740000128746033 9:-0.45320001244544983 10:-0.7114999890327454 11:-0.9348999857902527 
0.0 0.0 100.0 0.0 1:6.290835857391357 2:0.9965000152587891 3:0.9545999765396118 4:0.8382999897003174 5:0.6886000037193298 6:0.545199990272522 7:0.20819999277591705 8:-0.1388999968767166 9:-0.4586000144481659 10:-0.7486000061035156 11:-0.9333999752998352 
0.0 0.0 100.0 0.0 1:6.175882816314697 2:0.9958999752998352 3:0.9523000121116638 4:0.8345000147819519 5:0.6915000081062317 6:0.5498999953269958 7:0.19339999556541443 8:-0.14730000495910645 9:-0.47029998898506165 10:-0.7444999814033508 11:-0.9383999705314636 
0.0 0.0 100.0 0.0 1:6.028519153594971 2:0.9947999715805054 3:0.9520999789237976 4:0.83160001039505 5:0.6991000175476074 6:0.5489000082015991 7:0.1745000034570694 8:-0.1582999974489212 9:-0.4510999917984009 10:-0.7477999925613403 11:-0.9322999715805054 
0.0 91.31279876710357 0.0 0.0 1:7.117918968200684 2:0.9919999837875366 3:0.9211999773979187 4:0.7649000287055969 5:0.6722999811172485 6:0.48730000853538513 7:0.12800000607967377 8:-0.18070000410079956 9:-0.5065000057220459 10:-0.7670000195503235 11:-0.9427000284194946 
0.0 100.0 0.0 0.0 1:7.8900885581970215 2:0.9934999942779541 3:0.9282000064849854 4:0.7688999772071838 5:0.6121000051498413 6:0.4440999925136566 7:0.06759999692440033 8:-0.24269999563694 9:-0.5504000186920166 10:-0.786899983882904 11:-0.9398999810218811 
0.0 100.0 0.0 0.0 1:7.516290187835693 2:0.9904000163078308 3:0.9347000122070312 4:0.7675999999046326 5:0.6220999956130981 6:0.4381999969482422 7:0.07410000264644623 8:-0.23260000348091125 9:-0.5454000234603882 10:-0.7781999707221985 11:-0.9437999725341797 
0.0 100.0 0.0 0.0 1:7.643216133117676 2:0.9965000152587891 3:0.9348000288009644 4:0.7646999955177307 5:0.6446999907493591 6:0.4269999861717224 7:0.10029999911785126 8:-0.24379999935626984 9:-0.5353000164031982 10:-0.7870000004768372 11:-0.9388999938964844 
100.0 100.0 0.0 100.0 1:7.7617692947387695 2:0.995199978351593 3:0.9282000064849854 4:0.7809000015258789 5:0.5927000045776367 6:0.3824000060558319 7:0.1039000004529953 8:-0.20679999887943268 9:-0.5160999894142151 10:-0.7741000056266785 11:-0.9383999705314636 
0.0 0.0 100.0 0.0 1:6.263784408569336 2:0.9959999918937683 3:0.9488000273704529 4:0.8356999754905701 5:0.6740999817848206 6:0.5227000117301941 7:0.14219999313354492 8:-0.19629999995231628 9:-0.5067999958992004 10:-0.7688999772071838 11:-0.9415000081062317 
0.0 0.0 100.0 0.0 1:6.2152791023254395 2:0.9948999881744385 3:0.9509000182151794 4:0.8464000225067139 5:0.7260000109672546 6:0.5317000150680542 7:0.22280000150203705 8:-0.12970000505447388 9:-0.45579999685287476 10:-0.741100013256073 11:-0.9416000247001648 
0.0 0.0 100.0 0.0 1:6.131932258605957 2:0.9944999814033508 3:0.9484000205993652 4:0.8278999924659729 5:0.6757000088691711 6:0.5533000230789185 7:0.2069000005722046 8:-0.13600000739097595 9:-0.45249998569488525 10:-0.7416999936103821 11:-0.9332000017166138 
0.0 0.0 100.0 0.0 1:6.388993740081787 2:0.9955000281333923 3:0.9535999894142151 4:0.8374000191688538 5:0.6801000237464905 6:0.5271000266075134 7:0.1818999946117401 8:-0.16329999268054962 9:-0.45890000462532043 10:-0.7404000163078308 11:-0.9387999773025513 
0.0 0.0 100.0 0.0 1:6.0872368812561035 2:0.9962000250816345 3:0.958899974822998 4:0.8513000011444092 5:0.7210000157356262 6:0.5425000190734863 7:0.22190000116825104 8:-0.12720000743865967 9:-0.45570001006126404 10:-0.7300999760627747 11:-0.9240999817848206 
0.0 0.0 100.0 0.0 1:6.262296199798584 2:0.9951000213623047 3:0.9528999924659729 4:0.8353999853134155 5:0.6707000136375427 6:0.5498999953269958 7:0.1800999939441681 8:-0.12759999930858612 9:-0.45509999990463257 10:-0.7322999835014343 11:-0.9308000206947327 
0.0 0.0 100.0 0.0 1:6.126194477081299 2:0.9955999851226807 3:0.9502999782562256 4:0.8359000086784363 5:0.6804999709129333 6:0.5386000275611877 7:0.19519999623298645 8:-0.15469999611377716 9:-0.44909998774528503 10:-0.7318000197410583 11:-0.9291999936103821 
0.0 0.0 100.0 0.0 1:6.070400238037109 2:0.9961000084877014 3:0.9541000127792358 4:0.8407999873161316 5:0.7019000053405762 6:0.5440000295639038 7:0.20229999721050262 8:-0.15199999511241913 9:-0.4535999894142151 10:-0.7300000190734863 11:-0.925000011920929 
0.0 0.0 100.0 0.0 1:6.1453375816345215 2:0.9961000084877014 3:0.9549000263214111 4:0.8439000248908997 5:0.6804999709129333 6:0.5633000135421753 7:0.18610000610351562 8:-0.17190000414848328 9:-0.477400004863739 10:-0.7601000070571899 11:-0.9398999810218811 
0.0 0.0 100.0 0.0 1:5.950074672698975 2:0.9958999752998352 3:0.960099995136261 4:0.8554999828338623 5:0.6980999708175659 6:0.5357999801635742 7:0.1987999975681305 8:-0.17730000615119934 9:-0.4894999861717224 10:-0.7584999799728394 11:-0.9476000070571899 
0.0 0.0 100.0 0.0 1:6.386887550354004 2:0.9968000054359436 3:0.9602000117301941 4:0.8303999900817871 5:0.6600000262260437 6:0.5605999827384949 7:0.20000000298023224 8:-0.1347000002861023 9:-0.45559999346733093 10:-0.739300012588501 11:-0.935699999332428 
0.0 0.0 100.0 0.0 1:6.194084167480469 2:0.9961000084877014 3:0.9570000171661377 4:0.8327999711036682 5:0.6746000051498413 6:0.5577999949455261 7:0.17919999361038208 8:-0.1671999990940094 9:-0.4715000092983246 10:-0.7498999834060669 11:-0.9430999755859375 
0.0 0.0 100.0 0.0 1:6.16118049621582 2:0.9965999722480774 3:0.9509000182151794 4:0.8467000126838684 5:0.6757000088691711 6:0.5335000157356262 7:0.2004999965429306 8:-0.15970000624656677 9:-0.47519999742507935 10:-0.7531999945640564 11:-0.9437000155448914 
0.0 0.0 100.0 0.0 1:6.167929172515869 2:0.9944000244140625 3:0.9491999745368958 4:0.8424000144004822 5:0.6740000247955322 6:0.5562000274658203 7:0.16930000483989716 8:-0.15279999375343323 9:-0.47909998893737793 10:-0.7512999773025513 11:-0.9424999952316284 
0.0 0.0 100.0 0.0 1:6.2643351554870605 2:0.9973999857902527 3:0.9692999720573425 4:0.861299991607666 5:0.7414000034332275 6:0.5029000043869019 7:0.17149999737739563 8:-0.16120000183582306 9:-0.4749000072479248 10:-0.7448999881744385 11:-0.9390000104904175 
0.0 0.0 100.0 0.0 1:6.424618244171143 2:0.9937999844551086 3:0.9584000110626221 4:0.8549000024795532 5:0.7039999961853027 6:0.5055000185966492 7:0.1712000072002411 8:-0.1679999977350235 9:-0.4959000051021576 10:-0.7529000043869019 11:-0.942300021648407 
0.0 0.0 100.0 0.0 1:6.505408763885498 2:0.9968000054359436 3:0.9588000178337097 4:0.842199981212616 5:0.656499981880188 6:0.5376999974250793 7:0.19050000607967377 8:-0.16529999673366547 9:-0.4772999882698059 10:-0.7426999807357788 11:-0.946399986743927 
0.0 0.0 100.0 0.0 1:6.180689811706543 2:0.9965000152587891 3:0.9645000100135803 4:0.8420000076293945 5:0.6780999898910522 6:0.552299976348877 7:0.19120000302791595 8:-0.17339999973773956 9:-0.4839000105857849 10:-0.7562999725341797 11:-0.9419000148773193 
0.0 0.0 100.0 0.0 1:6.368525981903076 2:0.996999979019165 3:0.9584000110626221 4:0.8407999873161316 5:0.6922000050544739 6:0.4925999939441681 7:0.14079999923706055 8:-0.18379999697208405 9:-0.4991999864578247 10:-0.761900007724762 11:-0.9473999738693237 
0.0 0.0 100.0 0.0 1:6.547336101531982 2:0.9940999746322632 3:0.9545999765396118 4:0.8518000245094299 5:0.6901000142097473 6:0.5529999732971191 7:0.23569999635219574 8:-0.12210000306367874 9:-0.4262999892234802 10:-0.7383000254631042 11:-0.9370999932289124 
0.0 0.0 100.0 0.0 1:6.383210182189941 2:0.9950000047683716 3:0.9538999795913696 4:0.849399983882904 5:0.6662999987602234 6:0.5695000290870667 7:0.20659999549388885 8:-0.14880000054836273 9:-0.459199994802475 10:-0.7387999892234802 11:-0.9311000108718872 
0.0 0.0 100.0 0.0 1:6.313914775848389 2:0.9936000108718872 3:0.9531000256538391 4:0.840399980545044 5:0.6503999829292297 6:0.5618000030517578 7:0.2401999980211258 8:-0.10379999876022339 9:-0.42750000953674316 10:-0.7138000130653381 11:-0.9376000165939331 
0.0 0.0 0.0 68.28872984547897 1:6.567694187164307 2:0.9901000261306763 3:0.9391999840736389 4:0.8399999737739563 5:0.6270999908447266 6:0.483599990606308 7:0.2184000015258789 8:-0.09489999711513519 9:-0.4287000000476837 10:-0.704200029373169 11:-0.9334999918937683 
0.0 0.0 0.0 100.0 1:6.922244071960449 2:0.9873999953269958 3:0.9266999959945679 4:0.8148999810218811 5:0.6322000026702881 6:0.42489999532699585 7:0.18700000643730164 8:-0.11129999905824661 9:-0.44350001215934753 10:-0.7182000279426575 11:-0.9294000267982483 
0.0 0.0 0.0 100.0 1:7.301711082458496 2:0.9937000274658203 3:0.9293000102043152 4:0.7896999716758728 5:0.6040999889373779 6:0.42160001397132874 7:0.16750000417232513 8:-0.13670000433921814 9:-0.44020000100135803 10:-0.7049999833106995 11:-0.9296000003814697 
0.0 0.0 0.0 100.0 1:7.083290100097656 2:0.989300012588501 3:0.9222000241279602 4:0.8100000023841858 5:0.6158000230789185 6:0.4066999852657318 7:0.15569999814033508 8:-0.11720000207424164 9:-0.4620000123977661 10:-0.7181000113487244 11:-0.9380999803543091 
0.0 0.0 0.0 100.0 1:7.115581035614014 2:0.9900000095367432 3:0.9218000173568726 4:0.8087999820709229 5:0.6158999800682068 6:0.4043000042438507 7:0.1657000035047531 8:-0.1200999990105629 9:-0.4449000060558319 10:-0.7208999991416931 11:-0.9391999840736389 
0.0 0.0 0.0 100.0 1:7.160381317138672 2:0.9944000244140625 3:0.9247999787330627 4:0.8155999779701233 5:0.616100013256073 6:0.4108000099658966 7:0.14949999749660492 8:-0.14079999923706055 9:-0.46209999918937683 10:-0.734000027179718 11:-0.9304999709129333 
0.0 100.0 0.0 100.0 1:7.432055950164795 2:0.9908000230789185 3:0.9180999994277954 4:0.79339998960495 5:0.5917999744415283 6:0.4074000120162964 7:0.16920000314712524 8:-0.13619999587535858 9:-0.4803999960422516 10:-0.7235000133514404 11:-0.9386000037193298 
100.0 100.0 0.0 100.0 1:7.403701305389404 2:0.9912999868392944 3:0.9200000166893005 4:0.8026000261306763 5:0.5989000201225281 6:0.39559999108314514 7:0.1477999985218048 8:-0.15530000627040863 9:-0.48170000314712524 10:-0.7458000183105469 11:-0.9434999823570251 
0.0 100.0 0.0 100.0 1:7.469914436340332 2:0.9926000237464905 3:0.9233999848365784 4:0.8151999711990356 5:0.5929999947547913 6:0.39989998936653137 7:0.1581999957561493 8:-0.16519999504089355 9:-0.4885999858379364 10:-0.7371000051498413 11:-0.9355000257492065 
0.0 100.0 0.0 100.0 1:7.385617733001709 2:0.9907000064849854 3:0.9301999807357788 4:0.7980999946594238 5:0.6010000109672546 6:0.40779998898506165 7:0.1648000031709671 8:-0.15549999475479126 9:-0.49410000443458557 10:-0.7373999953269958 11:-0.9381999969482422 
0.0 0.0 0.0 100.0 1:7.107476711273193 2:0.989799976348877 3:0.9334999918937683 4:0.800599992275238 5:0.5914999842643738 6:0.4699999988079071 7:0.1607999950647354 8:-0.1363999992609024 9:-0.45339998602867126 10:-0.7199000120162964 11:-0.9383999705314636 
0.0 100.0 0.0 100.0 1:7.389601707458496 2:0.992900013923645 3:0.9369000196456909 4:0.8109999895095825 5:0.5917999744415283 6:0.39250001311302185 7:0.14429999887943268 8:-0.15279999375343323 9:-0.47859999537467957 10:-0.722599983215332 11:-0.9276999831199646 
100.0 100.0 0.0 100.0 1:7.568696975708008 2:0.989300012588501 3:0.9222000241279602 4:0.7982000112533569 5:0.5985999703407288 6:0.36550000309944153 7:0.1136000007390976 8:-0.16189999878406525 9:-0.49779999256134033 10:-0.7505999803543091 11:-0.9398000240325928 
0.0 100.0 0.0 100.0 1:7.592344760894775 2:0.9900000095367432 3:0.9314000010490417 4:0.7950000166893005 5:0.6162999868392944 6:0.3743000030517578 7:0.12039999663829803 8:-0.18930000066757202 9:-0.5095000267028809 10:-0.7519999742507935 11:-0.9401000142097473 
100.0 100.0 0.0 100.0 1:7.394094467163086 2:0.991599977016449 3:0.9186999797821045 4:0.8026000261306763 5:0.6055999994277954 6:0.38119998574256897 7:0.13330000638961792 8:-0.15029999613761902 9:-0.48750001192092896 10:-0.7317000031471252 11:-0.9447000026702881 
100.0 100.0 0.0 100.0 1:7.56600284576416 2:0.9926000237464905 3:0.9230999946594238 4:0.8044999837875366 5:0.593999981880188 6:0.38519999384880066 7:0.12729999423027039 8:-0.16179999709129333 9:-0.47589999437332153 10:-0.7328000068664551 11:-0.9372000098228455 
0.0 100.0 0.0 100.0 1:7.357752323150635 2:0.9936000108718872 3:0.9361000061035156 4:0.8163999915122986 5:0.6075999736785889 6:0.41620001196861267 7:0.13860000669956207 8:-0.15049999952316284 9:-0.5013999938964844 10:-0.7480999827384949 11:-0.9426000118255615 
0.0 100.0 0.0 100.0 1:7.487313270568848 2:0.9918000102043152 3:0.9329000115394592 4:0.8253999948501587 5:0.5792999863624573 6:0.40149998664855957 7:0.1005999967455864 8:-0.18150000274181366 9:-0.49399998784065247 10:-0.7443000078201294 11:-0.9323999881744385 
100.0 100.0 0.0 100.0 1:7.64980936050415 2:0.9904000163078308 3:0.9235000014305115 4:0.7976999878883362 5:0.5803999900817871 6:0.3700000047683716 7:0.12110000103712082 8:-0.1850000023841858 9:-0.4966999888420105 10:-0.7591999769210815 11:-0.9330999851226807 
0.0 100.0 0.0 100.0 1:7.473997592926025 2:0.9939000010490417 3:0.9383999705314636 4:0.7753999829292297 5:0.5950999855995178 6:0.43380001187324524 7:0.1274999976158142 8:-0.17440000176429749 9:-0.4925999939441681 10:-0.7609999775886536 11:-0.9391000270843506 
0.0 100.0 0.0 0.0 1:7.263896942138672 2:0.989799976348877 3:0.9329000115394592 4:0.767799973487854 5:0.6200000047683716 6:0.4487999975681305 7:0.07649999856948853 8:-0.21289999783039093 9:-0.5486999750137329 10:-0.7886999845504761 11:-0.9460999965667725 
0.0 100.0 0.0 0.0 1:6.7436137199401855 2:0.9916999936103821 3:0.9351000189781189 4:0.7997999787330627 5:0.6556000113487244 6:0.5170999765396118 7:0.13740000128746033 8:-0.17190000414848328 9:-0.49900001287460327 10:-0.7753000259399414 11:-0.9441999793052673 
0.0 0.0 100.0 0.0 1:6.595896244049072 2:0.9962999820709229 3:0.957099974155426 4:0.8282999992370605 5:0.6796000003814697 6:0.5343000292778015 7:0.179299995303154 8:-0.17419999837875366 9:-0.48649999499320984 10:-0.7703999876976013 11:-0.9376999735832214 
0.0 0.0 100.0 0.0 1:6.372395038604736 2:0.9961000084877014 3:0.9545000195503235 4:0.8181999921798706 5:0.6615999937057495 6:0.5540000200271606 7:0.17900000512599945 8:-0.15029999613761902 9:-0.46939998865127563 10:-0.7515000104904175 11:-0.9399999976158142 
0.0 0.0 100.0 0.0 1:6.453282356262207 2:0.994700014591217 3:0.9552000164985657 4:0.8551999926567078 5:0.7044000029563904 6:0.5390999913215637 7:0.19470000267028809 8:-0.148499995470047 9:-0.48100000619888306 10:-0.7519000172615051 11:-0.9433000087738037 
0.0 0.0 100.0 0.0 1:6.35808801651001 2:0.9958999752998352 3:0.9584000110626221 4:0.8392000198364258 5:0.680400013923645 6:0.5425999760627747 7:0.15330000221729279 8:-0.1599999964237213 9:-0.4837000072002411 10:-0.7578999996185303 11:-0.9429000020027161 
0.0 0.0 100.0 0.0 1:6.486652851104736 2:0.996399998664856 3:0.9557999968528748 4:0.838100016117096 5:0.689300000667572 6:0.5329999923706055 7:0.1843000054359436 8:-0.16670000553131104 9:-0.4903999865055084 10:-0.7609000205993652 11:-0.9380999803543091 
0.0 0.0 100.0 0.0 1:6.5844855308532715 2:0.996999979019165 3:0.9634000062942505 4:0.8442999720573425 5:0.7062000036239624 6:0.48559999465942383 7:0.17589999735355377 8:-0.16050000488758087 9:-0.4575999975204468 10:-0.7416999936103821 11:-0.9380000233650208 
0.0 0.0 0.0 100.0 1:7.196375846862793 2:0.9894999861717224 3:0.9455000162124634 4:0.8119999766349792 5:0.600600004196167 6:0.43700000643730164 7:0.13130000233650208 8:-0.14000000059604645 9:-0.4700999855995178 10:-0.7214999794960022 11:-0.9423999786376953 
0.0 0.0 0.0 100.0 1:7.264132022857666 2:0.9907000064849854 3:0.9398999810218811 4:0.8248999714851379 5:0.6133000254631042 6:0.41040000319480896 7:0.10840000212192535 8:-0.15479999780654907 9:-0.48420000076293945 10:-0.7235999703407288 11:-0.9412999749183655 
0.0 100.0 0.0 100.0 1:7.165239334106445 2:0.9883999824523926 3:0.9363999962806702 4:0.8093000054359436 5:0.5975000262260437 6:0.4075999855995178 7:0.12060000002384186 8:-0.16110000014305115 9:-0.4788999855518341 10:-0.7617999911308289 11:-0.9337999820709229 
0.0 73.08530205810305 0.0 0.0 1:7.35426664352417 2:0.9937999844551086 3:0.9348000288009644 4:0.7821000218391418 5:0.5929999947547913 6:0.4429999887943268 7:0.06870000064373016 8:-0.16279999911785126 9:-0.43160000443458557 10:-0.7692999839782715 11:-0.9193999767303467 
0.0 0.0 100.0 0.0 1:6.3902106285095215 2:0.995199978351593 3:0.9498000144958496 4:0.8353999853134155 5:0.6603999733924866 6:0.5260000228881836 7:0.17020000517368317 8:-0.19689999520778656 9:-0.4851999878883362 10:-0.7656000256538391 11:-0.949400007724762 
0.0 0.0 100.0 0.0 1:6.41309928894043 2:0.9957000017166138 3:0.9614999890327454 4:0.8540999889373779 5:0.6830000281333923 6:0.5098000168800354 7:0.15479999780654907 8:-0.18170000612735748 9:-0.5101000070571899 10:-0.7705000042915344 11:-0.9462000131607056 
0.0 0.0 100.0 0.0 1:6.590550899505615 2:0.9948999881744385 3:0.9539999961853027 4:0.8353000283241272 5:0.6571999788284302 6:0.5289000272750854 7:0.16859999299049377 8:-0.1881999969482422 9:-0.48510000109672546 10:-0.7634999752044678 11:-0.9552000164985657 
0.0 0.0 100.0 0.0 1:6.396468639373779 2:0.9954000115394592 3:0.9559999704360962 4:0.8361999988555908 5:0.6686999797821045 6:0.5389999747276306 7:0.1429000049829483 8:-0.1873999983072281 9:-0.5058000087738037 10:-0.7580999732017517 11:-0.942799985408783 
0.0 0.0 100.0 0.0 1:6.607237339019775 2:0.994700014591217 3:0.9573000073432922 4:0.852400004863739 5:0.6607000231742859 6:0.5002999901771545 7:0.12549999356269836 8:-0.19589999318122864 9:-0.5217999815940857 10:-0.7675999999046326 11:-0.9451000094413757 
0.0 0.0 100.0 0.0 1:6.491521835327148 2:0.9973000288009644 3:0.9517999887466431 4:0.8452000021934509 5:0.6875 6:0.5325000286102295 7:0.1527000069618225 8:-0.1956000030040741 9:-0.5037999749183655 10:-0.7760000228881836 11:-0.9535999894142151 
0.0 0.0 100.0 0.0 1:6.616542816162109 2:0.9955000281333923 3:0.9545999765396118 4:0.8427000045776367 5:0.6581000089645386 6:0.5188999772071838 7:0.1451999992132187 8:-0.19760000705718994 9:-0.5138999819755554 10:-0.7738000154495239 11:-0.9451000094413757 
0.0 0.0 100.0 0.0 1:6.498419284820557 2:0.9944999814033508 3:0.9559000134468079 4:0.8353000283241272 5:0.6664999723434448 6:0.5218999981880188 7:0.15389999747276306 8:-0.18250000476837158 9:-0.5008999705314636 10:-0.7689999938011169 11:-0.9524999856948853 
0.0 0.0 100.0 0.0 1:6.62483024597168 2:0.9965000152587891 3:0.955299973487854 4:0.8295999765396118 5:0.6664999723434448 6:0.5515999794006348 7:0.17759999632835388 8:-0.18230000138282776 9:-0.48399999737739563 10:-0.7645000219345093 11:-0.949999988079071 
0.0 0.0 100.0 0.0 1:6.424069404602051 2:0.9955999851226807 3:0.9567999839782715 4:0.839900016784668 5:0.6790000200271606 6:0.5026999711990356 7:0.11919999867677689 8:-0.19900000095367432 9:-0.5175999999046326 10:-0.7720999717712402 11:-0.9451000094413757 
0.0 0.0 100.0 0.0 1:6.297902584075928 2:0.9958999752998352 3:0.9599000215530396 4:0.8381999731063843 5:0.6825000047683716 6:0.5242000222206116 7:0.14659999310970306 8:-0.18369999527931213 9:-0.5070000290870667 10:-0.775600016117096 11:-0.9472000002861023 
0.0 0.0 100.0 0.0 1:6.295187950134277 2:0.9961000084877014 3:0.958299994468689 4:0.845300018787384 5:0.6614000201225281 6:0.5192999839782715 7:0.12479999661445618 8:-0.19200000166893005 9:-0.5238000154495239 10:-0.7781999707221985 11:-0.9459999799728394 
0.0 0.0 100.0 0.0 1:6.232609748840332 2:0.9965999722480774 3:0.9564999938011169 4:0.84170001745224 5:0.6568999886512756 6:0.5358999967575073 7:0.1657000035047531 8:-0.20360000431537628 9:-0.5083000063896179 10:-0.7728999853134155 11:-0.9413999915122986 
0.0 100.0 0.0 0.0 1:7.786525249481201 2:0.9944000244140625 3:0.9329000115394592 4:0.8047999739646912 5:0.589900016784668 6:0.41819998621940613 7:0.08049999922513962 8:-0.23899999260902405 9:-0.5199000239372253 10:-0.7875999808311462 11:-0.9416999816894531 
0.0 0.0 100.0 0.0 1:7.289313793182373 2:0.9965999722480774 3:0.958899974822998 4:0.8253999948501587 5:0.6657000184059143 6:0.34470000863075256 7:0.01489999983459711 8:-0.3018999993801117 9:-0.5831999778747559 10:-0.8093000054359436 11:-0.9587000012397766 
0.0 0.0 100.0 0.0 1:6.583377361297607 2:0.9973999857902527 3:0.9671000242233276 4:0.83160001039505 5:0.7171000242233276 6:0.5157999992370605 7:0.17159999907016754 8:-0.14730000495910645 9:-0.49939998984336853 10:-0.743399977684021 11:-0.9621000289916992 
0.0 0.0 100.0 0.0 1:6.7190165519714355 2:0.9965000152587891 3:0.9681000113487244 4:0.838699996471405 5:0.7045999765396118 6:0.49729999899864197 7:0.14980000257492065 8:-0.1817999929189682 9:-0.4966000020503998 10:-0.7523999810218811 11:-0.9563999772071838 
0.0 0.0 100.0 0.0 1:6.542130470275879 2:0.9959999918937683 3:0.9648000001907349 4:0.8331000208854675 5:0.7117999792098999 6:0.4837999939918518 7:0.1193000003695488 8:-0.1891999989748001 9:-0.508899986743927 10:-0.7490000128746033 11:-0.9681000113487244 
0.0 0.0 100.0 0.0 1:6.482805252075195 2:0.9975000023841858 3:0.9621999859809875 4:0.8486999869346619 5:0.7200999855995178 6:0.49639999866485596 7:0.12290000170469284 8:-0.18199999630451202 9:-0.515999972820282 10:-0.758400022983551 11:-0.9617000222206116 
0.0 0.0 100.0 0.0 1:6.324393272399902 2:0.9968000054359436 3:0.9659000039100647 4:0.847100019454956 5:0.7332000136375427 6:0.4643000066280365 7:0.10660000145435333 8:-0.19740000367164612 9:-0.5192999839782715 10:-0.7573999762535095 11:-0.9659000039100647 
0.0 0.0 100.0 0.0 1:7.670515060424805 2:0.9958999752998352 3:0.9624000191688538 4:0.8127999901771545 5:0.642300009727478 6:0.28839999437332153 7:-0.03739999979734421 8:-0.3109000027179718 9:-0.5874000191688538 10:-0.8309000134468079 11:-0.9571999907493591 
0.0 0.0 100.0 0.0 1:7.22605037689209 2:0.9947999715805054 3:0.9416999816894531 4:0.8284000158309937 5:0.6384000182151794 6:0.3707999885082245 7:0.005799999926239252 8:-0.30079999566078186 9:-0.5726000070571899 10:-0.8145999908447266 11:-0.9490000009536743 
0.0 0.0 0.0 100.0 1:6.999435901641846 2:0.9933000206947327 3:0.9467999935150146 4:0.8471999764442444 5:0.6402999758720398 6:0.4074999988079071 7:0.15600000321865082 8:-0.17229999601840973 9:-0.4903999865055084 10:-0.7408999800682068 11:-0.9678999781608582 
0.0 100.0 0.0 100.0 1:6.946525573730469 2:0.9977999925613403 3:0.9451000094413757 4:0.8356000185012817 5:0.6079999804496765 6:0.3806000053882599 7:0.07509999722242355 8:-0.2542000114917755 9:-0.5537999868392944 10:-0.7935000061988831 11:-0.9527999758720398 
0.0 0.0 0.0 100.0 1:7.222400188446045 2:0.9937999844551086 3:0.9488999843597412 4:0.8335999846458435 5:0.6409000158309937 6:0.4198000133037567 7:0.11219999939203262 8:-0.19499999284744263 9:-0.5159000158309937 10:-0.7498000264167786 11:-0.9668999910354614 
0.0 0.0 0.0 100.0 1:7.451061725616455 2:0.9973999857902527 3:0.963100016117096 4:0.8422999978065491 5:0.661300003528595 6:0.3846000134944916 7:0.08659999817609787 8:-0.21220000088214874 9:-0.5156999826431274 10:-0.7631000280380249 11:-0.9733999967575073 
0.0 0.0 100.0 0.0 1:6.957505226135254 2:0.9961000084877014 3:0.9634000062942505 4:0.8385999798774719 5:0.6751999855041504 6:0.4542999863624573 7:0.10239999741315842 8:-0.22450000047683716 9:-0.5376999974250793 10:-0.7763000130653381 11:-0.9559999704360962 
0.0 0.0 100.0 0.0 1:6.668167591094971 2:0.9973999857902527 3:0.9657999873161316 4:0.8500000238418579 5:0.7080000042915344 6:0.4763999879360199 7:0.10189999639987946 8:-0.19900000095367432 9:-0.5051000118255615 10:-0.7545999884605408 11:-0.9477999806404114 
0.0 0.0 100.0 0.0 1:6.620508670806885 2:0.996999979019165 3:0.9588000178337097 4:0.8582000136375427 5:0.7120000123977661 6:0.5097000002861023 7:0.11240000277757645 8:-0.18240000307559967 9:-0.5098000168800354 10:-0.7522000074386597 11:-0.9692999720573425 
0.0 0.0 100.0 0.0 1:6.539923667907715 2:0.9962000250816345 3:0.9575999975204468 4:0.8457000255584717 5:0.7074000239372253 6:0.5303999781608582 7:0.1111999973654747 8:-0.1860000044107437 9:-0.5019000172615051 10:-0.7577000260353088 11:-0.965499997138977 
0.0 0.0 100.0 0.0 1:6.467376708984375 2:0.9972000122070312 3:0.9704999923706055 4:0.8695999979972839 5:0.7272999882698059 6:0.46560001373291016 7:0.10700000077486038 8:-0.19460000097751617 9:-0.49869999289512634 10:-0.7469000220298767 11:-0.9692999720573425 
0.0 0.0 100.0 0.0 1:6.377893447875977 2:0.9972000122070312 3:0.9624999761581421 4:0.8610000014305115 5:0.7279000282287598 6:0.4950999915599823 7:0.09989999979734421 8:-0.19460000097751617 9:-0.5049999952316284 10:-0.7558000087738037 11:-0.9628999829292297 
0.0 0.0 100.0 0.0 1:6.60177755355835 2:0.9979000091552734 3:0.9649999737739563 4:0.8263000249862671 5:0.6922000050544739 6:0.4950000047683716 7:0.12849999964237213 8:-0.19169999659061432 9:-0.522599995136261 10:-0.7633000016212463 11:-0.9634000062942505 
0.0 0.0 100.0 0.0 1:6.470158100128174 2:0.9972000122070312 3:0.9617000222206116 4:0.8310999870300293 5:0.6852999925613403 6:0.4731999933719635 7:0.1023000031709671 8:-0.19740000367164612 9:-0.5188000202178955 10:-0.7651000022888184 11:-0.9610000252723694 
0.0 0.0 100.0 0.0 1:6.789889335632324 2:0.9959999918937683 3:0.9610999822616577 4:0.8187000155448914 5:0.7261000275611877 6:0.41839998960494995 7:0.05530000105500221 8:-0.2712000012397766 9:-0.5519000291824341 10:-0.8059999942779541 11:-0.9559999704360962 
0.0 0.0 100.0 0.0 1:6.768510818481445 2:0.9973999857902527 3:0.9581000208854675 4:0.8507000207901001 5:0.7055000066757202 6:0.4731999933719635 7:0.10779999941587448 8:-0.19930000603199005 9:-0.5206999778747559 10:-0.7645000219345093 11:-0.9577000141143799 
0.0 0.0 100.0 0.0 1:6.725610733032227 2:0.9958999752998352 3:0.9585000276565552 4:0.847000002861023 5:0.7046999931335449 6:0.49309998750686646 7:0.11069999635219574 8:-0.18529999256134033 9:-0.5202999711036682 10:-0.7766000032424927 11:-0.955299973487854 
0.0 0.0 0.0 100.0 1:7.053900241851807 2:0.9968000054359436 3:0.9478999972343445 4:0.8263000249862671 5:0.6837999820709229 6:0.36320000886917114 7:0.07699999958276749 8:-0.26190000772476196 9:-0.550599992275238 10:-0.7932000160217285 11:-0.9487000107765198 
0.0 0.0 100.0 0.0 1:6.887198448181152 2:0.9980999827384949 3:0.9661999940872192 4:0.8549000024795532 5:0.7250000238418579 6:0.4867999851703644 7:0.1395999938249588 8:-0.16419999301433563 9:-0.4932999908924103 10:-0.7430999875068665 11:-0.96670001745224 
0.0 0.0 100.0 0.0 1:6.572521686553955 2:0.996999979019165 3:0.9538000226020813 4:0.8331000208854675 5:0.7087000012397766 6:0.49160000681877136 7:0.11620000004768372 8:-0.20319999754428864 9:-0.5271000266075134 10:-0.7702999711036682 11:-0.9567999839782715 
0.0 0.0 100.0 0.0 1:6.632185935974121 2:0.9975000023841858 3:0.9624000191688538 4:0.847000002861023 5:0.7093999981880188 6:0.4823000133037567 7:0.11800000071525574 8:-0.19740000367164612 9:-0.5029000043869019 10:-0.7501000165939331 11:-0.9524999856948853 
0.0 0.0 100.0 0.0 1:6.855254173278809 2:0.9965999722480774 3:0.9631999731063843 4:0.8533999919891357 5:0.7073000073432922 6:0.4862000048160553 7:0.11550000309944153 8:-0.2020999938249588 9:-0.5037000179290771 10:-0.7530999779701233 11:-0.9531000256538391 
0.0 0.0 0.0 100.0 1:7.456826210021973 2:0.9969000220298767 3:0.9442999958992004 4:0.8285999894142151 5:0.651199996471405 6:0.41290000081062317 7:0.13349999487400055 8:-0.15680000185966492 9:-0.490200012922287 10:-0.7354999780654907 11:-0.9624999761581421 
0.0 0.0 0.0 100.0 1:7.21592378616333 2:0.9939000010490417 3:0.9469000101089478 4:0.830299973487854 5:0.6092000007629395 6:0.4357999861240387 7:0.12620000541210175 8:-0.15309999883174896 9:-0.5044999718666077 10:-0.7398999929428101 11:-0.9629999995231628 
0.0 0.0 0.0 100.0 1:7.09853458404541 2:0.9902999997138977 3:0.9395999908447266 4:0.8385000228881836 5:0.6057000160217285 6:0.42320001125335693 7:0.15780000388622284 8:-0.1453000009059906 9:-0.4729999899864197 10:-0.7383999824523926 11:-0.9397000074386597 
0.0 100.0 0.0 100.0 1:7.443945407867432 2:0.9926999807357788 3:0.9476000070571899 4:0.8270999789237976 5:0.6162999868392944 6:0.3855000138282776 7:0.10740000009536743 8:-0.19059999287128448 9:-0.5253999829292297 10:-0.7477999925613403 11:-0.9487000107765198 
0.0 100.0 0.0 100.0 1:7.211460590362549 2:0.9894000291824341 3:0.9449999928474426 4:0.8442000150680542 5:0.5989000201225281 6:0.3865000009536743 7:0.10920000076293945 8:-0.17730000615119934 9:-0.5120000243186951 10:-0.7458999752998352 11:-0.9587000012397766 
0.0 0.0 0.0 100.0 1:7.230469703674316 2:0.9955000281333923 3:0.9478999972343445 4:0.8287000060081482 5:0.6258999705314636 6:0.4250999987125397 7:0.16189999878406525 8:-0.1550000011920929 9:-0.48240000009536743 10:-0.7317000031471252 11:-0.9509000182151794 
0.0 0.0 0.0 100.0 1:6.9412946701049805 2:0.9908999800682068 3:0.9478999972343445 4:0.832099974155426 5:0.6492000222206116 6:0.4154999852180481 7:0.13410000503063202 8:-0.18039999902248383 9:-0.4950000047683716 10:-0.7538999915122986 11:-0.9390000104904175 
0.0 100.0 0.0 100.0 1:7.186575889587402 2:0.9896000027656555 3:0.9427000284194946 4:0.8295999765396118 5:0.6309999823570251 6:0.3896999955177307 7:0.11649999767541885 8:-0.1932000070810318 9:-0.5116999745368958 10:-0.7599999904632568 11:-0.9552000164985657 
0.0 100.0 0.0 100.0 1:7.48860502243042 2:0.9932000041007996 3:0.9484000205993652 4:0.8467000126838684 5:0.5978000164031982 6:0.35690000653266907 7:0.09780000150203705 8:-0.2061000019311905 9:-0.5260999798774719 10:-0.758899986743927 11:-0.9550999999046326 
0.0 0.0 0.0 100.0 1:7.297501564025879 2:0.9914000034332275 3:0.9484000205993652 4:0.8420000076293945 5:0.6238999962806702 6:0.3935000002384186 7:0.11050000041723251 8:-0.1949000060558319 9:-0.4894999861717224 10:-0.7330999970436096 11:-0.957099974155426 
0.0 0.0 0.0 100.0 1:6.941810607910156 2:0.9908999800682068 3:0.9501000046730042 4:0.8378000259399414 5:0.6514999866485596 6:0.41749998927116394 7:0.11990000307559967 8:-0.1891999989748001 9:-0.49230000376701355 10:-0.7531999945640564 11:-0.9366000294685364 
0.0 0.0 100.0 0.0 1:6.448862552642822 2:0.9955000281333923 3:0.9617000222206116 4:0.8241000175476074 5:0.7146999835968018 6:0.5425000190734863 7:0.18529999256134033 8:-0.14509999752044678 9:-0.4823000133037567 10:-0.7355999946594238 11:-0.9448000192642212 
0.0 0.0 100.0 0.0 1:6.3505730628967285 2:0.9958999752998352 3:0.9569000005722046 4:0.8327999711036682 5:0.6899999976158142 6:0.5163000226020813 7:0.1080000028014183 8:-0.19850000739097595 9:-0.5249000191688538 10:-0.772599995136261 11:-0.9474999904632568 
0.0 0.0 100.0 0.0 1:6.409460067749023 2:0.9965999722480774 3:0.9553999900817871 4:0.8187000155448914 5:0.6840000152587891 6:0.5497000217437744 7:0.15129999816417694 8:-0.18400000035762787 9:-0.5030999779701233 10:-0.760699987411499 11:-0.942300021648407 
0.0 0.0 100.0 0.0 1:7.379876136779785 2:0.9973999857902527 3:0.9699000120162964 4:0.8395000100135803 5:0.6714000105857849 6:0.37779998779296875 7:0.07249999791383743 8:-0.2484000027179718 9:-0.5414999723434448 10:-0.7865999937057495 11:-0.9610999822616577 
0.0 0.0 100.0 0.0 1:7.137001991271973 2:0.9959999918937683 3:0.9574000239372253 4:0.7935000061988831 5:0.6866000294685364 6:0.47360000014305115 7:0.027499999850988388 8:-0.24770000576972961 9:-0.5504999756813049 10:-0.7795000076293945 11:-0.9545000195503235 
0.0 0.0 0.0 100.0 1:6.934880256652832 2:0.991100013256073 3:0.9430999755859375 4:0.8352000117301941 5:0.6330000162124634 6:0.42399999499320984 7:0.15569999814033508 8:-0.15230000019073486 9:-0.4837000072002411 10:-0.7498000264167786 11:-0.9621000289916992 
0.0 0.0 0.0 100.0 1:6.97666072845459 2:0.9941999912261963 3:0.9440000057220459 4:0.83160001039505 5:0.6377999782562256 6:0.4359999895095825 7:0.1868000030517578 8:-0.1657000035047531 9:-0.483599990606308 10:-0.7415000200271606 11:-0.9624000191688538 
0.0 0.0 0.0 100.0 1:7.229762077331543 2:0.992900013923645 3:0.945900022983551 4:0.8416000008583069 5:0.6101999878883362 6:0.39899998903274536 7:0.13510000705718994 8:-0.1817999929189682 9:-0.5024999976158142 10:-0.7299000024795532 11:-0.9526000022888184 
0.0 0.0 0.0 100.0 1:7.187916278839111 2:0.9901000261306763 3:0.9491000175476074 4:0.8421000242233276 5:0.6360999941825867 6:0.3750999867916107 7:0.10899999737739563 8:-0.18170000612735748 9:-0.5077999830245972 10:-0.7433000206947327 11:-0.9671000242233276 
0.0 100.0 0.0 100.0 1:7.361582279205322 2:0.991599977016449 3:0.9448000192642212 4:0.8391000032424927 5:0.621999979019165 6:0.37540000677108765 7:0.10499999672174454 8:-0.20679999887943268 9:-0.507099986076355 10:-0.7490000128746033 11:-0.9624000191688538 
0.0 100.0 0.0 100.0 1:7.284945011138916 2:0.9915000200271606 3:0.947700023651123 4:0.8342000246047974 5:0.6297000050544739 6:0.37869998812675476 7:0.1143999993801117 8:-0.20980000495910645 9:-0.4925999939441681 10:-0.7520999908447266 11:-0.9390000104904175 
0.0 0.0 0.0 100.0 1:7.143556118011475 2:0.9919999837875366 3:0.9495999813079834 4:0.8410999774932861 5:0.6262999773025513 6:0.391400009393692 7:0.12269999831914902 8:-0.19009999930858612 9:-0.5157999992370605 10:-0.7455000281333923 11:-0.9653000235557556 
0.0 0.0 0.0 100.0 1:7.298424243927002 2:0.9919999837875366 3:0.9532999992370605 4:0.8382999897003174 5:0.608299970626831 6:0.38749998807907104 7:0.12680000066757202 8:-0.18240000307559967 9:-0.4984999895095825 10:-0.736299991607666 11:-0.9641000032424927 
0.0 0.0 0.0 100.0 1:7.106117248535156 2:0.989799976348877 3:0.9492999911308289 4:0.8439000248908997 5:0.6194000244140625 6:0.39660000801086426 7:0.1200999990105629 8:-0.1835000067949295 9:-0.5171999931335449 10:-0.7524999976158142 11:-0.9639999866485596 
0.0 0.0 0.0 100.0 1:7.390722274780273 2:0.9926000237464905 3:0.9509999752044678 4:0.8406000137329102 5:0.6211000084877014 6:0.4099000096321106 7:0.11649999767541885 8:-0.1835000067949295 9:-0.5073000192642212 10:-0.7554000020027161 11:-0.9707000255584717 
0.0 0.0 0.0 100.0 1:7.040649890899658 2:0.9889000058174133 3:0.9508000016212463 4:0.8327000141143799 5:0.6424999833106995 6:0.3962000012397766 7:0.11599999666213989 8:-0.1876000016927719 9:-0.49790000915527344 10:-0.7447999715805054 11:-0.9413999915122986 
100.0 100.0 0.0 100.0 1:7.314176559448242 2:0.9861999750137329 3:0.9416999816894531 4:0.8458999991416931 5:0.6516000032424927 6:0.36309999227523804 7:0.10289999842643738 8:-0.21230000257492065 9:-0.5080000162124634 10:-0.7738000154495239 11:-0.9417999982833862 
0.0 0.0 0.0 100.0 1:7.293874740600586 2:0.986299991607666 3:0.9495999813079834 4:0.8402000069618225 5:0.6502000093460083 6:0.37689998745918274 7:0.05909999832510948 8:-0.22370000183582306 9:-0.5285999774932861 10:-0.7840999960899353 11:-0.9520000219345093 
0.0 0.0 0.0 100.0 1:7.153502941131592 2:0.9941999912261963 3:0.9412999749183655 4:0.8345999717712402 5:0.6557000279426575 6:0.41440001130104065 7:0.11620000004768372 8:-0.20190000534057617 9:-0.5070000290870667 10:-0.7767000198364258 11:-0.9391999840736389 
100.0 100.0 0.0 100.0 1:7.441788673400879 2:0.9916999936103821 3:0.9340000152587891 4:0.8343999981880188 5:0.6337000131607056 6:0.36629998683929443 7:0.07050000131130219 8:-0.2434999942779541 9:-0.5458999872207642 10:-0.779699981212616 11:-0.9466000199317932 
100.0 100.0 0.0 100.0 1:7.258941173553467 2:0.9922000169754028 3:0.9221000075340271 4:0.7936000227928162 5:0.6158999800682068 6:0.2962000072002411 7:-0.007600000128149986 8:-0.2775000035762787 9:-0.6047000288963318 10:-0.8202999830245972 11:-0.9488000273704529 
0.0 0.0 100.0 0.0 1:6.085687637329102 2:0.9907000064849854 3:0.9437999725341797 4:0.8342000246047974 5:0.690500020980835 6:0.5587000250816345 7:0.16169999539852142 8:-0.15610000491142273 9:-0.49540001153945923 10:-0.7490000128746033 11:-0.9549000263214111 
0.0 0.0 100.0 0.0 1:5.939754486083984 2:0.9919999837875366 3:0.9427000284194946 4:0.84579998254776 5:0.7045000195503235 6:0.5415999889373779 7:0.15860000252723694 8:-0.14270000159740448 9:-0.4975999891757965 10:-0.7409999966621399 11:-0.9459999799728394 
0.0 0.0 100.0 0.0 1:6.10172176361084 2:0.9904000163078308 3:0.9466999769210815 4:0.8446000218391418 5:0.713100016117096 6:0.5248000025749207 7:0.16259999573230743 8:-0.16130000352859497 9:-0.4805000126361847 10:-0.7414000034332275 11:-0.9470000267028809 
0.0 0.0 100.0 0.0 1:6.068654537200928 2:0.994700014591217 3:0.9544000029563904 4:0.8460999727249146 5:0.7193999886512756 6:0.5297999978065491 7:0.17949999868869781 8:-0.14970000088214874 9:-0.492000013589859 10:-0.7372999787330627 11:-0.9496999979019165 
0.0 0.0 100.0 0.0 1:6.138312339782715 2:0.9922000169754028 3:0.9440000057220459 4:0.8392999768257141 5:0.7085999846458435 6:0.49709999561309814 7:0.1404000073671341 8:-0.18780000507831573 9:-0.5163999795913696 10:-0.7594000101089478 11:-0.9520999789237976 
0.0 0.0 100.0 0.0 1:6.213942050933838 2:0.993399977684021 3:0.9498999714851379 4:0.8377000093460083 5:0.7046999931335449 6:0.5059999823570251 7:0.14319999516010284 8:-0.17890000343322754 9:-0.5117999911308289 10:-0.765500009059906 11:-0.949400007724762 
0.0 0.0 100.0 0.0 1:6.055770397186279 2:0.9936000108718872 3:0.9509000182151794 4:0.8349000215530396 5:0.7008000016212463 6:0.5713000297546387 7:0.15839999914169312 8:-0.15489999949932098 9:-0.474700003862381 10:-0.7559999823570251 11:-0.9502000212669373 
0.0 0.0 100.0 0.0 1:5.7319464683532715 2:0.994700014591217 3:0.9591000080108643 4:0.8463000059127808 5:0.734499990940094 6:0.5260000228881836 7:0.17810000479221344 8:-0.14139999449253082 9:-0.49219998717308044 10:-0.7347999811172485 11:-0.9542999863624573 
0.0 0.0 100.0 0.0 1:6.305728912353516 2:0.9930999875068665 3:0.9526000022888184 4:0.8478999733924866 5:0.696399986743927 6:0.5113000273704529 7:0.1542000025510788 8:-0.15199999511241913 9:-0.48539999127388 10:-0.7433000206947327 11:-0.9503999948501587 
0.0 0.0 100.0 0.0 1:6.0706892013549805 2:0.9932000041007996 3:0.953000009059906 4:0.8361999988555908 5:0.7003999948501587 6:0.5598000288009644 7:0.17419999837875366 8:-0.15150000154972076 9:-0.4819999933242798 10:-0.7365999817848206 11:-0.9520999789237976 
0.0 0.0 100.0 0.0 1:6.176155090332031 2:0.9939000010490417 3:0.9495000243186951 4:0.8461999893188477 5:0.6962000131607056 6:0.5590000152587891 7:0.1737000048160553 8:-0.1501999944448471 9:-0.4869000017642975 10:-0.7436000108718872 11:-0.9549000263214111 
0.0 0.0 100.0 0.0 1:6.156783103942871 2:0.9958999752998352 3:0.9556999802589417 4:0.8410000205039978 5:0.7098000049591064 6:0.5516999959945679 7:0.17829999327659607 8:-0.14800000190734863 9:-0.47290000319480896 10:-0.7351999878883362 11:-0.9506000280380249 
0.0 0.0 100.0 0.0 1:6.081493854522705 2:0.9933000206947327 3:0.9509000182151794 4:0.83160001039505 5:0.6970000267028809 6:0.5346999764442444 7:0.16840000450611115 8:-0.1518000066280365 9:-0.4961000084877014 10:-0.7483000159263611 11:-0.9514999985694885 
0.0 0.0 100.0 0.0 1:6.220235347747803 2:0.9948999881744385 3:0.9557999968528748 4:0.8341000080108643 5:0.7123000025749207 6:0.527400016784668 7:0.1551000028848648 8:-0.15479999780654907 9:-0.48820000886917114 10:-0.7519999742507935 11:-0.9519000053405762 
0.0 0.0 100.0 0.0 1:6.110801696777344 2:0.9940000176429749 3:0.953000009059906 4:0.8476999998092651 5:0.717199981212616 6:0.508899986743927 7:0.1518000066280365 8:-0.14309999346733093 9:-0.4871000051498413 10:-0.7444000244140625 11:-0.9567000269889832 
0.0 0.0 100.0 0.0 1:6.012060642242432 2:0.9944000244140625 3:0.9592999815940857 4:0.8442999720573425 5:0.7075999975204468 6:0.5236999988555908 7:0.1648000031709671 8:-0.16339999437332153 9:-0.49549999833106995 10:-0.7443000078201294 11:-0.9550999999046326 
0.0 0.0 100.0 0.0 1:6.1435770988464355 2:0.992900013923645 3:0.9523000121116638 4:0.8496000170707703 5:0.7106999754905701 6:0.519599974155426 7:0.18140000104904175 8:-0.1340000033378601 9:-0.47029998898506165 10:-0.7196000218391418 11:-0.9413999915122986 
0.0 0.0 100.0 0.0 1:5.961236000061035 2:0.9882000088691711 3:0.9445000290870667 4:0.8571000099182129 5:0.6859999895095825 6:0.5580999851226807 7:0.1972000002861023 8:-0.11659999936819077 9:-0.4661000072956085 10:-0.7275999784469604 11:-0.9417999982833862 
0.0 0.0 0.0 100.0 1:6.607239246368408 2:0.9897000193595886 3:0.9391000270843506 4:0.8482000231742859 5:0.6480000019073486 6:0.4447999894618988 7:0.14190000295639038 8:-0.15940000116825104 9:-0.47450000047683716 10:-0.7426999807357788 11:-0.9412000179290771 
0.0 0.0 0.0 100.0 1:6.804586410522461 2:0.9894999861717224 3:0.9370999932289124 4:0.8403000235557556 5:0.6413999795913696 6:0.44269999861717224 7:0.14740000665187836 8:-0.16130000352859497 9:-0.4948999881744385 10:-0.7307000160217285 11:-0.9434000253677368 
0.0 0.0 0.0 100.0 1:6.650825500488281 2:0.9894999861717224 3:0.9401999711990356 4:0.852400004863739 5:0.6586999893188477 6:0.4499000012874603 7:0.1607999950647354 8:-0.1581999957561493 9:-0.47200000286102295 10:-0.7353000044822693 11:-0.9387000203132629 
0.0 0.0 0.0 100.0 1:6.775547504425049 2:0.9894999861717224 3:0.9391000270843506 4:0.8434000015258789 5:0.6535999774932861 6:0.4415999948978424 7:0.1412000060081482 8:-0.16990000009536743 9:-0.4810999929904938 10:-0.7354999780654907 11:-0.9452999830245972 
0.0 0.0 0.0 100.0 1:7.062811851501465 2:0.989300012588501 3:0.9383000135421753 4:0.8284000158309937 5:0.6360999941825867 6:0.4077000021934509 7:0.125 8:-0.17239999771118164 9:-0.4821000099182129 10:-0.73580002784729 11:-0.9519000053405762 
0.0 0.0 0.0 100.0 1:6.9067912101745605 2:0.9901000261306763 3:0.9368000030517578 4:0.8454999923706055 5:0.6549999713897705 6:0.42649999260902405 7:0.12620000541210175 8:-0.15160000324249268 9:-0.4781000018119812 10:-0.7372999787330627 11:-0.9474999904632568 
0.0 0.0 0.0 100.0 1:6.67417573928833 2:0.9914000034332275 3:0.9312000274658203 4:0.8345999717712402 5:0.6991000175476074 6:0.4284000098705292 7:0.14190000295639038 8:-0.17509999871253967 9:-0.4876999855041504 10:-0.742900013923645 11:-0.9452000260353088 
0.0 0.0 100.0 0.0 1:6.052862644195557 2:0.9951000213623047 3:0.9452999830245972 4:0.8468999862670898 5:0.7221999764442444 6:0.5123999714851379 7:0.15940000116825104 8:-0.14069999754428864 9:-0.5009999871253967 10:-0.7425000071525574 11:-0.9455000162124634 
0.0 0.0 100.0 0.0 1:6.048032283782959 2:0.996399998664856 3:0.9510999917984009 4:0.8396999835968018 5:0.7343000173568726 6:0.5271999835968018 7:0.1972000002861023 8:-0.14650000631809235 9:-0.4779999852180481 10:-0.727400004863739 11:-0.9516000151634216 
0.0 0.0 100.0 0.0 1:6.222011089324951 2:0.9965000152587891 3:0.9537000060081482 4:0.8438000082969666 5:0.7152000069618225 6:0.5033000111579895 7:0.15070000290870667 8:-0.1720999926328659 9:-0.5141000151634216 10:-0.7609999775886536 11:-0.9488999843597412 
0.0 0.0 100.0 0.0 1:6.11583137512207 2:0.9965999722480774 3:0.9546999931335449 4:0.8537999987602234 5:0.7228000164031982 6:0.5033000111579895 7:0.1670999974012375 8:-0.14329999685287476 9:-0.48980000615119934 10:-0.742900013923645 11:-0.9520999789237976 
0.0 0.0 100.0 0.0 1:6.268462181091309 2:0.9965999722480774 3:0.9513000249862671 4:0.8503999710083008 5:0.7074999809265137 6:0.507099986076355 7:0.17020000517368317 8:-0.17139999568462372 9:-0.4909999966621399 10:-0.7321000099182129 11:-0.9534000158309937 
0.0 0.0 100.0 0.0 1:6.091881275177002 2:0.9959999918937683 3:0.9488999843597412 4:0.8508999943733215 5:0.7167999744415283 6:0.5002999901771545 7:0.15960000455379486 8:-0.17839999496936798 9:-0.5051000118255615 10:-0.7376000285148621 11:-0.9503999948501587 
0.0 0.0 100.0 0.0 1:6.10895299911499 2:0.994700014591217 3:0.9485999941825867 4:0.8485999703407288 5:0.7078999876976013 6:0.511900007724762 7:0.1453000009059906 8:-0.16279999911785126 9:-0.4921000003814697 10:-0.739799976348877 11:-0.9534000158309937 
0.0 0.0 100.0 0.0 1:6.093816757202148 2:0.9962999820709229 3:0.9470999836921692 4:0.8493000268936157 5:0.7150999903678894 6:0.492000013589859 7:0.16019999980926514 8:-0.14720000326633453 9:-0.49880000948905945 10:-0.7512000203132629 11:-0.9524000287055969 
0.0 0.0 100.0 0.0 1:6.187757968902588 2:0.9958999752998352 3:0.9546999931335449 4:0.8464000225067139 5:0.7067999839782715 6:0.49790000915527344 7:0.15369999408721924 8:-0.18039999902248383 9:-0.5027999877929688 10:-0.7493000030517578 11:-0.9487000107765198 
0.0 0.0 100.0 0.0 1:6.102288246154785 2:0.9965000152587891 3:0.9520000219345093 4:0.8461999893188477 5:0.7318000197410583 6:0.5277000069618225 7:0.1615999937057495 8:-0.15870000422000885 9:-0.47440001368522644 10:-0.7311000227928162 11:-0.9470000267028809 
0.0 0.0 100.0 0.0 1:6.1356635093688965 2:0.9948999881744385 3:0.9510999917984009 4:0.8522999882698059 5:0.7215999960899353 6:0.5 7:0.12999999523162842 8:-0.17560000717639923 9:-0.4821999967098236 10:-0.732200026512146 11:-0.9474999904632568 
0.0 0.0 100.0 0.0 1:6.2565131187438965 2:0.9969000220298767 3:0.953499972820282 4:0.8475000262260437 5:0.7116000056266785 6:0.5246000289916992 7:0.15809999406337738 8:-0.1468999981880188 9:-0.49219998717308044 10:-0.7401999831199646 11:-0.9559999704360962 
0.0 0.0 100.0 0.0 1:6.171201705932617 2:0.9962999820709229 3:0.9521999955177307 4:0.8521000146865845 5:0.7186999917030334 6:0.4812999963760376 7:0.12470000237226486 8:-0.17139999568462372 9:-0.5102999806404114 10:-0.7511000037193298 11:-0.954200029373169 
0.0 0.0 100.0 0.0 1:6.21082067489624 2:0.9957000017166138 3:0.954800009727478 4:0.8507000207901001 5:0.714900016784668 6:0.5188999772071838 7:0.1298999935388565 8:-0.17149999737739563 9:-0.5056999921798706 10:-0.7462999820709229 11:-0.9645000100135803 
0.0 0.0 100.0 0.0 1:6.155712604522705 2:0.9947999715805054 3:0.951200008392334 4:0.8407999873161316 5:0.7275999784469604 6:0.5135999917984009 7:0.15410000085830688 8:-0.17350000143051147 9:-0.49459999799728394 10:-0.7390000224113464 11:-0.9599000215530396 
0.0 0.0 100.0 0.0 1:6.035363674163818 2:0.9948999881744385 3:0.9599000215530396 4:0.8438000082969666 5:0.7232000231742859 6:0.5400999784469604 7:0.13660000264644623 8:-0.1525000035762787 9:-0.48089998960494995 10:-0.7383999824523926 11:-0.949400007724762 
0.0 0.0 100.0 0.0 1:6.151280403137207 2:0.9962999820709229 3:0.9560999870300293 4:0.8551999926567078 5:0.7113000154495239 6:0.4846000075340271 7:0.12210000306367874 8:-0.18649999797344208 9:-0.49799999594688416 10:-0.745199978351593 11:-0.9451000094413757 
0.0 0.0 100.0 0.0 1:6.114402770996094 2:0.9973999857902527 3:0.9641000032424927 4:0.8456000089645386 5:0.7003999948501587 6:0.5144000053405762 7:0.13930000364780426 8:-0.18219999969005585 9:-0.5162000060081482 10:-0.7616000175476074 11:-0.9563000202178955 
0.0 0.0 100.0 0.0 1:6.1755475997924805 2:0.9962999820709229 3:0.9553999900817871 4:0.8337000012397766 5:0.718999981880188 6:0.5415999889373779 7:0.18649999797344208 8:-0.11739999800920486 9:-0.4781000018119812 10:-0.7268000245094299 11:-0.963699996471405 
0.0 0.0 100.0 0.0 1:6.291050910949707 2:0.9965999722480774 3:0.9502000212669373 4:0.8539000153541565 5:0.7009000182151794 6:0.4900999963283539 7:0.1712000072002411 8:-0.15449999272823334 9:-0.4921000003814697 10:-0.739799976348877 11:-0.9648000001907349 
0.0 0.0 100.0 0.0 1:6.281201362609863 2:0.9968000054359436 3:0.9555000066757202 4:0.8313999772071838 5:0.7099000215530396 6:0.5203999876976013 7:0.1907999962568283 8:-0.12970000505447388 9:-0.4787999987602234 10:-0.7371000051498413 11:-0.9592000246047974 
0.0 0.0 100.0 0.0 1:6.192026138305664 2:0.9959999918937683 3:0.9505000114440918 4:0.8391000032424927 5:0.7263000011444092 6:0.5008000135421753 7:0.1518000066280365 8:-0.1526000052690506 9:-0.5062999725341797 10:-0.7547000050544739 11:-0.9415000081062317 
0.0 0.0 0.0 100.0 1:6.809121131896973 2:0.9994000196456909 3:0.9373999834060669 4:0.8465999960899353 5:0.6482999920845032 6:0.40369999408721924 7:0.05649999901652336 8:-0.2721000015735626 9:-0.5489000082015991 10:-0.7698000073432922 11:-0.9564999938011169 
0.0 0.0 0.0 100.0 1:7.24907922744751 2:0.9905999898910522 3:0.9435999989509583 4:0.8190000057220459 5:0.6514999866485596 6:0.4027999937534332 7:0.10819999873638153 8:-0.1923000067472458 9:-0.511900007724762 10:-0.7531999945640564 11:-0.9646999835968018 
0.0 0.0 0.0 100.0 1:6.963315963745117 2:0.9898999929428101 3:0.9305999875068665 4:0.8270999789237976 5:0.663100004196167 6:0.4334000051021576 7:0.11720000207424164 8:-0.17669999599456787 9:-0.4880000054836273 10:-0.7462999820709229 11:-0.963699996471405 
0.0 0.0 100.0 0.0 1:6.20326042175293 2:0.9932000041007996 3:0.9549000263214111 4:0.8561999797821045 5:0.7088000178337097 6:0.5102999806404114 7:0.13339999318122864 8:-0.1550000011920929 9:-0.5020999908447266 10:-0.7469000220298767 11:-0.9670000076293945 
0.0 0.0 100.0 0.0 1:6.410924911499023 2:0.996399998664856 3:0.9567000269889832 4:0.8565000295639038 5:0.699999988079071 6:0.4893999993801117 7:0.14589999616146088 8:-0.16979999840259552 9:-0.5090000033378601 10:-0.745199978351593 11:-0.9688000082969666 
0.0 0.0 100.0 0.0 1:6.327253818511963 2:0.9969000220298767 3:0.958899974822998 4:0.85589998960495 5:0.6970000267028809 6:0.5011000037193298 7:0.1436000019311905 8:-0.15379999577999115 9:-0.5055000185966492 10:-0.7365000247955322 11:-0.970300018787384 
0.0 0.0 100.0 0.0 1:6.238526821136475 2:0.9962999820709229 3:0.960099995136261 4:0.8429999947547913 5:0.7164000272750854 6:0.503000020980835 7:0.15160000324249268 8:-0.17180000245571136 9:-0.4997999966144562 10:-0.7558000087738037 11:-0.9488000273704529 
0.0 0.0 100.0 0.0 1:6.3718581199646 2:0.9948999881744385 3:0.9523000121116638 4:0.8428999781608582 5:0.6823999881744385 6:0.48840001225471497 7:0.13740000128746033 8:-0.19200000166893005 9:-0.5149999856948853 10:-0.7541999816894531 11:-0.9642999768257141 
0.0 0.0 100.0 0.0 1:6.240835666656494 2:0.9959999918937683 3:0.9517999887466431 4:0.85589998960495 5:0.7059999704360962 6:0.48080000281333923 7:0.1412999927997589 8:-0.16619999706745148 9:-0.48100000619888306 10:-0.7321000099182129 11:-0.9513000249862671 
100.0 100.0 0.0 100.0 1:7.229650497436523 2:0.9936000108718872 3:0.9176999926567078 4:0.8023999929428101 5:0.6470000147819519 6:0.4081000089645386 7:0.10209999978542328 8:-0.24320000410079956 9:-0.47429999709129333 10:-0.7458000183105469 11:-0.9671000242233276 
0.0 0.0 0.0 100.0 1:7.104118824005127 2:0.993399977684021 3:0.9312000274658203 4:0.8256000280380249 5:0.6625000238418579 6:0.4368000030517578 7:0.12620000541210175 8:-0.18060000240802765 9:-0.49219998717308044 10:-0.7401999831199646 11:-0.9758999943733215 
100.0 100.0 0.0 0.0 1:7.684998035430908 2:0.9927999973297119 3:0.923799991607666 4:0.7638000249862671 5:0.6384000182151794 6:0.3465999960899353 7:0.005200000014156103 8:-0.30480000376701355 9:-0.5932000279426575 10:-0.8169000148773193 11:-0.9602000117301941 
0.0 100.0 0.0 0.0 1:7.348720073699951 2:0.9944000244140625 3:0.9359999895095825 4:0.8120999932289124 5:0.6402999758720398 6:0.3970000147819519 7:0.0754999965429306 8:-0.2337000072002411 9:-0.5552999973297119 10:-0.7961000204086304 11:-0.9395999908447266 
100.0 100.0 0.0 100.0 1:7.5241899490356445 2:0.9940000176429749 3:0.9308000206947327 4:0.7864999771118164 5:0.6087999939918518 6:0.3034000098705292 7:-0.009700000286102295 8:-0.32109999656677246 9:-0.6302000284194946 10:-0.8198999762535095 11:-0.9537000060081482 
0.0 100.0 0.0 100.0 1:7.109644412994385 2:0.9933000206947327 3:0.9279000163078308 4:0.828000009059906 5:0.650600016117096 6:0.4162999987602234 7:0.11659999936819077 8:-0.16689999401569366 9:-0.49540001153945923 10:-0.7516000270843506 11:-0.9607999920845032 
100.0 100.0 0.0 100.0 1:7.141625881195068 2:0.9957000017166138 3:0.9221000075340271 4:0.836899995803833 5:0.6211000084877014 6:0.3806999921798706 7:0.1339000016450882 8:-0.17720000445842743 9:-0.5152999758720398 10:-0.7537999749183655 11:-0.9462000131607056 
0.0 0.0 0.0 100.0 1:6.943448543548584 2:0.9922000169754028 3:0.9307000041007996 4:0.8356000185012817 5:0.6568999886512756 6:0.4196999967098236 7:0.12860000133514404 8:-0.1881999969482422 9:-0.48649999499320984 10:-0.7426999807357788 11:-0.9492999911308289 
0.0 0.0 0.0 100.0 1:6.877622604370117 2:0.9901999831199646 3:0.9472000002861023 4:0.8356000185012817 5:0.6510999798774719 6:0.4336000084877014 7:0.13840000331401825 8:-0.17090000212192535 9:-0.49059998989105225 10:-0.7330999970436096 11:-0.9458000063896179 
0.0 0.0 0.0 100.0 1:6.987961292266846 2:0.9868999719619751 3:0.9462000131607056 4:0.8519999980926514 5:0.6610000133514404 6:0.40610000491142273 7:0.12620000541210175 8:-0.1647000014781952 9:-0.47380000352859497 10:-0.7232999801635742 11:-0.9487000107765198 
0.0 100.0 0.0 100.0 1:7.174117088317871 2:0.9901000261306763 3:0.9380999803543091 4:0.8360000252723694 5:0.6319000124931335 6:0.3779999911785126 7:0.10130000114440918 8:-0.17839999496936798 9:-0.4894999861717224 10:-0.736299991607666 11:-0.9373999834060669 
0.0 0.0 0.0 100.0 1:6.923949241638184 2:0.9876000285148621 3:0.9366000294685364 4:0.8489000201225281 5:0.6473000049591064 6:0.42320001125335693 7:0.11860000342130661 8:-0.17739999294281006 9:-0.4900999963283539 10:-0.7312999963760376 11:-0.9491999745368958 
0.0 100.0 0.0 100.0 1:6.9544572830200195 2:0.989799976348877 3:0.9329000115394592 4:0.83160001039505 5:0.6549000144004822 6:0.4101000130176544 7:0.1216999962925911 8:-0.19589999318122864 9:-0.49480000138282776 10:-0.7531999945640564 11:-0.930899977684021 
100.0 100.0 0.0 100.0 1:7.642969131469727 2:0.9919000267982483 3:0.9261999726295471 4:0.809499979019165 5:0.5389000177383423 6:0.2777000069618225 7:0.03359999880194664 8:-0.26350000500679016 9:-0.6157000064849854 10:-0.7542999982833862 11:-0.9217000007629395 
0.0 0.0 0.0 57.59461176382573 1:7.005003452301025 2:0.989799976348877 3:0.9277999997138977 4:0.8252999782562256 5:0.6506999731063843 6:0.4478999972343445 7:0.10010000318288803 8:-0.18019999563694 9:-0.4814999997615814 10:-0.730400025844574 11:-0.9459999799728394 
0.0 0.0 0.0 100.0 1:7.131478786468506 2:0.9991000294685364 3:0.9605000019073486 4:0.8151999711990356 5:0.6133999824523926 6:0.34060001373291016 7:0.05400000140070915 8:-0.30149999260902405 9:-0.5770999789237976 10:-0.8187000155448914 11:-0.9474999904632568 
0.0 0.0 100.0 0.0 1:6.250025749206543 2:0.9952999949455261 3:0.9632999897003174 4:0.8382999897003174 5:0.7429999709129333 6:0.5217999815940857 7:0.19449999928474426 8:-0.12960000336170197 9:-0.4472000002861023 10:-0.729200005531311 11:-0.9322999715805054 
0.0 0.0 100.0 0.0 1:6.096772193908691 2:0.9952999949455261 3:0.9544000029563904 4:0.8440999984741211 5:0.7261999845504761 6:0.5235999822616577 7:0.2142000049352646 8:-0.11890000104904175 9:-0.4521999955177307 10:-0.7260000109672546 11:-0.9343000054359436 
0.0 0.0 100.0 0.0 1:6.075787544250488 2:0.9952999949455261 3:0.9483000040054321 4:0.833299994468689 5:0.7193999886512756 6:0.5411999821662903 7:0.17820000648498535 8:-0.11230000108480453 9:-0.4472000002861023 10:-0.7311999797821045 11:-0.9326000213623047 
0.0 0.0 100.0 0.0 1:5.8047051429748535 2:0.9927999973297119 3:0.9419000148773193 4:0.8478000164031982 5:0.7401000261306763 6:0.548799991607666 7:0.20739999413490295 8:-0.09889999777078629 9:-0.45969998836517334 10:-0.7429999709129333 11:-0.9369999766349792 
0.0 0.0 100.0 0.0 1:5.916595458984375 2:0.9958000183105469 3:0.9532999992370605 4:0.8432999849319458 5:0.7440000176429749 6:0.5307000279426575 7:0.2167000025510788 8:-0.10670000314712524 9:-0.4487000107765198 10:-0.73089998960495 11:-0.9314000010490417 
0.0 0.0 100.0 0.0 1:5.885230541229248 2:0.9959999918937683 3:0.9593999981880188 4:0.8496000170707703 5:0.746999979019165 6:0.5318999886512756 7:0.2092999964952469 8:-0.12729999423027039 9:-0.44780001044273376 10:-0.7289999723434448 11:-0.9370999932289124 
0.0 0.0 100.0 0.0 1:5.855539798736572 2:0.9948999881744385 3:0.9569000005722046 4:0.8363999724388123 5:0.7493000030517578 6:0.5349000096321106 7:0.21080000698566437 8:-0.13619999587535858 9:-0.4641999900341034 10:-0.7321000099182129 11:-0.9398999810218811 
0.0 0.0 100.0 0.0 1:5.804035186767578 2:0.9955999851226807 3:0.9555000066757202 4:0.8389000296592712 5:0.734499990940094 6:0.5360999703407288 7:0.19499999284744263 8:-0.15369999408721924 9:-0.48579999804496765 10:-0.753600001335144 11:-0.9429000020027161 
0.0 0.0 100.0 0.0 1:6.664393901824951 2:0.9958000183105469 3:0.9628000259399414 4:0.8424999713897705 5:0.7251999974250793 6:0.5001000165939331 7:0.13809999823570251 8:-0.21150000393390656 9:-0.5400000214576721 10:-0.784600019454956 11:-0.9476000070571899 
0.0 0.0 100.0 0.0 1:7.25916051864624 2:0.9962999820709229 3:0.9574999809265137 4:0.8317999839782715 5:0.680400013923645 6:0.37599998712539673 7:0.04360000044107437 8:-0.2574999928474426 9:-0.5766000151634216 10:-0.8101999759674072 11:-0.9498000144958496 
0.0 0.0 100.0 0.0 1:6.149012088775635 2:0.9973999857902527 3:0.967199981212616 4:0.8550999760627747 5:0.7163000106811523 6:0.5062000155448914 7:0.20409999787807465 8:-0.15539999306201935 9:-0.47369998693466187 10:-0.7454000115394592 11:-0.944100022315979 
0.0 0.0 100.0 0.0 1:6.0912346839904785 2:0.9979000091552734 3:0.9642999768257141 4:0.8680999875068665 5:0.7283999919891357 6:0.4772000014781952 7:0.19990000128746033 8:-0.16459999978542328 9:-0.48750001192092896 10:-0.7613999843597412 11:-0.9455000162124634 
0.0 0.0 100.0 0.0 1:6.2636871337890625 2:0.9965999722480774 3:0.9506000280380249 4:0.8496999740600586 5:0.7135999798774719 6:0.5117999911308289 7:0.21230000257492065 8:-0.12970000505447388 9:-0.4683000147342682 10:-0.7407000064849854 11:-0.9388999938964844 
0.0 0.0 0.0 100.0 1:6.484821319580078 2:0.9947999715805054 3:0.9261999726295471 4:0.8565000295639038 5:0.6851999759674072 6:0.47620001435279846 7:0.1745000034570694 8:-0.14749999344348907 9:-0.46869999170303345 10:-0.7247999906539917 11:-0.9509999752044678 
0.0 0.0 0.0 100.0 1:6.702581405639648 2:0.9955000281333923 3:0.9398000240325928 4:0.8458999991416931 5:0.659600019454956 6:0.45969998836517334 7:0.19979999959468842 8:-0.13089999556541443 9:-0.4677000045776367 10:-0.742900013923645 11:-0.9495999813079834 
0.0 0.0 0.0 100.0 1:6.920788288116455 2:0.9950000047683716 3:0.9412000179290771 4:0.8349000215530396 5:0.6514999866485596 6:0.4406999945640564 7:0.1657000035047531 8:-0.15330000221729279 9:-0.47999998927116394 10:-0.7360000014305115 11:-0.9624000191688538 
0.0 0.0 100.0 0.0 1:6.885322570800781 2:0.9973000288009644 3:0.9684000015258789 4:0.8546000123023987 5:0.6995999813079834 6:0.4542999863624573 7:0.18310000002384186 8:-0.15600000321865082 9:-0.4851999878883362 10:-0.7630000114440918 11:-0.9495000243186951 
0.0 100.0 0.0 100.0 1:7.104376316070557 2:0.9977999925613403 3:0.9373000264167786 4:0.8191999793052673 5:0.6391000151634216 6:0.367900013923645 7:0.06310000270605087 8:-0.28929999470710754 9:-0.5496000051498413 10:-0.8029000163078308 11:-0.951200008392334 
0.0 0.0 0.0 100.0 1:6.841841220855713 2:0.9948999881744385 3:0.9472000002861023 4:0.8536999821662903 5:0.6230000257492065 6:0.4219000041484833 7:0.16910000145435333 8:-0.1542000025510788 9:-0.4675999879837036 10:-0.742900013923645 11:-0.9447000026702881 
0.0 0.0 0.0 100.0 1:6.938720703125 2:0.9961000084877014 3:0.9431999921798706 4:0.8410000205039978 5:0.6115999817848206 6:0.4124000072479248 7:0.18219999969005585 8:-0.1712000072002411 9:-0.4860999882221222 10:-0.7430999875068665 11:-0.9365000128746033 
0.0 0.0 0.0 100.0 1:7.037840366363525 2:0.9947999715805054 3:0.9422000050544739 4:0.8226000070571899 5:0.6211000084877014 6:0.4447000026702881 7:0.18369999527931213 8:-0.1460999995470047 9:-0.46950000524520874 10:-0.7394999861717224 11:-0.9372000098228455 
0.0 0.0 0.0 100.0 1:7.090731143951416 2:0.9939000010490417 3:0.9399999976158142 4:0.8144999742507935 5:0.6172000169754028 6:0.4375999867916107 7:0.1662999987602234 8:-0.149399995803833 9:-0.4936999976634979 10:-0.7365000247955322 11:-0.9495999813079834 
0.0 0.0 0.0 100.0 1:6.905977725982666 2:0.9930999875068665 3:0.9308000206947327 4:0.8136000037193298 5:0.6481000185012817 6:0.4453999996185303 7:0.1876000016927719 8:-0.12370000034570694 9:-0.47940000891685486 10:-0.7361999750137329 11:-0.9395999908447266 
0.0 0.0 0.0 100.0 1:6.950448036193848 2:0.9948999881744385 3:0.9354000091552734 4:0.8528000116348267 5:0.6467999815940857 6:0.3808000087738037 7:0.15600000321865082 8:-0.13300000131130219 9:-0.4684000015258789 10:-0.7408000230789185 11:-0.9354000091552734 
0.0 0.0 0.0 100.0 1:6.968881130218506 2:0.9976000189781189 3:0.932699978351593 4:0.823199987411499 5:0.604200005531311 6:0.4440000057220459 7:0.15309999883174896 8:-0.16779999434947968 9:-0.45579999685287476 10:-0.7616999745368958 11:-0.9725000262260437 
0.0 0.0 0.0 100.0 1:7.0495829582214355 2:0.9995999932289124 3:0.9444000124931335 4:0.838100016117096 5:0.6241999864578247 6:0.39820000529289246 7:0.12809999287128448 8:-0.18629999458789825 9:-0.49639999866485596 10:-0.760200023651123 11:-0.9452999830245972 
0.0 0.0 0.0 100.0 1:7.210866928100586 2:0.9947999715805054 3:0.934499979019165 4:0.8255000114440918 5:0.6208999752998352 6:0.41449999809265137 7:0.16410000622272491 8:-0.13590000569820404 9:-0.47130000591278076 10:-0.7419999837875366 11:-0.9420999884605408 
0.0 0.0 0.0 100.0 1:7.116844654083252 2:0.996399998664856 3:0.9355000257492065 4:0.8166000247001648 5:0.6118999719619751 6:0.43970000743865967 7:0.18389999866485596 8:-0.1273999959230423 9:-0.4578000009059906 10:-0.7261000275611877 11:-0.9320999979972839 
0.0 0.0 0.0 100.0 1:7.09242582321167 2:0.9916999936103821 3:0.9350000023841858 4:0.8220999836921692 5:0.6100999712944031 6:0.4307999908924103 7:0.18310000002384186 8:-0.13189999759197235 9:-0.4731000065803528 10:-0.7354000210762024 11:-0.9373999834060669 
0.0 0.0 0.0 100.0 1:6.942788124084473 2:0.9961000084877014 3:0.9336000084877014 4:0.848800003528595 5:0.6322000026702881 6:0.3971000015735626 7:0.14159999787807465 8:-0.15240000188350677 9:-0.4821999967098236 10:-0.7419000267982483 11:-0.9466999769210815 
100.0 100.0 0.0 100.0 1:6.749399662017822 2:0.9977999925613403 3:0.9162999987602234 4:0.8267999887466431 5:0.5954999923706055 6:0.4068000018596649 7:0.09000000357627869 8:-0.2393999993801117 9:-0.573199987411499 10:-0.8230000138282776 11:-0.9524000287055969 
0.0 0.0 100.0 0.0 1:6.767097473144531 2:0.9965999722480774 3:0.9667999744415283 4:0.8640000224113464 5:0.691100001335144 6:0.4799000024795532 7:0.20200000703334808 8:-0.16670000553131104 9:-0.47119998931884766 10:-0.7653999924659729 11:-0.953000009059906 
0.0 0.0 0.0 100.0 1:6.969654083251953 2:0.9959999918937683 3:0.9301000237464905 4:0.8457000255584717 5:0.6628999710083008 6:0.42800000309944153 7:0.15119999647140503 8:-0.14489999413490295 9:-0.4846000075340271 10:-0.7427999973297119 11:-0.9452999830245972 
0.0 0.0 100.0 0.0 1:6.640550136566162 2:0.9976000189781189 3:0.9620000123977661 4:0.8271999955177307 5:0.7509999871253967 6:0.534600019454956 7:0.19769999384880066 8:-0.13179999589920044 9:-0.4674000144004822 10:-0.7562999725341797 11:-0.9384999871253967 
0.0 0.0 100.0 0.0 1:6.685056209564209 2:0.9983000159263611 3:0.9661999940872192 4:0.833299994468689 5:0.7530999779701233 6:0.49050000309944153 7:0.16009999811649323 8:-0.16869999468326569 9:-0.5027999877929688 10:-0.7663999795913696 11:-0.9419999718666077 
0.0 0.0 100.0 0.0 1:6.438863754272461 2:0.9965999722480774 3:0.9437000155448914 4:0.8339999914169312 5:0.7231000065803528 6:0.41769999265670776 7:0.09239999949932098 8:-0.2531000077724457 9:-0.5584999918937683 10:-0.7930999994277954 11:-0.948199987411499 
0.0 0.0 100.0 0.0 1:6.330853462219238 2:0.9987000226974487 3:0.9546999931335449 4:0.8327999711036682 5:0.7486000061035156 6:0.4812999963760376 7:0.1657000035047531 8:-0.19179999828338623 9:-0.5138000249862671 10:-0.7645999789237976 11:-0.9431999921798706 
0.0 0.0 100.0 0.0 1:6.42035436630249 2:0.9977999925613403 3:0.953000009059906 4:0.8378999829292297 5:0.7630000114440918 6:0.4900999963283539 7:0.17599999904632568 8:-0.16680000722408295 9:-0.5109999775886536 10:-0.7583000063896179 11:-0.941100001335144 
0.0 0.0 100.0 0.0 1:6.547624588012695 2:0.998199999332428 3:0.9526000022888184 4:0.8363000154495239 5:0.7513999938964844 6:0.4749999940395355 7:0.149399995803833 8:-0.19709999859333038 9:-0.5268999934196472 10:-0.7782999873161316 11:-0.9505000114440918 
0.0 0.0 100.0 0.0 1:6.261018753051758 2:0.9972000122070312 3:0.9537000060081482 4:0.832099974155426 5:0.7530999779701233 6:0.511900007724762 7:0.19200000166893005 8:-0.15729999542236328 9:-0.5044000148773193 10:-0.7721999883651733 11:-0.9431999921798706 
0.0 0.0 100.0 0.0 1:6.304361343383789 2:0.9984999895095825 3:0.9539999961853027 4:0.8305000066757202 5:0.7329999804496765 6:0.503000020980835 7:0.19339999556541443 8:-0.14419999718666077 9:-0.48809999227523804 10:-0.7595000267028809 11:-0.9465000033378601 
0.0 0.0 100.0 0.0 1:6.013164520263672 2:0.9976000189781189 3:0.9642000198364258 4:0.8443999886512756 5:0.7674000263214111 6:0.5260000228881836 7:0.21480000019073486 8:-0.1054999977350235 9:-0.4636000096797943 10:-0.733299970626831 11:-0.9388999938964844 
0.0 0.0 100.0 0.0 1:6.002700328826904 2:0.9977999925613403 3:0.9571999907493591 4:0.8592000007629395 5:0.7635999917984009 6:0.551800012588501 7:0.19529999792575836 8:-0.14079999923706055 9:-0.46799999475479126 10:-0.7466999888420105 11:-0.9503999948501587 
0.0 0.0 100.0 0.0 1:6.256579875946045 2:0.9965000152587891 3:0.9521999955177307 4:0.8248000144958496 5:0.7379999756813049 6:0.4189000129699707 7:0.059700001031160355 8:-0.2727000117301941 9:-0.5658000111579895 10:-0.7986000180244446 11:-0.9487000107765198 
0.0 0.0 100.0 0.0 1:6.136837482452393 2:0.9976000189781189 3:0.9567999839782715 4:0.8568999767303467 5:0.781000018119812 6:0.544700026512146 7:0.20090000331401825 8:-0.1216999962925911 9:-0.47679999470710754 10:-0.7566999793052673 11:-0.9333999752998352 
0.0 0.0 100.0 0.0 1:6.373624324798584 2:0.9973999857902527 3:0.9613999724388123 4:0.8522999882698059 5:0.7742999792098999 6:0.5074999928474426 7:0.20090000331401825 8:-0.1371999979019165 9:-0.49300000071525574 10:-0.7455999851226807 11:-0.9398999810218811 
0.0 0.0 100.0 0.0 1:6.37308931350708 2:0.9980999827384949 3:0.954800009727478 4:0.8295999765396118 5:0.7396000027656555 6:0.5195000171661377 7:0.16859999299049377 8:-0.16670000553131104 9:-0.5353999733924866 10:-0.7760000228881836 11:-0.9383999705314636 
0.0 0.0 100.0 0.0 1:6.380673408508301 2:0.9965000152587891 3:0.9534000158309937 4:0.8547999858856201 5:0.7720999717712402 6:0.44359999895095825 7:0.1128000020980835 8:-0.21729999780654907 9:-0.5564000010490417 10:-0.7912999987602234 11:-0.9580000042915344 
0.0 0.0 100.0 0.0 1:6.409834384918213 2:0.9979000091552734 3:0.9538000226020813 4:0.8274000287055969 5:0.748199999332428 6:0.5026000142097473 7:0.1412000060081482 8:-0.21209999918937683 9:-0.5331000089645386 10:-0.78329998254776 11:-0.9424999952316284 
0.0 0.0 100.0 0.0 1:6.436200141906738 2:0.9976000189781189 3:0.960099995136261 4:0.8353000283241272 5:0.7656999826431274 6:0.5206999778747559 7:0.17489999532699585 8:-0.164900004863739 9:-0.5370000004768372 10:-0.7821999788284302 11:-0.9469000101089478 
0.0 0.0 100.0 0.0 1:6.032296657562256 2:0.9975000023841858 3:0.9641000032424927 4:0.8460000157356262 5:0.7763000130653381 6:0.5022000074386597 7:0.17489999532699585 8:-0.19439999759197235 9:-0.5188000202178955 10:-0.7710000276565552 11:-0.9413999915122986 
0.0 0.0 100.0 0.0 1:6.359537601470947 2:0.9975000023841858 3:0.9595000147819519 4:0.838699996471405 5:0.7623000144958496 6:0.4693000018596649 7:0.15940000116825104 8:-0.20340000092983246 9:-0.532800018787384 10:-0.7851999998092651 11:-0.939300000667572 
0.0 0.0 100.0 0.0 1:6.251952171325684 2:0.9973999857902527 3:0.9556999802589417 4:0.8496999740600586 5:0.7541000247001648 6:0.5126000046730042 7:0.18389999866485596 8:-0.16249999403953552 9:-0.5113999843597412 10:-0.7645000219345093 11:-0.9394000172615051 
0.0 0.0 100.0 0.0 1:6.268876552581787 2:0.9973999857902527 3:0.9610999822616577 4:0.8564000129699707 5:0.7738999724388123 6:0.5120999813079834 7:0.17710000276565552 8:-0.16990000009536743 9:-0.5167999863624573 10:-0.777999997138977 11:-0.9394000172615051 
0.0 0.0 100.0 0.0 1:5.899063587188721 2:0.9969000220298767 3:0.965499997138977 4:0.8586000204086304 5:0.7763000130653381 6:0.5056999921798706 7:0.186599999666214 8:-0.2249000072479248 9:-0.5440000295639038 10:-0.7838000059127808 11:-0.9401999711990356 
0.0 0.0 100.0 0.0 1:6.1238532066345215 2:0.9976000189781189 3:0.951200008392334 4:0.8578000068664551 5:0.7821000218391418 6:0.5361999869346619 7:0.227400004863739 8:-0.14059999585151672 9:-0.5091000199317932 10:-0.7706000208854675 11:-0.932200014591217 
0.0 0.0 100.0 0.0 1:6.263086795806885 2:0.9980999827384949 3:0.9453999996185303 4:0.8402000069618225 5:0.7427999973297119 6:0.5059999823570251 7:0.14740000665187836 8:-0.186599999666214 9:-0.5346999764442444 10:-0.7853999733924866 11:-0.9401000142097473 
0.0 0.0 100.0 0.0 1:6.014416694641113 2:0.9973999857902527 3:0.9556000232696533 4:0.8567000031471252 5:0.7813000082969666 6:0.519599974155426 7:0.19130000472068787 8:-0.1543000042438507 9:-0.5239999890327454 10:-0.7789000272750854 11:-0.9358999729156494 
0.0 0.0 100.0 0.0 1:5.901400089263916 2:0.9966999888420105 3:0.9699000120162964 4:0.8598999977111816 5:0.7853999733924866 6:0.5148000121116638 7:0.19750000536441803 8:-0.1492999941110611 9:-0.49900001287460327 10:-0.7689999938011169 11:-0.941100001335144 
0.0 0.0 100.0 0.0 1:5.855494022369385 2:0.9976000189781189 3:0.9664999842643738 4:0.8519999980926514 5:0.7706000208854675 6:0.534500002861023 7:0.2151000052690506 8:-0.14020000398159027 9:-0.5054000020027161 10:-0.7728999853134155 11:-0.9412000179290771 
0.0 0.0 100.0 0.0 1:5.897950172424316 2:0.9979000091552734 3:0.944599986076355 4:0.8546000123023987 5:0.762499988079071 6:0.49459999799728394 7:0.17560000717639923 8:-0.1720999926328659 9:-0.5317999720573425 10:-0.7886000275611877 11:-0.9398999810218811 
0.0 0.0 100.0 0.0 1:6.186158180236816 2:0.9973999857902527 3:0.949400007724762 4:0.8399999737739563 5:0.7422999739646912 6:0.48159998655319214 7:0.14190000295639038 8:-0.17710000276565552 9:-0.5514000058174133 10:-0.7893999814987183 11:-0.953000009059906 
0.0 0.0 100.0 0.0 1:6.072225093841553 2:0.9972000122070312 3:0.9605000019073486 4:0.8543000221252441 5:0.7591000199317932 6:0.5260000228881836 7:0.16670000553131104 8:-0.1565999984741211 9:-0.48669999837875366 10:-0.7567999958992004 11:-0.9430000185966492 
0.0 0.0 100.0 0.0 1:6.064080715179443 2:0.9980000257492065 3:0.9602000117301941 4:0.8518000245094299 5:0.7555000185966492 6:0.5317000150680542 7:0.19040000438690186 8:-0.15649999678134918 9:-0.49570000171661377 10:-0.7633000016212463 11:-0.9402999877929688 
0.0 0.0 100.0 0.0 1:6.172701358795166 2:0.9980999827384949 3:0.951200008392334 4:0.8432000279426575 5:0.7484999895095825 6:0.4893999993801117 7:0.1793999969959259 8:-0.1809999942779541 9:-0.5162000060081482 10:-0.7694000005722046 11:-0.9495999813079834 
0.0 0.0 100.0 0.0 1:5.876228332519531 2:0.9975000023841858 3:0.9585999846458435 4:0.8416000008583069 5:0.7584999799728394 6:0.45890000462532043 7:0.1080000028014183 8:-0.22529999911785126 9:-0.545199990272522 10:-0.776199996471405 11:-0.9420999884605408 
0.0 0.0 100.0 0.0 1:6.223658084869385 2:0.9983000159263611 3:0.9485999941825867 4:0.8428000211715698 5:0.7287999987602234 6:0.48660001158714294 7:0.11789999902248383 8:-0.1987999975681305 9:-0.5223000049591064 10:-0.7678999900817871 11:-0.9466000199317932 
0.0 0.0 100.0 0.0 1:5.9179534912109375 2:0.9976000189781189 3:0.9581000208854675 4:0.8555999994277954 5:0.7825999855995178 6:0.5115000009536743 7:0.17100000381469727 8:-0.14980000257492065 9:-0.5041000247001648 10:-0.7613000273704529 11:-0.9405999779701233 
0.0 0.0 0.0 100.0 1:6.702843189239502 2:0.9937999844551086 3:0.9301000237464905 4:0.8256000280380249 5:0.6305000185966492 6:0.4625000059604645 7:0.24070000648498535 8:-0.10329999774694443 9:-0.4375999867916107 10:-0.7224000096321106 11:-0.9391000270843506 
100.0 100.0 0.0 100.0 1:7.172420978546143 2:0.9961000084877014 3:0.9276999831199646 4:0.8428999781608582 5:0.6416000127792358 6:0.382099986076355 7:0.1274999976158142 8:-0.19200000166893005 9:-0.5015000104904175 10:-0.7670999765396118 11:-0.9354000091552734 
0.0 0.0 100.0 0.0 1:6.4597578048706055 2:0.9983000159263611 3:0.9606999754905701 4:0.8406999707221985 5:0.7075999975204468 6:0.49869999289512634 7:0.1746000051498413 8:-0.12890000641345978 9:-0.4733999967575073 10:-0.7563999891281128 11:-0.9347000122070312 
100.0 100.0 0.0 100.0 1:7.192854881286621 2:0.9984999895095825 3:0.9269000291824341 4:0.8187000155448914 5:0.682200014591217 6:0.32919999957084656 7:0.06859999895095825 8:-0.31220000982284546 9:-0.5694000124931335 10:-0.7994999885559082 11:-0.9563999772071838 
100.0 0.0 0.0 0.0 1:7.059752941131592 2:0.9980999827384949 3:0.9232000112533569 4:0.8230000138282776 5:0.7098000049591064 6:0.4099000096321106 7:0.09359999746084213 8:-0.29120001196861267 9:-0.5288000106811523 10:-0.7835999727249146 11:-0.9424999952316284 
0.0 0.0 100.0 0.0 1:6.454531192779541 2:0.9980000257492065 3:0.9584000110626221 4:0.8458999991416931 5:0.7605999708175659 6:0.4932999908924103 7:0.21789999306201935 8:-0.12710000574588776 9:-0.4772000014781952 10:-0.7444000244140625 11:-0.9305999875068665 
0.0 0.0 100.0 0.0 1:6.23323392868042 2:0.9983000159263611 3:0.958299994468689 4:0.8345999717712402 5:0.7541999816894531 6:0.5475000143051147 7:0.20029999315738678 8:-0.10249999910593033 9:-0.460099995136261 10:-0.7354999780654907 11:-0.930400013923645 
0.0 0.0 100.0 0.0 1:6.261131763458252 2:0.9955999851226807 3:0.9513000249862671 4:0.8337000012397766 5:0.7383000254631042 6:0.5338000059127808 7:0.18170000612735748 8:-0.15459999442100525 9:-0.49320000410079956 10:-0.7628999948501587 11:-0.9334999918937683 
0.0 0.0 100.0 0.0 1:5.926146030426025 2:0.9983000159263611 3:0.9458000063896179 4:0.8454999923706055 5:0.7584999799728394 6:0.5138999819755554 7:0.17829999327659607 8:-0.1784999966621399 9:-0.4966999888420105 10:-0.7603999972343445 11:-0.9373999834060669 
0.0 0.0 100.0 0.0 1:6.307501316070557 2:0.996999979019165 3:0.9610000252723694 4:0.8427000045776367 5:0.7416999936103821 6:0.5152000188827515 7:0.1671999990940094 8:-0.1363999992609024 9:-0.46970000863075256 10:-0.7390000224113464 11:-0.9368000030517578 
0.0 0.0 100.0 0.0 1:6.223853588104248 2:0.9973999857902527 3:0.9559999704360962 4:0.8579000234603882 5:0.755299985408783 6:0.5238000154495239 7:0.22519999742507935 8:-0.1354999989271164 9:-0.4627000093460083 10:-0.7246000170707703 11:-0.9325000047683716 
0.0 0.0 100.0 0.0 1:5.985201358795166 2:0.9979000091552734 3:0.9538999795913696 4:0.84579998254776 5:0.7493000030517578 6:0.5317999720573425 7:0.1881999969482422 8:-0.14309999346733093 9:-0.46560001373291016 10:-0.7443000078201294 11:-0.9394000172615051 
0.0 0.0 100.0 0.0 1:6.009617328643799 2:0.9975000023841858 3:0.9513000249862671 4:0.8349000215530396 5:0.7404999732971191 6:0.5236999988555908 7:0.19030000269412994 8:-0.13449999690055847 9:-0.4584999978542328 10:-0.7495999932289124 11:-0.930899977684021 
0.0 0.0 100.0 0.0 1:5.87137508392334 2:0.9979000091552734 3:0.9448999762535095 4:0.8327000141143799 5:0.7384999990463257 6:0.5151000022888184 7:0.1834000051021576 8:-0.1517000049352646 9:-0.48069998621940613 10:-0.7443000078201294 11:-0.9373000264167786 
0.0 0.0 100.0 0.0 1:5.867191791534424 2:0.9958000183105469 3:0.9480000138282776 4:0.8378999829292297 5:0.7523000240325928 6:0.526199996471405 7:0.16269999742507935 8:-0.15299999713897705 9:-0.49070000648498535 10:-0.7434999942779541 11:-0.9369999766349792 
0.0 0.0 100.0 0.0 1:6.4992289543151855 2:0.9970999956130981 3:0.9697999954223633 4:0.8535000085830688 5:0.7405999898910522 6:0.4912000000476837 7:0.1590999960899353 8:-0.1737000048160553 9:-0.49939998984336853 10:-0.7458000183105469 11:-0.9351999759674072 
0.0 0.0 100.0 0.0 1:6.126620292663574 2:0.9975000023841858 3:0.9508000016212463 4:0.8565999865531921 5:0.7626000046730042 6:0.52920001745224 7:0.1979999989271164 8:-0.14069999754428864 9:-0.4659000039100647 10:-0.7335000038146973 11:-0.9326000213623047 
0.0 0.0 100.0 0.0 1:6.518808841705322 2:0.9977999925613403 3:0.9735000133514404 4:0.8389000296592712 5:0.7278000116348267 6:0.47029998898506165 7:0.1581999957561493 8:-0.16820000112056732 9:-0.4860999882221222 10:-0.7506999969482422 11:-0.9289000034332275 
0.0 0.0 100.0 0.0 1:6.603604793548584 2:0.9977999925613403 3:0.9621000289916992 4:0.8377000093460083 5:0.7480999827384949 6:0.5090000033378601 7:0.1396999955177307 8:-0.20000000298023224 9:-0.5246000289916992 10:-0.7786999940872192 11:-0.9447000026702881 
100.0 100.0 0.0 0.0 1:7.291274547576904 2:0.9972000122070312 3:0.9296000003814697 4:0.8198000192642212 5:0.6660000085830688 6:0.37959998846054077 7:0.05469999834895134 8:-0.2630000114440918 9:-0.5655999779701233 10:-0.7994999885559082 11:-0.9434999823570251 
0.0 0.0 100.0 0.0 1:6.884244918823242 2:0.9980999827384949 3:0.9593999981880188 4:0.8485000133514404 5:0.7519999742507935 6:0.453000009059906 7:0.12359999865293503 8:-0.2037000060081482 9:-0.5023999810218811 10:-0.7750999927520752 11:-0.9397000074386597 
0.0 0.0 100.0 0.0 1:6.804501533508301 2:0.9976000189781189 3:0.9627000093460083 4:0.8399999737739563 5:0.7666000127792358 6:0.47119998931884766 7:0.14710000157356262 8:-0.1738000065088272 9:-0.5121999979019165 10:-0.7738999724388123 11:-0.9438999891281128 
0.0 0.0 100.0 0.0 1:7.138782024383545 2:0.9976000189781189 3:0.970300018787384 4:0.8460999727249146 5:0.7470999956130981 6:0.4449000060558319 7:0.12549999356269836 8:-0.21220000088214874 9:-0.5253999829292297 10:-0.7865999937057495 11:-0.9430000185966492 
0.0 0.0 100.0 0.0 1:7.151197910308838 2:0.9980999827384949 3:0.9513000249862671 4:0.8411999940872192 5:0.7572000026702881 6:0.4472000002861023 7:0.10729999840259552 8:-0.2328999936580658 9:-0.5145000219345093 10:-0.7806000113487244 11:-0.9419000148773193 
0.0 0.0 100.0 0.0 1:6.9437575340271 2:0.9976999759674072 3:0.9704999923706055 4:0.8555999994277954 5:0.7487000226974487 6:0.4575999975204468 7:0.1421000063419342 8:-0.2054000049829483 9:-0.5231999754905701 10:-0.7760999798774719 11:-0.942300021648407 
0.0 0.0 100.0 0.0 1:7.033034801483154 2:0.9968000054359436 3:0.9638000130653381 4:0.8356999754905701 5:0.7450000047683716 6:0.48350000381469727 7:0.11819999665021896 8:-0.20720000565052032 9:-0.5289000272750854 10:-0.7851999998092651 11:-0.9415000081062317 
0.0 0.0 100.0 0.0 1:6.703113079071045 2:0.9983000159263611 3:0.9735000133514404 4:0.8549000024795532 5:0.7541000247001648 6:0.44760000705718994 7:0.12250000238418579 8:-0.19419999420642853 9:-0.5092999935150146 10:-0.7757999897003174 11:-0.9442999958992004 
0.0 0.0 100.0 0.0 1:7.18333101272583 2:0.9984999895095825 3:0.9581000208854675 4:0.8384000062942505 5:0.7272999882698059 6:0.44040000438690186 7:0.08739999681711197 8:-0.23420000076293945 9:-0.5339999794960022 10:-0.7827000021934509 11:-0.9429000020027161 
0.0 0.0 100.0 0.0 1:6.859159469604492 2:0.9977999925613403 3:0.9635999798774719 4:0.8428999781608582 5:0.7257999777793884 6:0.4578000009059906 7:0.1712999939918518 8:-0.19910000264644623 9:-0.5333999991416931 10:-0.7867000102996826 11:-0.9412000179290771 
0.0 0.0 0.0 100.0 1:7.013584613800049 2:0.9977999925613403 3:0.9370999932289124 4:0.8245000243186951 5:0.6060000061988831 6:0.47029998898506165 7:0.2094999998807907 8:-0.15600000321865082 9:-0.4934999942779541 10:-0.7602999806404114 11:-0.9405999779701233 
0.0 100.0 0.0 100.0 1:7.401917934417725 2:0.996999979019165 3:0.932699978351593 4:0.8197000026702881 5:0.6236000061035156 6:0.3995000123977661 7:0.1517000049352646 8:-0.15330000221729279 9:-0.4903999865055084 10:-0.7397000193595886 11:-0.9355999827384949 
0.0 100.0 0.0 100.0 1:7.3082804679870605 2:0.9955999851226807 3:0.9336000084877014 4:0.8482999801635742 5:0.608299970626831 6:0.3831999897956848 7:0.14900000393390656 8:-0.15299999713897705 9:-0.47929999232292175 10:-0.7423999905586243 11:-0.9401999711990356 
100.0 100.0 0.0 100.0 1:7.63899564743042 2:0.9977999925613403 3:0.9276000261306763 4:0.8131999969482422 5:0.5698000192642212 6:0.3806000053882599 7:0.09489999711513519 8:-0.2046000063419342 9:-0.538100004196167 10:-0.7782999873161316 11:-0.946399986743927 
100.0 100.0 0.0 100.0 1:7.408827304840088 2:0.9983999729156494 3:0.9301000237464905 4:0.8359000086784363 5:0.6101999878883362 6:0.373199999332428 7:0.12349999696016312 8:-0.17110000550746918 9:-0.4699000120162964 10:-0.7537000179290771 11:-0.9379000067710876 
0.0 0.0 0.0 100.0 1:7.262199878692627 2:0.9966999888420105 3:0.9401999711990356 4:0.832099974155426 5:0.6273000240325928 6:0.4049000144004822 7:0.13099999725818634 8:-0.16300000250339508 9:-0.4733999967575073 10:-0.7465000152587891 11:-0.9365000128746033 
0.0 0.0 0.0 100.0 1:7.264946460723877 2:0.9959999918937683 3:0.9474999904632568 4:0.8400999903678894 5:0.6355999708175659 6:0.4065999984741211 7:0.11630000174045563 8:-0.1623000055551529 9:-0.4941999912261963 10:-0.7519000172615051 11:-0.949999988079071 
0.0 0.0 0.0 100.0 1:6.970837593078613 2:0.9944999814033508 3:0.9381999969482422 4:0.8632000088691711 5:0.6313999891281128 6:0.3880000114440918 7:0.14339999854564667 8:-0.1518000066280365 9:-0.47600001096725464 10:-0.7407000064849854 11:-0.9348000288009644 
0.0 0.0 0.0 100.0 1:6.851635932922363 2:0.9962999820709229 3:0.932200014591217 4:0.8700000047683716 5:0.6312999725341797 6:0.4065000116825104 7:0.1395999938249588 8:-0.16359999775886536 9:-0.4903999865055084 10:-0.7458000183105469 11:-0.9358000159263611 
0.0 0.0 0.0 100.0 1:7.2762131690979 2:0.9966999888420105 3:0.9391000270843506 4:0.8217999935150146 5:0.6266999840736389 6:0.42969998717308044 7:0.14720000326633453 8:-0.17800000309944153 9:-0.48420000076293945 10:-0.7537999749183655 11:-0.9398000240325928 
0.0 0.0 0.0 100.0 1:7.448807239532471 2:0.9983000159263611 3:0.9506999850273132 4:0.8396000266075134 5:0.6417999863624573 6:0.39800000190734863 7:0.11010000109672546 8:-0.18129999935626984 9:-0.4932999908924103 10:-0.7605999708175659 11:-0.940500020980835 
0.0 0.0 100.0 0.0 1:6.500677585601807 2:0.9980999827384949 3:0.9635000228881836 4:0.8427000045776367 5:0.7379000186920166 6:0.4975999891757965 7:0.21359999477863312 8:-0.12470000237226486 9:-0.46209999918937683 10:-0.7200999855995178 11:-0.9376999735832214 
0.0 100.0 100.0 0.0 1:6.289496898651123 2:0.9980999827384949 3:0.9715999960899353 4:0.8242999911308289 5:0.7588000297546387 6:0.5328999757766724 7:0.22370000183582306 8:-0.11020000278949738 9:-0.4722000062465668 10:-0.7243000268936157 11:-0.9427000284194946 
0.0 0.0 100.0 0.0 1:6.3126044273376465 2:0.9980000257492065 3:0.9635999798774719 4:0.8367999792098999 5:0.7511000037193298 6:0.5403000116348267 7:0.2021999955177307 8:-0.12720000743865967 9:-0.45750001072883606 10:-0.7293999791145325 11:-0.9388999938964844 
0.0 0.0 100.0 0.0 1:6.149345874786377 2:0.9968000054359436 3:0.9581999778747559 4:0.8532000184059143 5:0.7533000111579895 6:0.5486999750137329 7:0.23479999601840973 8:-0.11969999969005585 9:-0.43880000710487366 10:-0.7245000004768372 11:-0.9312000274658203 
0.0 0.0 100.0 0.0 1:6.154550552368164 2:0.9968000054359436 3:0.9584000110626221 4:0.8317999839782715 5:0.7404000163078308 6:0.5123000144958496 7:0.1785999983549118 8:-0.14090000092983246 9:-0.46810001134872437 10:-0.7386000156402588 11:-0.9390000104904175 
0.0 0.0 100.0 0.0 1:6.0831708908081055 2:0.9970999956130981 3:0.9645000100135803 4:0.8432999849319458 5:0.7580000162124634 6:0.5271000266075134 7:0.20730000734329224 8:-0.13300000131130219 9:-0.4584999978542328 10:-0.7378000020980835 11:-0.9383999705314636 
0.0 0.0 100.0 0.0 1:6.1649861335754395 2:0.9973000288009644 3:0.9474999904632568 4:0.8321999907493591 5:0.7360000014305115 6:0.4975000023841858 7:0.18950000405311584 8:-0.15860000252723694 9:-0.4887999892234802 10:-0.7466999888420105 11:-0.9430000185966492 
0.0 0.0 100.0 0.0 1:6.241429328918457 2:0.9968000054359436 3:0.9702000021934509 4:0.8575000166893005 5:0.7452999949455261 6:0.5289999842643738 7:0.20010000467300415 8:-0.12880000472068787 9:-0.44749999046325684 10:-0.7235999703407288 11:-0.9236999750137329 
0.0 0.0 100.0 0.0 1:6.288951873779297 2:0.9959999918937683 3:0.9581999778747559 4:0.8436999917030334 5:0.7342000007629395 6:0.4749000072479248 7:0.14319999516010284 8:-0.20900000631809235 9:-0.5349000096321106 10:-0.7791000008583069 11:-0.944599986076355 
0.0 0.0 100.0 0.0 1:6.433526992797852 2:0.9973999857902527 3:0.9575999975204468 4:0.8288000226020813 5:0.73580002784729 6:0.4871000051498413 7:0.1460999995470047 8:-0.1784999966621399 9:-0.4977000057697296 10:-0.7648000121116638 11:-0.9455000162124634 
0.0 0.0 100.0 0.0 1:6.428168773651123 2:0.9976000189781189 3:0.9646000266075134 4:0.8410999774932861 5:0.755299985408783 6:0.5367000102996826 7:0.18369999527931213 8:-0.13289999961853027 9:-0.4814000129699707 10:-0.765500009059906 11:-0.940500020980835 
0.0 0.0 100.0 0.0 1:6.557437419891357 2:0.9969000220298767 3:0.9624000191688538 4:0.8495000004768372 5:0.7505999803543091 6:0.5170999765396118 7:0.186599999666214 8:-0.15860000252723694 9:-0.4936000108718872 10:-0.7663000226020813 11:-0.9362999796867371 
0.0 0.0 100.0 0.0 1:6.071213245391846 2:0.9977999925613403 3:0.946399986743927 4:0.8521999716758728 5:0.7524999976158142 6:0.5250999927520752 7:0.2053000032901764 8:-0.1542000025510788 9:-0.4790000021457672 10:-0.7677000164985657 11:-0.9404000043869019 
0.0 0.0 100.0 0.0 1:6.675314426422119 2:0.9977999925613403 3:0.9685999751091003 4:0.8357999920845032 5:0.734499990940094 6:0.4708999991416931 7:0.14550000429153442 8:-0.19089999794960022 9:-0.5289000272750854 10:-0.7789999842643738 11:-0.9451000094413757 
0.0 0.0 100.0 0.0 1:6.928011894226074 2:0.9973999857902527 3:0.9642000198364258 4:0.8338000178337097 5:0.728600025177002 6:0.4745999872684479 7:0.1500999927520752 8:-0.18150000274181366 9:-0.5412999987602234 10:-0.7843000292778015 11:-0.9455999732017517 
0.0 0.0 100.0 0.0 1:6.840039253234863 2:0.9970999956130981 3:0.9639000296592712 4:0.8328999876976013 5:0.7340999841690063 6:0.48249998688697815 7:0.13420000672340393 8:-0.16590000689029694 9:-0.5196999907493591 10:-0.7954999804496765 11:-0.9452000260353088 
0.0 0.0 100.0 0.0 1:6.290680885314941 2:0.9966999888420105 3:0.9467999935150146 4:0.8409000039100647 5:0.756600022315979 6:0.4869999885559082 7:0.1324000060558319 8:-0.1688999980688095 9:-0.5260000228881836 10:-0.7874000072479248 11:-0.9452999830245972 
0.0 0.0 100.0 0.0 1:6.28449010848999 2:0.9958999752998352 3:0.9520999789237976 4:0.8504999876022339 5:0.7573999762535095 6:0.4657000005245209 7:0.1396999955177307 8:-0.1890999972820282 9:-0.5335999727249146 10:-0.7875999808311462 11:-0.9473000168800354 
0.0 0.0 100.0 0.0 1:6.410895347595215 2:0.9979000091552734 3:0.9588000178337097 4:0.8531000018119812 5:0.7329000234603882 6:0.42309999465942383 7:0.11729999631643295 8:-0.23989999294281006 9:-0.5343000292778015 10:-0.7822999954223633 11:-0.9478999972343445 
0.0 0.0 100.0 0.0 1:6.31343412399292 2:0.998199999332428 3:0.9678999781608582 4:0.84170001745224 5:0.7430999875068665 6:0.5210000276565552 7:0.17890000343322754 8:-0.16259999573230743 9:-0.4959000051021576 10:-0.7592999935150146 11:-0.9401000142097473 
0.0 0.0 100.0 0.0 1:6.194814205169678 2:0.9973999857902527 3:0.9467999935150146 4:0.8543000221252441 5:0.7483999729156494 6:0.5332000255584717 7:0.1615000069141388 8:-0.15690000355243683 9:-0.5001999735832214 10:-0.7638000249862671 11:-0.9402999877929688 
0.0 0.0 100.0 0.0 1:6.5861005783081055 2:0.9976000189781189 3:0.9610000252723694 4:0.847000002861023 5:0.7203999757766724 6:0.4900999963283539 7:0.16019999980926514 8:-0.1703999936580658 9:-0.5231999754905701 10:-0.767799973487854 11:-0.9376000165939331 
0.0 0.0 100.0 0.0 1:6.538950443267822 2:0.9977999925613403 3:0.9621000289916992 4:0.847599983215332 5:0.7307000160217285 6:0.48510000109672546 7:0.16740000247955322 8:-0.1761000007390976 9:-0.5163999795913696 10:-0.76419997215271 11:-0.9445000290870667 
0.0 0.0 100.0 0.0 1:6.564995288848877 2:0.9977999925613403 3:0.9682000279426575 4:0.8440999984741211 5:0.7307999730110168 6:0.4823000133037567 7:0.16760000586509705 8:-0.18080000579357147 9:-0.5084999799728394 10:-0.7598000168800354 11:-0.9397000074386597 
0.0 0.0 100.0 0.0 1:6.5438408851623535 2:0.9979000091552734 3:0.9714000225067139 4:0.8586999773979187 5:0.7228000164031982 6:0.4839000105857849 7:0.2020999938249588 8:-0.17880000174045563 9:-0.4959999918937683 10:-0.7580999732017517 11:-0.9473000168800354 
0.0 0.0 100.0 0.0 1:6.4995551109313965 2:0.9968000054359436 3:0.9681000113487244 4:0.847000002861023 5:0.6710000038146973 6:0.4803999960422516 7:0.2418999969959259 8:-0.09889999777078629 9:-0.43810001015663147 10:-0.7358999848365784 11:-0.942300021648407 
0.0 0.0 0.0 100.0 1:6.78781270980835 2:0.9952999949455261 3:0.9379000067710876 4:0.8510000109672546 5:0.637499988079071 6:0.4650000035762787 7:0.18080000579357147 8:-0.12620000541210175 9:-0.4593000113964081 10:-0.7389000058174133 11:-0.9423999786376953 
0.0 0.0 0.0 100.0 1:6.985356330871582 2:0.9950000047683716 3:0.9333000183105469 4:0.8508999943733215 5:0.6078000068664551 6:0.42590001225471497 7:0.17919999361038208 8:-0.14640000462532043 9:-0.4837999939918518 10:-0.7441999912261963 11:-0.9478999972343445 
0.0 0.0 0.0 100.0 1:6.650510311126709 2:0.9948999881744385 3:0.9311000108718872 4:0.8361999988555908 5:0.6072999835014343 6:0.4832000136375427 7:0.2232999950647354 8:-0.12139999866485596 9:-0.4603999853134155 10:-0.7401000261306763 11:-0.9452000260353088 
0.0 100.0 0.0 100.0 1:7.218931674957275 2:0.9951000213623047 3:0.9319999814033508 4:0.843500018119812 5:0.6123999953269958 6:0.3824999928474426 7:0.18469999730587006 8:-0.17270000278949738 9:-0.47940000891685486 10:-0.7495999932289124 11:-0.9430999755859375 
0.0 0.0 0.0 100.0 1:6.972249507904053 2:0.993399977684021 3:0.9391999840736389 4:0.8442000150680542 5:0.5899999737739563 6:0.4546999931335449 7:0.19020000100135803 8:-0.13950000703334808 9:-0.4668999910354614 10:-0.7314000129699707 11:-0.9537000060081482 
0.0 72.0021977006136 0.0 100.0 1:7.139374256134033 2:0.9934999942779541 3:0.9319000244140625 4:0.8445000052452087 5:0.6122999787330627 6:0.40380001068115234 7:0.17180000245571136 8:-0.15449999272823334 9:-0.46790000796318054 10:-0.7404000163078308 11:-0.9416000247001648 
0.0 100.0 0.0 100.0 1:7.536653518676758 2:0.9940000176429749 3:0.9362999796867371 4:0.8104000091552734 5:0.5669999718666077 6:0.3928000032901764 7:0.11320000141859055 8:-0.19699999690055847 9:-0.5236999988555908 10:-0.7628999948501587 11:-0.9434000253677368 
0.0 0.0 0.0 100.0 1:7.076196670532227 2:0.9965000152587891 3:0.9350000023841858 4:0.8597999811172485 5:0.6191999912261963 6:0.3808000087738037 7:0.1589999943971634 8:-0.155799999833107 9:-0.48249998688697815 10:-0.7483999729156494 11:-0.9406999945640564 
0.0 0.0 0.0 100.0 1:7.252407073974609 2:0.9976000189781189 3:0.9333999752998352 4:0.8303999900817871 5:0.614300012588501 6:0.43290001153945923 7:0.18440000712871552 8:-0.15070000290870667 9:-0.48429998755455017 10:-0.7433000206947327 11:-0.9386000037193298 
0.0 100.0 0.0 100.0 1:7.362509727478027 2:0.9955000281333923 3:0.9302999973297119 4:0.8374000191688538 5:0.6068999767303467 6:0.40639999508857727 7:0.17110000550746918 8:-0.16009999811649323 9:-0.48649999499320984 10:-0.7480000257492065 11:-0.9440000057220459 
0.0 100.0 0.0 100.0 1:7.503679275512695 2:0.9941999912261963 3:0.9388999938964844 4:0.8047999739646912 5:0.5861999988555908 6:0.38280001282691956 7:0.04910000041127205 8:-0.2639000117778778 9:-0.5608000159263611 10:-0.8051999807357788 11:-0.9362999796867371 
0.0 0.0 0.0 100.0 1:7.102278709411621 2:0.9976000189781189 3:0.9319999814033508 4:0.8276000022888184 5:0.6596999764442444 6:0.41990000009536743 7:0.15639999508857727 8:-0.13689999282360077 9:-0.46810001134872437 10:-0.7455000281333923 11:-0.9460999965667725 
0.0 0.0 0.0 100.0 1:7.064143180847168 2:0.9977999925613403 3:0.9441999793052673 4:0.840399980545044 5:0.664900004863739 6:0.4009000062942505 7:0.13619999587535858 8:-0.1565999984741211 9:-0.47760000824928284 10:-0.7465999722480774 11:-0.9398999810218811 
0.0 0.0 0.0 100.0 1:6.860708236694336 2:0.9986000061035156 3:0.9358000159263611 4:0.8440999984741211 5:0.6740000247955322 6:0.42489999532699585 7:0.13050000369548798 8:-0.18389999866485596 9:-0.48899999260902405 10:-0.7411999702453613 11:-0.9409999847412109 
0.0 0.0 0.0 100.0 1:7.289273262023926 2:0.9983000159263611 3:0.9430999755859375 4:0.8167999982833862 5:0.6312999725341797 6:0.4124000072479248 7:0.14090000092983246 8:-0.1931000053882599 9:-0.4999000132083893 10:-0.7706999778747559 11:-0.9444000124931335 
0.0 0.0 0.0 100.0 1:6.973706245422363 2:0.9984999895095825 3:0.9277999997138977 4:0.8149999976158142 5:0.6809999942779541 6:0.4293000102043152 7:0.14180000126361847 8:-0.1543000042438507 9:-0.47530001401901245 10:-0.7329000234603882 11:-0.944599986076355 
0.0 0.0 100.0 0.0 1:6.826714515686035 2:0.9976999759674072 3:0.9710000157356262 4:0.817799985408783 5:0.6858000159263611 6:0.41339999437332153 7:0.07800000160932541 8:-0.23389999568462372 9:-0.5343000292778015 10:-0.7817000150680542 11:-0.9451000094413757 
0.0 100.0 0.0 100.0 1:7.449987888336182 2:0.9929999709129333 3:0.9409000277519226 4:0.8511999845504761 5:0.6366000175476074 6:0.3626999855041504 7:0.06710000336170197 8:-0.24169999361038208 9:-0.5253000259399414 10:-0.753600001335144 11:-0.9480999708175659 
100.0 100.0 0.0 100.0 1:7.350101947784424 2:0.9944999814033508 3:0.934499979019165 4:0.8544999957084656 5:0.6496999859809875 6:0.35659998655319214 7:0.03709999844431877 8:-0.26669999957084656 9:-0.5400999784469604 10:-0.7738000154495239 11:-0.951200008392334 
46.026436478255555 100.0 0.0 100.0 1:7.1798906326293945 2:0.991599977016449 3:0.9269000291824341 4:0.8342999815940857 5:0.6539999842643738 6:0.41100001335144043 7:0.09679999947547913 8:-0.22210000455379486 9:-0.5239999890327454 10:-0.7562999725341797 11:-0.9490000009536743 
100.0 100.0 0.0 100.0 1:7.1792707443237305 2:0.9932000041007996 3:0.9265999794006348 4:0.8331999778747559 5:0.6488000154495239 6:0.39320001006126404 7:0.1088000014424324 8:-0.22450000047683716 9:-0.5220999717712402 10:-0.7688000202178955 11:-0.9477999806404114 
0.0 0.0 100.0 0.0 1:6.281748294830322 2:0.9955000281333923 3:0.9509999752044678 4:0.8472999930381775 5:0.7182000279426575 6:0.5273000001907349 7:0.16779999434947968 8:-0.1890999972820282 9:-0.47929999232292175 10:-0.7576000094413757 11:-0.9472000002861023 
0.0 0.0 100.0 0.0 1:6.154459476470947 2:0.9962999820709229 3:0.9574999809265137 4:0.8507000207901001 5:0.7243000268936157 6:0.5202000141143799 7:0.1492999941110611 8:-0.18809999525547028 9:-0.5105000138282776 10:-0.7695000171661377 11:-0.9477999806404114 
0.0 0.0 100.0 0.0 1:6.138568878173828 2:0.9955000281333923 3:0.9544000029563904 4:0.861299991607666 5:0.7275000214576721 6:0.5073000192642212 7:0.15700000524520874 8:-0.19280000030994415 9:-0.4878000020980835 10:-0.758400022983551 11:-0.9502000212669373 
0.0 0.0 100.0 0.0 1:6.006473064422607 2:0.9955000281333923 3:0.9484999775886536 4:0.8514999747276306 5:0.7317000031471252 6:0.4959000051021576 7:0.11670000106096268 8:-0.21809999644756317 9:-0.5424000024795532 10:-0.7839000225067139 11:-0.947700023651123 
0.0 0.0 100.0 0.0 1:6.144443988800049 2:0.9948999881744385 3:0.9534000158309937 4:0.8447999954223633 5:0.7077999711036682 6:0.49559998512268066 7:0.0966000035405159 8:-0.22110000252723694 9:-0.5382999777793884 10:-0.7773000001907349 11:-0.9506999850273132 
0.0 0.0 100.0 0.0 1:5.955231666564941 2:0.9959999918937683 3:0.9549999833106995 4:0.8629000186920166 5:0.7319999933242798 6:0.5210000276565552 7:0.15219999849796295 8:-0.19760000705718994 9:-0.5203999876976013 10:-0.762499988079071 11:-0.9456999897956848 
0.0 0.0 100.0 0.0 1:6.077910423278809 2:0.9961000084877014 3:0.9589999914169312 4:0.8504999876022339 5:0.7150999903678894 6:0.4968999922275543 7:0.11069999635219574 8:-0.21040000021457672 9:-0.5370000004768372 10:-0.7735000252723694 11:-0.9513999819755554 
0.0 0.0 100.0 0.0 1:6.662771701812744 2:0.996999979019165 3:0.9602000117301941 4:0.8485000133514404 5:0.6926000118255615 6:0.4740000069141388 7:0.10890000313520432 8:-0.21570000052452087 9:-0.5317999720573425 10:-0.7835999727249146 11:-0.9470000267028809 
0.0 0.0 100.0 0.0 1:6.352349281311035 2:0.996999979019165 3:0.9692000150680542 4:0.8565000295639038 5:0.7013999819755554 6:0.46630001068115234 7:0.10849999636411667 8:-0.2304999977350235 9:-0.5182999968528748 10:-0.7835000157356262 11:-0.9472000002861023 
0.0 0.0 100.0 0.0 1:6.4504780769348145 2:0.9973999857902527 3:0.9599999785423279 4:0.8550000190734863 5:0.7161999940872192 6:0.4731999933719635 7:0.11640000343322754 8:-0.20900000631809235 9:-0.5230000019073486 10:-0.7730000019073486 11:-0.9438999891281128 
0.0 0.0 100.0 0.0 1:6.701220989227295 2:0.9972000122070312 3:0.9557999968528748 4:0.8537999987602234 5:0.7073000073432922 6:0.4345000088214874 7:0.12099999934434891 8:-0.21770000457763672 9:-0.526199996471405 10:-0.771399974822998 11:-0.9365000128746033 
0.0 0.0 0.0 100.0 1:7.124525547027588 2:0.9962000250816345 3:0.9553999900817871 4:0.8496999740600586 5:0.6664999723434448 6:0.38510000705718994 7:0.09210000187158585 8:-0.23499999940395355 9:-0.5346999764442444 10:-0.775600016117096 11:-0.9440000057220459 
0.0 0.0 100.0 0.0 1:6.871711730957031 2:0.9973999857902527 3:0.9587000012397766 4:0.8574000000953674 5:0.7160000205039978 6:0.5115000009536743 7:0.14720000326633453 8:-0.18559999763965607 9:-0.5109000205993652 10:-0.7495999932289124 11:-0.9473999738693237 
0.0 0.0 100.0 0.0 1:6.564658164978027 2:0.9948999881744385 3:0.9629999995231628 4:0.8676000237464905 5:0.7171000242233276 6:0.47699999809265137 7:0.1597999930381775 8:-0.18979999423027039 9:-0.498199999332428 10:-0.7470999956130981 11:-0.9441999793052673 
0.0 0.0 100.0 0.0 1:6.707932472229004 2:0.9968000054359436 3:0.958899974822998 4:0.8648999929428101 5:0.695900022983551 6:0.49869999289512634 7:0.1606999933719635 8:-0.15620000660419464 9:-0.49129998683929443 10:-0.758899986743927 11:-0.9426000118255615 
